tree
version=v2
num_class=1
num_tree_per_iteration=1
label_index=0
max_feature_idx=27
objective=binary sigmoid:1
feature_names=Column_0 Column_1 Column_2 Column_3 Column_4 Column_5 Column_6 Column_7 Column_8 Column_9 Column_10 Column_11 Column_12 Column_13 Column_14 Column_15 Column_16 Column_17 Column_18 Column_19 Column_20 Column_21 Column_22 Column_23 Column_24 Column_25 Column_26 Column_27
feature_infos=[0.27500000000000002:6.6950000000000003] [-2.4169999999999998:2.4300000000000002] [-1.7429999999999999:1.7429999999999999] [0.019:5.7000000000000002] [-1.7429999999999999:1.7429999999999999] [0.159:4.1900000000000004] [-2.9409999999999998:2.9699999999999998] [-1.7410000000000001:1.7410000000000001] [0:2.173] [0.19:5.1929999999999996] [-2.9039999999999999:2.9089999999999998] [-1.742:1.7429999999999999] [0:2.2149999999999999] [0.26400000000000001:6.5229999999999997] [-2.7279999999999998:2.7269999999999999] [-1.742:1.742] [0:2.548] [0.36499999999999999:6.0679999999999996] [-2.4950000000000001:2.496] [-1.74:1.7429999999999999] [0:3.1019999999999999] [0.17199999999999999:13.098000000000001] [0.41899999999999998:7.3920000000000003] [0.46100000000000002:3.6819999999999999] [0.38400000000000001:6.5830000000000002] [0.092999999999999999:7.8600000000000003] [0.38900000000000001:4.5430000000000001] [0.48899999999999999:4.3159999999999998]
tree_sizes=4905 4963 4974 4947 4962 4922 4966 4964 4974 4986 4978 4976 4972 4969 4992 4993 4997 4975 4989 4994 4971 4995 4999 5005 4999 4998 4972 4982 5005 5007 4999 4979 4986 4997 4990 4997 5004 5009 4975 5002 5022 5012 5008 5040 5013 5000 5001 5000 5019 5031 5030 4996 5008 5016 5030 5015 5025 5021 5005 5025 5030 4989 4987 4996 5010 5000 4991 5029 5031 4994 5024 5013 5036 5000 5016 5024 5033 5019 5020 5033 5023 5003 5020 4998 5023 5019 5010 5002 4978 5012 5030 4988 5031 5021 5035 5026 5006 5011 4999 4979

Tree=0
num_leaves=63
num_cat=0
split_feature=25 26 27 25 25 24 22 5 5 26 27 25 27 26 27 24 3 25 13 3 22 24 9 13 24 5 0 5 0 24 25 22 19 19 22 3 2 9 21 2 21 3 21 27 27 0 9 25 21 22 5 21 25 10 25 7 7 22 2 21 26 7
split_gain=257.055 164.481 154.153 62.9782 70.5426 52.5554 83.9337 35.8828 33.4739 27.7079 26.4857 25.9768 25.8248 22.0378 21.8567 33.6473 17.887 17.3299 16.213 15.1361 14.4119 13.3957 12.4688 12.281 14.3862 12.0667 11.9684 11.056 11.0408 10.2081 10.1712 10.1242 10.1151 10.0355 10.0062 9.57232 10.4365 9.56477 9.4785 9.33638 8.25943 8.22823 8.18983 8.12448 7.84808 8.16687 7.82381 9.35419 6.74623 6.5917 6.37347 6.26372 6.21071 6.10099 6.09723 6.06212 6.8257 5.99974 9.32125 7.8135 5.91133 5.72122
threshold=1.2815000000000003 0.78050000000000008 0.90450000000000019 0.98450000000000004 0.67850000000000021 1.0265000000000002 1.0445000000000002 0.82550000000000001 1.0195000000000001 0.86950000000000005 0.78850000000000009 0.62350000000000005 0.84850000000000014 0.88850000000000018 0.88950000000000007 1.1225000000000003 1.9205000000000003 0.98950000000000016 1.3835000000000002 1.8335000000000001 0.94750000000000012 0.71850000000000003 1.0555000000000001 0.96150000000000013 0.75150000000000017 1.3365000000000002 1.1195000000000002 0.7835000000000002 0.82750000000000001 1.2175000000000002 0.86450000000000016 1.0285000000000002 1.0425000000000002 -0.37449999999999994 1.1345000000000003 0.94850000000000001 -0.28249999999999992 0.70250000000000001 0.93450000000000022 0.43550000000000005 0.89050000000000018 1.3015000000000001 1.0675000000000001 1.1895000000000002 0.85250000000000015 0.93350000000000011 1.3175000000000001 0.90050000000000019 1.0385000000000002 1.0235000000000001 0.48950000000000005 0.73150000000000015 1.1045000000000003 -0.05949999999999999 1.8760000000000001 0.87850000000000017 -0.033499999999999995 0.99250000000000005 0.57050000000000012 0.88450000000000017 0.96250000000000002 1.0000000180025095e-35
decision_type=2 2 2 2 2 2 2 2 2 2 2 2 2 2 2 2 2 2 2 2 2 2 2 2 2 2 2 2 2 2 2 2 2 2 2 2 2 2 2 2 2 2 2 2 2 2 2 2 2 2 2 2 2 2 2 2 2 2 2 2 2 2
left_child=1 7 3 4 23 6 26 21 13 10 30 48 25 -5 20 31 17 46 29 34 -2 32 37 24 -3 35 41 -12 -24 -19 -6 51 57 -22 39 36 -9 -8 -23 -17 -25 53 -40 -33 45 -26 47 55 -7 -31 -11 -16 -15 -4 -36 56 -13 58 59 -1 -10 -39
right_child=14 2 5 8 9 11 22 12 60 50 27 16 -14 52 15 19 -18 18 -20 -21 33 38 28 40 44 -27 -28 -29 -30 49 -32 43 -34 -35 54 -37 -38 61 42 -41 -42 -43 -44 -45 -46 -47 -48 -49 -50 -51 -52 -53 -54 -55 -56 -57 -58 -59 -60 -61 -62 -63
leaf_value=-0.10447761194029848 -0.071074380165289261 0.1032258064516129 -0.087719298245614016 -0.075968992248062028 0.15294117647058825 -0.068000000000000005 0.066666666666666666 0.12000000000000005 0.066666666666666652 0.090196078431372562 -0.045161290322580636 0.043076923076923082 -0.11372549019607843 0.071264367816091953 -0.090196078431372562 -0.022580645161290325 -0.029166666666666671 -0.082352941176470587 0.11578947368421054 -0.14385964912280702 -0.039999999999999994 -0.1064748201438849 0.14666666666666664 0.039999999999999994 -0.029213483146067417 0.12592592592592594 -0.15873015873015872 0.079245283018867935 0.027692307692307697 -0.010309278350515464 0.071111111111111111 -0.041095890410958902 -0.10344827586206898 0.078787878787878796 0.05806451612903224 -0.034999999999999996 0.010526315789473682 0.017543859649122803 -0 -0.10804597701149427 0.15384615384615385 -0.12972972972972974 -0.10188679245283019 -0.13513513513513514 -0.074509803921568626 0.055319148936170216 0.13214285714285715 0.12075471698113208 0.016393442622950821 0.07636363636363637 0.16342857142857145 -0.16785714285714287 -0.0084507042253521136 0.0080000000000000002 -0.03529411764705883 -0.0068965517241379309 0.12941176470588237 0.049056603773584909 0.040000000000000008 -0 0.15862068965517243 -0.068656716417910449
leaf_count=67 121 62 57 129 187 100 63 55 54 51 62 130 51 87 51 124 96 51 57 57 50 278 60 50 89 54 126 53 65 97 90 73 58 66 62 80 95 57 78 87 52 74 53 74 51 94 112 106 61 55 700 224 71 50 51 58 51 53 55 50 58 67
internal_value=0 0.340351 0.545146 0.923711 1.10707 0.084118 -0.371567 -0.364167 0.215539 1.35958 0.928571 0.373717 0.173134 -0.146341 -0.761538 -0.919054 0.519065 0.627615 0.215385 -0.488189 -0.227848 -0.624277 0.358974 0.38191 0.175676 0.408451 -1.11401 0.121739 0.848 -0.0492611 1.26354 -1.30806 -0.289753 0.275862 -0.320988 0.208696 0.506667 0.0320856 -0.855746 -0.578199 0.980392 -0.78453 -0.412214 -0.884354 -0.0512821 0.142077 0.862144 0.713043 -0.360248 0.210526 1.58455 -1.53455 0.35443 -0.429907 0.159292 0.493724 0.674033 -0.0977778 -0.27907 -0.598291 1.14286 -0.290323
internal_count=5600 4560 3533 1940 1541 1593 619 1027 399 1143 392 974 335 287 1040 803 813 717 260 381 237 692 312 398 296 284 307 115 125 203 277 422 283 116 324 230 150 187 409 211 102 181 131 147 234 183 457 345 161 152 751 275 158 107 113 239 181 225 172 117 112 124
shrinkage=0.1


Tree=1
num_leaves=63
num_cat=0
split_feature=25 26 25 25 3 5 5 26 3 22 22 22 25 24 26 22 26 24 3 5 26 24 13 24 26 2 5 17 5 19 9 18 24 13 25 5 23 10 18 23 11 2 19 11 6 14 7 24 23 13 26 26 25 25 13 19 6 7 19 15 14 26
split_gain=208.886 134.229 73.3361 107.72 34.6891 30.5528 18.1031 19.9999 17.7238 17.5253 17.0284 18.0948 14.9912 17 13.7721 16.3346 12.9194 12.01 11.6962 11.6201 11.5277 11.4592 10.3969 10.1842 19.1232 9.04027 8.69383 8.29875 8.25711 8.1868 8.18664 7.79174 9.00945 9.31461 7.35327 7.25466 6.75198 9.0724 7.30793 6.74497 6.63714 6.73013 7.84814 6.59373 6.58274 6.34776 6.06419 5.90933 5.79913 5.7787 5.70358 11.7814 8.97771 5.60459 5.70473 5.57256 5.54657 5.52301 5.39742 5.25522 5.167 4.69016
threshold=1.2815000000000003 0.77650000000000008 0.62350000000000005 0.98950000000000016 1.6175000000000002 0.82550000000000001 0.88150000000000006 1.0375000000000003 1.8535000000000001 1.0445000000000002 1.0025000000000002 0.84950000000000003 0.58150000000000002 0.74550000000000016 0.97650000000000003 0.78450000000000009 0.94950000000000012 0.71850000000000003 1.1435000000000002 1.5755000000000001 1.1205000000000003 1.1915000000000002 0.73250000000000004 1.3235000000000003 1.3345000000000002 0.16350000000000003 1.2495000000000003 1.1765000000000001 0.83850000000000013 1.0425000000000002 0.9105000000000002 0.058500000000000003 0.78250000000000008 1.0275000000000001 0.79550000000000021 0.46450000000000008 0.99150000000000016 0.093500000000000014 0.94450000000000001 0.99950000000000017 1.1820000000000002 1.0355000000000001 -1.0564999999999998 0.11150000000000002 0.14450000000000002 -0.37849999999999995 -0.15449999999999997 0.98950000000000016 0.98650000000000004 0.7855000000000002 0.84350000000000003 0.92450000000000021 0.86450000000000016 0.7985000000000001 0.63350000000000006 0.76250000000000007 -0.34349999999999997 -0.59699999999999986 -0.052999999999999992 0.46550000000000008 -0.12149999999999998 1.2785000000000002
decision_type=2 2 2 2 2 2 2 2 2 2 2 2 2 2 2 2 2 2 2 2 2 2 2 2 2 2 2 2 2 2 2 2 2 2 2 2 2 2 2 2 2 2 2 2 2 2 2 2 2 2 2 2 2 2 2 2 2 2 2 2 2 2
left_child=1 5 19 4 6 17 18 53 9 14 11 28 13 -7 30 -16 -12 29 35 31 46 61 -6 24 -11 -22 -9 -25 -5 56 -2 32 -3 -34 -14 -4 38 -38 48 50 41 42 -19 -24 58 -20 -18 -28 -33 -47 -37 -52 -53 54 -8 -44 -1 -30 -13 -58 -46 -17
right_child=8 2 3 10 22 12 7 26 -10 23 16 44 34 -15 15 21 20 40 45 -21 25 -23 43 27 -26 -27 47 -29 57 -31 -32 36 33 -35 -36 39 37 -39 -40 -41 -42 -43 55 -45 60 49 -48 -49 -50 -51 51 52 -54 -55 -56 -57 59 -59 -60 -61 -62 -63
leaf_value=0.03054191309342499 -0.077733768359849381 0.026303510642850993 0.028402645132494499 -0.039638348409412189 0.075508945397871507 0.026005947246202057 0.063649196196235755 0.040839610484817206 -0.15485134643054149 0.0016310700993469351 -0.039043260948271014 -0.067790974986911515 0.095120907083878284 -0.10810429076198812 0.0087342609772199497 -0.11493143514400168 0.15046973369967259 -0.017093619898944781 -0.017471156068978914 0.074624894384501622 -0.028649150286398545 -0.060693423577846885 0.032886201840927422 -0.026125128342244813 -0.11883225381787497 0.071214199127368802 0.054062512933518082 0.087506565970540823 -0.0081401894840979882 -0.093362000391187958 0.023636191339522359 0.04974980641200686 -0.095495040272900247 -0.00067105517528839821 0.0099648116657571912 0.043230996256130111 -0.030243601632859714 0.081722864261012385 -0.085796002188588807 0.1295625645066584 -0.018973197981158371 -0.15532309603981198 -0.12252536408471848 -0.04140926264643266 -0.043286336131245426 0.0037145577754935915 0.061068169808447606 0.13710251093103476 -0.044796454961218063 0.087969589793203476 0.13343031376137343 0.015998104130553577 0.10840198260443634 0.14953294212931012 0.13206951491491492 -0.057346534091165247 -0.064149926592597911 0.072958995654177766 0.005165635134556092 0.01743020092783118 -0.12684445236038641 -0.1714330732325943
leaf_count=87 58 50 73 63 94 95 72 159 88 130 73 77 95 63 54 226 55 64 66 52 78 141 92 53 89 68 53 50 50 58 71 53 146 58 71 112 50 69 57 167 60 55 133 100 52 51 68 98 51 91 166 92 78 411 153 87 86 103 86 50 69 80
internal_value=0 0.307245 0.489937 0.617818 0.858075 -0.339053 0.958948 1.15237 -0.687459 -0.608065 0.0119608 -0.223473 0.166834 -0.274522 -0.802488 -0.952922 0.356157 -0.580117 0.754864 -0.157111 0.558899 -1.07874 0.209096 -0.228329 -0.472565 0.17853 0.735273 0.29043 0.213216 -0.263233 -0.219352 -0.245059 -0.498945 -0.68547 0.586925 0.880771 -0.0147962 0.346737 -0.282006 0.951726 -0.803484 -0.912141 -0.787986 -0.0580384 -0.555541 0.338582 1.0104 1.07958 0.0337125 0.577226 0.823642 0.954273 0.583662 1.35601 1.10174 -0.967537 -0.0891554 0.464517 -0.293003 -0.341564 -0.909275 -1.29689
internal_count=5600 4560 3556 2970 2128 1004 1842 946 1040 952 842 500 324 158 630 501 342 680 896 586 269 447 286 322 219 146 310 103 216 281 129 534 254 204 166 688 280 119 161 615 399 339 284 192 284 208 123 151 104 142 448 336 170 636 225 220 223 153 163 136 121 306
shrinkage=0.1


Tree=2
num_leaves=63
num_cat=0
split_feature=27 26 24 22 3 22 13 27 22 26 27 26 24 0 9 27 12 4 22 22 24 22 22 24 14 7 2 18 9 1 4 26 7 27 19 8 0 13 7 0 24 27 21 11 13 24 4 18 13 6 7 22 18 27 7 0 13 9 1 3 19 23
split_gain=126.707 154.284 76.8276 82.2411 22.9258 20.1941 18.7622 16.0443 15.9922 15.8881 13.1564 17.3923 12.6622 11.6752 11.6585 11.4713 10.4178 10.5258 10.2925 16.5424 10.1913 11.2969 9.31475 9.16988 11.9346 10.7353 8.73007 7.7936 7.7863 7.66996 7.45084 14.236 6.94817 6.81126 7.60604 7.35231 6.4196 6.41514 8.66001 6.00715 7.44097 7.23571 10.3179 6.67294 5.9072 5.74044 5.73543 5.59547 7.38233 5.60532 5.58884 5.07738 4.92512 4.80758 4.7721 4.73336 8.27785 4.96664 4.68045 4.66301 4.65585 4.47361
threshold=0.90250000000000019 0.81150000000000022 1.0265000000000002 1.0445000000000002 2.0015000000000005 1.0705000000000002 1.3685000000000003 1.1775000000000002 1.0355000000000001 1.3665000000000003 0.84050000000000014 0.89250000000000018 0.79350000000000021 0.52950000000000019 1.2745000000000002 1.0885000000000002 1.0000000180025095e-35 -0.38549999999999995 0.74450000000000005 1.0465000000000002 0.73550000000000015 0.80150000000000021 1.9085000000000003 1.0755000000000001 0.5415000000000002 0.14550000000000002 -0.87149999999999983 0.48850000000000005 0.90350000000000008 -0.27049999999999996 -1.2844999999999998 0.86550000000000005 0.33750000000000008 0.75250000000000006 -1.2274999999999998 1.6300000000000001 0.79950000000000021 1.2635000000000003 0.12750000000000003 1.0575000000000003 1.4975000000000003 1.1125000000000003 0.90750000000000008 -0.64249999999999996 0.96150000000000013 1.2805000000000002 0.14550000000000002 -0.38499999999999995 1.1485000000000001 -1.0000000180025095e-35 0.045500000000000006 0.89850000000000019 0.037500000000000006 0.99050000000000005 0.80400000000000016 0.63050000000000017 0.9085000000000002 0.7875000000000002 -0.24249999999999997 0.85050000000000014 -0.087499999999999981 0.99550000000000016
decision_type=2 2 2 2 2 2 2 2 2 2 2 2 2 2 2 2 2 2 2 2 2 2 2 2 2 2 2 2 2 2 2 2 2 2 2 2 2 2 2 2 2 2 2 2 2 2 2 2 2 2 2 2 2 2 2 2 2 2 2 2 2 2
left_child=1 5 3 15 18 6 13 -6 10 12 14 -12 44 -1 30 20 33 51 -4 39 -2 -22 -11 24 25 -13 -14 -23 -19 36 31 -3 -7 34 -15 -36 -21 38 -31 40 41 42 -20 -41 -5 -38 -32 48 49 -10 -37 -18 -35 -45 59 -48 57 58 -57 -49 -28 -39
right_child=2 8 4 9 7 32 -8 -9 47 22 11 23 26 16 -16 -17 17 28 19 29 21 27 -24 -25 -26 -27 60 -29 -30 37 46 -33 -34 52 35 50 45 61 -40 43 -42 -43 -44 53 -46 -47 55 54 -50 -51 -52 -53 -54 -55 -56 56 -58 -59 -60 -61 -62 -63
leaf_value=-0.081152272281522997 -0.016659662652865472 -0.055999583160925737 0.080383585262483709 0.034298903451444956 0.016169879353667618 0.019611022095816708 0.075393853112336956 -0.11677346628892529 0.08855026677904082 -0.097449480817123818 -0.051142062504541945 0.1080578403715594 0.06618497415200951 0.078689690297056025 0.12935409916951923 -0.15298141683187561 0.032246963343418526 -0.099810947014702528 -0.031673657890033291 -0.029263592159809605 -0.026523689794522232 -0.1497493374907522 0.0092395964077326802 0.091768284866751315 -0.034125911659374203 0.0016245471204227248 0.0072824351654454085 -0.075381578777174857 -0.011343797206543832 0.071117932360820799 0.092305678588949544 0.08261042595690038 0.11250507794637719 -0.089355609439933564 0.021443027338705858 -0.08725657106896445 0.090750924844068215 0.12171549444273065 -0.019074865310322865 0.014740086761110487 0.043014063581234177 -0.062691377774507742 0.06662948761131253 -0.012828559356815861 0.13077769264708514 0.0032714004939948305 0.023455963521159355 0.13444413212251077 0.13944268402476775 0.00028181407437045746 0.0012179555464835509 -0.044491312632826803 -0.0043985655399649643 -0.083257209117686609 0.17216656463171448 0.1199965800766839 0.11679631302964591 0.0091258954491874825 0.037338160865287948 0.073185625876149046 -0.064527933673357449 0.0483107397632484
leaf_count=181 58 54 92 50 59 92 66 96 66 85 79 86 53 53 140 207 67 164 107 100 56 177 54 147 82 69 72 84 53 98 370 67 50 57 181 58 51 77 76 73 132 87 72 61 52 74 116 123 54 52 57 72 53 108 64 50 105 82 62 85 73 59
internal_value=0 0.376834 -0.232149 -0.65272 0.069046 -0.187316 -0.282304 -0.659879 0.726372 0.00192601 0.627727 0.345698 0.261006 -0.350885 0.752676 -1.14909 -0.248528 -0.506122 0.158042 0.107438 -0.939776 -1.08168 -0.559944 0.522727 0.278337 0.606549 -0.0344651 -1.25799 -0.782182 0.36764 0.669362 0.205219 0.522959 -0.0489097 0.0881519 -0.0372336 0.085847 0.572233 0.317264 -0.110236 0.0413651 -0.152213 0.0787144 -0.359403 0.834688 0.388943 0.740966 1.06196 0.778055 0.496394 -0.434139 -0.0750738 -0.484273 -0.578275 1.24155 0.578796 0.712642 0.466867 0.742116 1.09369 -0.288747 0.898668
internal_count=5600 3157 2443 1021 1422 1204 1062 155 1953 439 1509 463 300 996 1046 582 815 356 1267 1175 375 317 139 384 237 155 198 261 217 535 906 121 142 459 349 296 225 310 174 640 398 266 179 242 102 125 785 444 172 118 115 139 110 169 272 415 299 194 112 208 145 136
shrinkage=0.1


Tree=3
num_leaves=63
num_cat=0
split_feature=27 26 24 22 5 5 3 22 27 24 26 0 5 26 24 27 5 26 8 26 14 27 10 5 5 17 24 22 3 10 15 24 22 5 24 15 17 22 22 3 2 9 19 27 2 18 19 17 9 9 5 6 22 3 23 26 0 2 7 5 9 19
split_gain=103.408 126.269 63.0292 68.1454 30.6608 22.8802 18.7392 15.0196 20.7571 13.6683 12.9263 11.8207 10.9995 10.7377 10.3319 9.85795 9.2515 12.8157 12.3324 9.16789 11.6066 16.5948 10.3958 9.06463 8.75491 8.56401 8.49548 9.48432 8.33578 9.82613 8.28389 8.10506 7.85168 7.73965 7.61963 8.26673 7.57885 7.41648 7.40272 8.95709 7.08777 7.03861 6.89724 7.68446 6.67168 6.656 6.5667 5.92773 5.87018 5.66776 5.52342 5.43425 5.31379 5.06735 4.97129 4.96046 5.5202 4.9 4.87308 5.5233 4.74992 7.64781
threshold=0.90250000000000019 0.81150000000000022 1.0265000000000002 1.0445000000000002 0.82050000000000012 0.89650000000000019 1.9205000000000003 1.0605000000000002 0.83850000000000013 1.7065000000000001 1.3665000000000003 1.5645000000000002 1.3260000000000003 0.89850000000000019 0.79350000000000021 1.0885000000000002 1.1425000000000003 1.1955000000000002 1.0000000180025095e-35 0.72850000000000004 0.75200000000000011 0.72450000000000003 -0.025499999999999998 1.5635000000000001 0.95250000000000001 0.71950000000000014 0.73550000000000015 0.80150000000000021 0.63450000000000017 0.6645000000000002 -0.30249999999999994 0.93950000000000011 1.7005000000000001 1.5395000000000003 0.71850000000000003 0.71750000000000014 0.73550000000000015 0.6925 0.95950000000000013 0.42750000000000005 -0.87149999999999983 0.81050000000000011 0.36850000000000005 1.1775000000000002 -0.25349999999999995 0.48850000000000005 0.64800000000000013 1.1015000000000004 0.75850000000000006 1.0665000000000002 1.2495000000000003 -0.34349999999999997 1.0125000000000002 1.3945000000000003 0.99250000000000005 0.84050000000000014 0.70450000000000002 -0.61449999999999994 0.63250000000000017 0.61250000000000016 0.92650000000000021 -0.36249999999999993
decision_type=2 2 2 2 2 2 2 2 2 2 2 2 2 2 2 2 2 2 2 2 2 2 2 2 2 2 2 2 2 2 2 2 2 2 2 2 2 2 2 2 2 2 2 2 2 2 2 2 2 2 2 2 2 2 2 2 2 2 2 2 2 2
left_child=1 4 3 15 11 7 16 8 25 30 14 19 28 -10 -5 26 24 -18 33 34 21 22 -21 37 -4 46 -2 -28 44 41 -8 -15 -12 -19 35 51 -9 -7 39 -39 -16 -30 43 -26 -6 -29 60 -42 -23 -40 53 -1 -20 -41 -33 -27 -57 -58 59 -36 61 -3
right_child=2 5 6 10 12 23 9 36 13 -11 32 -13 -14 31 40 -17 17 18 52 20 -22 48 -24 -25 42 55 27 45 29 -31 -32 54 -34 -35 58 -37 -38 38 49 50 47 -43 -44 -45 -46 -47 -48 -49 -50 -51 -52 -53 -54 -55 -56 56 57 -59 -60 -61 -62 -63
leaf_value=-0.015079835946260958 -0.015009224465499422 -0.025385041144771105 0.015629532350824423 0.075565862815637264 0.11077199302667012 0.14241026975315904 -0.067091645612569639 0.03085835013395128 -0.082103866570842954 -0.12563521367753386 -0.1041383733618214 0.041596131417067798 0.10080321141061302 -0.043310125361906635 0.059753451654323032 -0.14074749854117277 0.077825106988708134 0.0073677258849342555 -0.052605242501424634 -0.043919118932048744 0.050737792328092515 -0.045604912453024428 0.084979761643067697 0.15081539480270451 -0.023391273842739705 0.025527577474242797 -0.023906684764683196 -0.13747696052778244 -0.078110577867023606 0.059222980861513425 0.04466042358815589 0.0027848921679068149 -0.0078507707575451845 0.11377034557525097 -0.037715980775482105 0.021879695947997185 0.12299598749890922 -0.0020845480192171746 0.11675122724474714 0.074083976353897379 0.0061334809482792114 0.013416238477283666 0.013750556019952266 -0.11782468429231666 0.016316531158178531 -0.068369041941809081 -0.021684722301140432 -0.077098053612800393 -0.13003326167600798 0.060820199281208104 0.13357679771927417 -0.092560902637988746 0.010672435167920139 0.0036900652664429469 0.090464357906472392 0.048354081222545614 0.16117070161282396 0.086878872576866426 -0.13327051333200499 -0.11809558663725786 0.094485301779819689 0.078628621304105528
leaf_count=58 58 60 491 102 50 77 53 50 70 69 62 67 71 67 53 207 185 50 92 51 72 66 50 88 97 66 56 177 83 55 54 53 77 62 86 64 133 80 231 247 89 57 87 54 76 84 80 56 67 109 52 98 128 50 52 97 51 126 75 58 59 55
internal_value=0 0.341426 -0.210294 -0.593603 -0.169097 0.659444 0.0623136 0.450899 0.336875 -0.552865 0.00175695 -0.392017 0.291654 -0.159055 0.235623 -1.05018 0.14873 0.35444 0.118288 -0.464737 -0.197816 -0.414897 0.198896 0.888387 0.00322145 0.540004 -0.855722 -0.986759 0.133907 -0.125804 -0.105362 0.11186 -0.506216 0.662273 -0.650829 -0.387501 0.976151 0.824361 0.764635 0.58845 -0.0310321 -0.408088 -0.312718 -0.572007 0.536267 -1.15046 0.260396 -0.259978 -0.881263 0.987777 0.728166 -0.636958 -0.157407 0.621958 0.461923 0.749535 0.869642 1.08232 -0.916904 -0.700246 0.480138 0.241748
internal_count=5600 3157 2443 1021 1204 1953 1422 1019 836 176 439 812 392 242 300 582 1246 517 332 745 306 234 101 934 729 594 375 317 321 195 107 172 139 112 439 220 183 846 769 429 198 140 238 151 126 261 254 145 133 340 349 156 220 297 105 340 274 177 219 144 174 115
shrinkage=0.1


Tree=4
num_leaves=63
num_cat=0
split_feature=25 25 26 27 25 5 26 25 9 27 13 9 6 20 22 13 22 21 27 5 0 24 14 10 27 19 19 14 22 14 5 10 11 22 23 2 26 2 21 18 27 25 5 14 14 19 17 25 9 14 26 25 5 19 25 22 21 10 9 0 11 5
split_gain=154.501 107.955 60.9583 53.6042 31.6892 26.5448 21.4087 23.5175 19.3843 18.4678 17.9079 15.1002 15.1682 14.8108 14.1666 12.2636 15.1686 12.0219 11.5815 15.3373 11.1621 11.5537 10.8451 10.5955 10.5274 10.0628 9.29115 8.73005 8.63147 8.50716 8.29908 8.24442 8.13892 7.64686 7.93854 7.39462 7.35212 6.98103 6.89822 10.0754 7.5171 6.86 6.5655 7.40611 6.61797 6.5237 10.9673 6.5199 6.51095 6.47412 6.23925 6.11759 5.97185 5.61149 5.5763 8.23099 5.39813 5.25813 5.11936 4.81561 4.80176 4.77272
threshold=1.0565000000000002 0.6695000000000001 0.77250000000000008 0.90450000000000019 1.4915000000000003 0.81250000000000011 0.86950000000000005 0.94550000000000012 1.1375000000000002 0.79050000000000009 1.5015000000000003 1.3035000000000003 -1.5384999999999998 2.3265000000000007 0.99250000000000005 1.3005000000000002 0.78450000000000009 0.9195000000000001 1.0335000000000003 1.0145000000000002 1.2285000000000001 1.0305000000000002 -0.28249999999999992 -1.3164999999999998 0.85050000000000014 0.60250000000000015 1.1445000000000001 0.77350000000000019 1.0145000000000002 0.20050000000000004 1.0895000000000004 0.039500000000000007 -0.36849999999999994 1.1195000000000002 0.98550000000000015 -0.29449999999999993 0.99350000000000016 0.69550000000000012 1.1205000000000003 -0.30249999999999994 0.98450000000000004 0.98450000000000004 1.0955000000000001 -0.32549999999999996 0.65250000000000019 -0.90699999999999992 0.85250000000000015 0.79550000000000021 1.1315000000000002 -0.38749999999999996 0.67450000000000021 0.5375000000000002 0.56050000000000011 0.64800000000000013 0.87650000000000017 1.0515000000000001 0.95150000000000012 -0.077499999999999986 0.80650000000000011 0.92050000000000021 -0.24199999999999997 0.80150000000000021
decision_type=2 2 2 2 2 2 2 2 2 2 2 2 2 2 2 2 2 2 2 2 2 2 2 2 2 2 2 2 2 2 2 2 2 2 2 2 2 2 2 2 2 2 2 2 2 2 2 2 2 2 2 2 2 2 2 2 2 2 2 2 2 2
left_child=1 8 5 6 10 27 7 9 15 53 13 12 -5 14 18 16 37 24 19 45 23 -22 -10 -14 28 -12 42 52 49 -11 38 -24 -16 -6 -35 -7 -26 59 39 -25 -41 47 43 -19 -45 -2 61 57 -34 -18 -51 -52 -3 -4 -13 -56 -49 -8 -59 -1 -15 -47
right_child=4 2 3 11 33 35 41 -9 22 29 25 54 20 60 32 -17 17 26 -20 -21 21 -23 31 30 36 -27 -28 -29 -30 -31 -32 -33 48 34 -36 -37 -38 -39 -40 40 -42 -43 -44 44 -46 46 -48 56 -50 50 51 -53 -54 -55 55 -57 -58 58 -60 -61 -62 -63
leaf_value=-0.048090741568375027 -0.10723381661036689 -0.037558270609098623 0.12777678496043815 -0.086121816586135658 -0.089501882670625907 0.11196789580879836 0.12148331798631509 -0.037435076372428454 0.092775115001521677 -0.045863642931002126 0.004318097516656098 0.11600711379958006 -0.039660090535659956 -0.043279326326190595 -0.026660974046310366 0.03957685407093528 -0.019848138769077494 0.035369165237997817 -0.10031215901532275 0.052955923125954985 -0.078630505974189691 0.023944194229168211 -0.056642075578132015 0.11828362848604917 -0.14046318037362679 0.1145789030249582 -0.094809294545477305 0.012067395722952144 0.023975818026088374 0.068363224638934947 0.094470275843584417 0.041602560458143596 0.020360643601790292 0.024176212677325854 -0.066901908611964364 0.012860324724670844 -0.046691216758102352 0.066847000574022694 -0.016975330416732257 -0.039215216897978328 0.055975187204439628 0.06413484990044202 0.060385981286845927 -0.08597426965354471 0.00070633327848375598 -0.10833248857796435 0.042482032855800059 0.14161653406784291 0.10878539663293968 -0.14343614842255201 -0.10543527917928584 -0.0077400425653929338 -0.11142810714064394 0.065252464173899502 -0.01112615514909571 0.095284353757135898 0.08803738436508024 0.10174234339772176 0.012958416123573378 0.024907037508624656 -0.11188724959999304 -0.022916949928185035
leaf_count=72 56 74 190 54 496 51 111 84 88 55 87 90 58 71 85 102 92 71 98 84 75 111 57 65 106 55 52 51 58 51 130 89 96 53 146 76 50 68 80 51 98 103 55 74 69 54 58 442 52 53 54 50 112 86 52 69 96 55 53 74 100 52
internal_value=0 0.307708 0.547397 0.672222 -0.429585 -0.217183 0.937365 0.589121 -0.157765 0.803858 -0.190749 0.304019 0.165861 -0.306887 -0.165336 -0.269571 -0.3375 -0.46748 -0.394858 -0.202367 0.248777 -0.171072 0.369374 0.410093 -0.675307 0.469982 -0.168106 -0.616695 -0.459295 0.0908226 0.520411 0.0318954 0.229133 -0.759295 -0.426013 0.524022 -1.10262 0.136489 0.33366 0.522076 0.233939 1.12995 -0.0176528 -0.176815 -0.44102 -0.481252 -0.278395 1.19826 0.514389 -0.622288 -0.87096 -0.584911 -0.819959 1.0825 0.779502 0.496376 1.32013 0.901593 0.581911 -0.111173 -0.834045 -0.663427
internal_count=5600 3957 2623 2259 1643 364 1326 466 1334 382 948 933 722 806 635 1100 998 784 402 304 668 186 234 482 463 142 321 237 307 106 424 146 233 695 199 127 156 214 294 214 149 860 269 214 143 220 164 757 148 249 157 104 186 276 211 121 538 219 108 146 171 106
shrinkage=0.1


Tree=5
num_leaves=63
num_cat=0
split_feature=25 25 26 25 26 21 9 5 24 5 25 0 9 24 21 21 3 3 0 9 3 0 10 21 5 15 8 1 0 25 8 4 26 21 11 21 0 14 0 10 24 4 5 23 24 3 23 24 9 3 0 3 26 25 25 19 10 24 24 24 3 9
split_gain=145.887 92.3076 52.9254 24.1328 23.5235 21.9119 19.7502 19.1667 16.4374 15.9582 17.4199 13.1876 12.3441 12.1833 11.0268 10.7458 11.566 10.742 9.20101 9.13533 9.02728 8.90839 8.84369 9.33719 9.81532 8.66635 8.428 8.40907 7.68288 10.107 9.67034 7.63554 7.90325 7.5955 6.92134 8.44772 6.91541 6.77409 6.84656 6.14242 6.02712 5.91073 10.5005 7.52804 6.88485 5.89964 5.80087 5.7008 5.56974 5.55089 6.88446 5.44427 5.34594 5.15431 5.06059 5.01053 4.90381 4.78678 4.51371 4.51063 5.4725 4.96792
threshold=1.0675000000000001 0.66550000000000009 0.77650000000000008 1.5695000000000001 1.0825000000000002 1.0870000000000004 1.1275000000000002 0.85250000000000015 0.97750000000000015 0.88150000000000006 0.96550000000000014 1.1345000000000003 1.6925000000000001 0.73550000000000015 1.2085000000000001 0.83050000000000013 0.45550000000000007 1.7525000000000002 1.7125000000000001 1.2475000000000003 1.8335000000000001 0.59450000000000014 -0.54849999999999988 0.74850000000000005 1.1425000000000003 0.24750000000000003 1.6300000000000001 1.3180000000000003 1.9755 0.95150000000000012 1.6300000000000001 0.36100000000000004 0.93950000000000011 1.0835000000000001 -0.50549999999999995 0.81850000000000012 0.52550000000000019 0.75200000000000011 1.0375000000000003 0.7915000000000002 0.99350000000000016 1.0000000180025095e-35 0.9385 1.0905000000000002 0.75750000000000017 0.78150000000000019 0.98750000000000016 1.1965000000000001 0.92250000000000021 0.51650000000000007 0.55750000000000022 1.4365000000000003 0.85650000000000015 0.84250000000000014 0.8135 -0.25849999999999995 -0.32449999999999996 0.85050000000000014 0.87050000000000016 1.0935000000000004 1.2495000000000003 0.62650000000000017
decision_type=2 2 2 2 2 2 2 2 2 2 2 2 2 2 2 2 2 2 2 2 2 2 2 2 2 2 2 2 2 2 2 2 2 2 2 2 2 2 2 2 2 2 2 2 2 2 2 2 2 2 2 2 2 2 2 2 2 2 2 2 2 2
left_child=1 6 7 5 9 8 15 37 13 10 14 21 28 -2 19 16 -1 41 52 27 39 -7 -10 -24 48 -9 -20 47 29 33 -31 32 -8 -6 57 -36 -18 38 56 45 -41 42 49 44 -43 46 -5 59 -25 -17 -51 -47 53 -11 -35 -52 -3 -15 -46 60 61 -4
right_child=3 2 4 20 12 11 31 25 22 18 -12 -13 -14 34 -16 17 36 -19 26 -21 -22 -23 23 24 -26 -27 -28 -29 -30 30 -32 -33 -34 54 35 -37 -38 -39 -40 40 -42 43 -44 -45 58 51 -48 -49 -50 50 55 -53 -54 -55 -56 -57 -58 -59 -60 -61 -62 -63
leaf_value=0.026450591053070495 -0.0057324873803848422 -0.006235246544545707 0.12424474400602553 -0.0069007896263210272 0.06697235746940973 -0.0018592807133960565 0.042741472971596334 0.099944074903744323 0.030823066415468694 0.10081206111596604 -0.012807119163819323 -0.040734682526680714 0.10294086606810844 -0.1683523145781001 -0.014229630469685527 0.04602878235557098 -0.14051777074502023 -0.088392575382699762 -0.019379766500058241 0.1389611263886292 -0.15746073364903579 0.095905350136616108 0.027288459196069811 -0.140226585085548 0.0060783079391835927 -0.010464125020462631 0.095089956548282284 0.002407209311639067 -0.060003468448961289 -0.079478337084962908 0.028112244127402861 0.075881585037941401 -0.056694739057851044 -0.04104144261374458 -0.015308899525021964 -0.099875729679456515 -0.059582605315793735 0.0038277988924611708 -0.13102357946382015 -0.073139982307893647 0.02302481728779654 -0.004601958945292437 0.069199945705186075 0.042881932679613398 -0.12099357737747503 -0.11886420619894643 -0.082867053865450874 0.015107443964731125 -0.051929601295963579 0.038093567375947865 -0.0019807723007668741 -0.044689437920437364 0.10948530657155864 0.021896940056014932 0.040911413623766719 -0.079247502784256255 -0.081832007705822052 -0.092063109716444547 -0.044530460853489197 0.13601957341291679 0.022771615620817129 0.068788713784211961
leaf_count=56 92 65 99 67 192 61 82 60 125 77 138 82 73 57 65 55 52 73 55 79 58 100 70 55 61 56 54 78 52 66 70 104 54 57 84 116 251 66 56 59 50 109 93 51 50 190 109 59 61 50 56 52 590 63 66 87 77 83 85 57 70 220
internal_value=0 0.260828 0.480527 -0.459776 0.599103 -0.2772 -0.176483 -0.217434 -0.438105 0.721594 0.527931 0.253879 0.247781 -0.707935 0.655857 -0.293936 -0.578853 -0.150199 0.924899 0.735391 -0.79268 0.588376 -0.128559 -0.349469 -0.595952 0.465828 0.367263 0.646993 0.136026 0.220448 -0.238901 0.346918 0.0320914 0.418822 -0.886034 -0.643307 -0.734722 -0.519501 -0.708094 -0.710586 -0.278676 -0.0662546 0.114335 -0.275391 -0.422801 -0.822331 -0.539431 0.743999 -0.93874 -0.102109 -0.26367 -1.02859 1.00834 0.649055 0.0280194 -0.488712 -0.471826 -1.23147 -0.727518 0.823849 0.744599 0.859112
internal_count=5600 3968 2660 1632 2280 1047 1308 380 804 1704 865 243 576 432 727 1068 359 709 839 662 585 161 372 247 177 116 109 583 503 451 136 240 136 315 340 200 303 264 198 527 109 636 341 295 244 418 176 505 116 248 193 242 730 140 123 143 142 140 135 446 389 319
shrinkage=0.1


Tree=6
num_leaves=63
num_cat=0
split_feature=27 26 22 24 5 5 22 27 22 0 24 0 22 22 20 24 1 27 6 27 26 24 0 10 9 2 23 17 26 18 18 19 26 9 0 5 27 14 5 26 26 18 6 22 14 0 15 9 26 27 2 0 19 27 24 24 14 9 27 23 10 13
split_gain=71.9082 67.4696 38.3565 38.4785 23.8423 17.7593 15.8022 15.7028 13.0131 11.3066 10.2914 9.78262 9.27168 9.46816 9.96732 10.5077 8.73931 8.3079 8.12842 8.07393 11.3281 8.07948 11.0361 7.86667 7.76013 7.51193 6.97693 6.81192 6.84109 8.29724 9.9107 7.45496 6.78191 6.34014 6.28661 7.4191 6.21608 6.11376 6.19337 6.04533 7.07977 7.50664 7.92891 6.253 6.02025 5.97994 5.9139 6.5163 5.7412 5.25778 5.94211 5.09676 5.07912 5.04035 4.87511 4.62993 4.5998 4.46389 4.29253 6.06773 4.22147 4.12816
threshold=0.90650000000000019 0.81150000000000022 1.0325000000000002 1.0935000000000004 0.88150000000000006 1.1135000000000004 0.72250000000000003 1.0105000000000002 1.0605000000000002 0.51950000000000018 0.6625000000000002 1.3915000000000002 0.71350000000000013 0.95150000000000012 1.0000000180025095e-35 1.1275000000000002 -0.66749999999999987 1.0885000000000002 1.7735000000000003 0.79950000000000021 0.90750000000000008 0.76050000000000006 0.99550000000000016 -0.15249999999999997 1.2125000000000001 -0.11599999999999999 1.0385000000000002 1.3485000000000003 0.73350000000000015 -0.11949999999999998 0.50050000000000006 -0.62649999999999995 0.65150000000000008 0.75850000000000006 1.5955000000000001 1.8805000000000003 0.81650000000000011 0.6645000000000002 0.75650000000000006 1.0565000000000002 1.1525000000000001 -0.63249999999999995 0.67650000000000021 1.5255000000000003 0.024500000000000004 0.84550000000000003 -0.06649999999999999 0.8155 1.2415000000000003 1.0145000000000002 -0.27049999999999996 0.75950000000000017 0.16400000000000003 0.75250000000000006 1.0155000000000001 0.93650000000000022 0.20050000000000004 0.84450000000000014 0.84650000000000014 0.98750000000000016 0.60650000000000015 0.9405
decision_type=2 2 2 2 2 2 2 2 2 2 2 2 2 2 2 2 2 2 2 2 2 2 2 2 2 2 2 2 2 2 2 2 2 2 2 2 2 2 2 2 2 2 2 2 2 2 2 2 2 2 2 2 2 2 2 2 2 2 2 2 2 2
left_child=1 5 3 11 8 9 -5 24 19 60 32 17 -6 14 15 36 25 23 34 21 54 -3 53 51 33 -8 46 28 61 31 -31 -30 -11 -4 35 39 56 38 -18 -9 -41 43 -43 -42 -35 -7 -22 -48 -36 -40 -51 -2 -24 -23 -21 -55 -14 -19 -15 -60 -1 -12
right_child=2 4 7 6 12 45 16 18 -10 10 27 -13 13 58 -16 -17 37 57 -20 20 26 22 52 -25 -26 -27 -28 -29 29 30 -32 -33 -34 44 48 -37 -38 -39 49 40 41 42 -44 -45 -46 -47 47 -49 -50 50 -52 -53 -54 55 -56 -57 -58 -59 59 -61 -62 -63
leaf_value=-0.089872447949441436 -0.12376514975276789 0.090578492619033113 0.073018145980591753 0.072441384363773689 0.12774428322057835 0.097996806595596592 0.060060567653827363 0.046370303180621374 0.079633979185514889 -0.015241874130116104 -0.068139634346476755 -0.12351284715336441 0.0011978378858041017 0.10248105532463719 0.088613057886455043 0.097050332552848784 -0.10142263549653943 -0.055121286678906145 0.070414851065470407 -0.079734131038544126 0.045211317757372881 -0.051984264091488479 0.026042136757559078 -0.015441331747626803 0.10896601393279289 -0.023729595864954607 0.076666468850819222 0.036902556677895763 0.013735577472167743 0.08768239027876884 -0.017651273376103678 -0.082828869573997432 0.054789095717506821 0.048346163410820202 0.0013169368374882726 0.056052129663239719 -0.034611052055312438 0.0027111163957388592 0.0047852081318794926 -0.083330564120162556 -0.011275120266627388 0.022750899585904486 -0.059129596890649699 -0.10233063385198662 -0.047674423319920729 0.014497163097314292 -0.082845146935932576 0.017635230353887765 -0.079830416018365352 -0.10267901815489522 -0.02474624303006754 -0.042598421056688041 0.10756413555510619 0.054204281816644787 -0.0056349116293163623 -0.024297038448821928 0.076843851316285974 -0.12826185709377899 0.11345565181722664 0.026146525719715399 -0.025214669080259346 -0.016058364865415224
leaf_count=119 66 90 77 79 114 69 80 65 163 98 216 180 84 271 146 65 80 53 52 87 74 72 63 160 68 96 71 66 53 59 96 85 132 50 57 77 102 108 82 61 69 250 60 56 57 72 50 57 95 70 95 64 66 64 63 61 57 111 54 91 64 88
internal_value=0 0.248216 -0.218158 -0.453194 0.486226 -0.124267 -0.126485 0.0610291 0.261716 -0.212762 -0.119062 -0.824306 0.714933 0.643275 0.438272 0.230406 -0.236519 -0.664044 -0.0718054 0.157837 -0.0474836 0.358266 0.209632 -0.458042 0.503489 0.142924 0.218202 -0.247586 -0.316002 -0.0958247 0.225686 -0.456257 0.248306 0.288888 -0.122785 -0.0346051 0.0362522 -0.39063 -0.52833 -0.114679 -0.190848 -0.0999664 0.0688446 -0.518574 -0.0292697 0.552104 0.00767646 -0.297071 -0.492534 -0.368871 -0.578512 -0.832779 0.678088 -0.0920756 -0.487425 0.156013 0.316887 -1.04135 0.869645 0.58433 -0.672669 -0.529772
internal_count=5600 3182 2418 1324 1965 1217 690 1094 981 1076 893 634 984 870 454 308 611 454 842 818 402 416 326 290 252 176 252 663 597 293 155 138 230 184 790 638 243 435 327 561 496 435 310 125 107 141 181 107 152 247 165 130 129 197 150 125 141 164 416 145 183 304
shrinkage=0.1


Tree=7
num_leaves=63
num_cat=0
split_feature=25 25 26 26 25 9 25 24 5 14 5 3 5 9 9 1 3 25 17 7 0 0 2 15 5 24 17 25 0 1 13 14 1 7 3 0 5 25 17 13 8 18 16 26 15 23 3 26 26 18 7 9 3 18 0 19 26 26 19 26 13 20
split_gain=114.359 70.7814 40.4687 19.1121 18.3924 16.2681 16.0131 14.7611 11.351 10.2599 10.135 9.83255 11.7339 9.71824 8.5707 8.4826 8.27761 8.12265 7.86179 8.18832 7.43343 7.39224 7.30828 7.03273 7.00902 7.6148 9.40152 7.41593 7.19078 6.81038 6.72814 6.56193 6.11888 10.6684 6.0603 5.91891 7.88985 9.31962 5.90316 6.07764 5.85472 5.75554 5.94035 5.69034 5.57449 5.52164 6.40146 6.28728 10.6315 5.26127 5.11071 5.01668 7.48776 5.6318 6.05269 4.94104 4.80678 4.79473 5.04517 7.45718 4.78444 4.63248
threshold=1.0675000000000001 0.66550000000000009 0.80550000000000022 1.0825000000000002 1.5585000000000002 1.6725000000000003 0.94550000000000012 1.2745000000000002 0.80150000000000021 0.79900000000000015 0.88150000000000006 1.7785000000000002 1.0615000000000003 1.8745000000000003 0.76250000000000007 1.0555000000000001 1.8335000000000001 0.96550000000000014 1.5565000000000002 0.95850000000000002 1.7125000000000001 1.0375000000000003 -0.38299999999999995 -1.2139999999999997 1.5755000000000001 0.74850000000000005 0.60150000000000003 0.29250000000000004 0.52950000000000019 -0.10349999999999998 0.69850000000000001 -1.4804999999999997 1.1045000000000003 -0.033499999999999995 0.36650000000000005 1.9755 1.2635000000000003 0.96950000000000014 0.73550000000000015 1.2095000000000002 1.6300000000000001 -0.60849999999999993 1.0000000180025095e-35 0.74950000000000017 0.24750000000000003 1.1115000000000002 0.64550000000000007 0.87550000000000006 0.76450000000000007 -0.91949999999999987 0.045500000000000006 0.76250000000000007 1.3945000000000003 -0.05849999999999999 0.64750000000000008 0.97950000000000015 1.0255000000000003 0.87150000000000005 -0.40949999999999992 0.84850000000000014 0.88150000000000006 1.0000000180025095e-35
decision_type=2 2 2 2 2 2 2 2 2 2 2 2 2 2 2 2 2 2 2 2 2 2 2 2 2 2 2 2 2 2 2 2 2 2 2 2 2 2 2 2 2 2 2 2 2 2 2 2 2 2 2 2 2 2 2 2 2 2 2 2 2 2
left_child=1 5 6 10 7 24 8 11 9 21 17 12 15 35 -9 23 18 32 19 -6 51 30 -14 -2 25 26 43 -28 -29 -24 -3 -27 57 -34 -25 36 37 49 -36 -40 -22 -16 -43 -1 -10 46 47 48 -33 -5 -47 -12 53 54 -53 56 -48 58 -4 -60 -55 -30
right_child=4 2 3 13 16 -7 -8 14 44 -11 20 -13 22 -15 41 -17 -18 -19 -20 -21 40 -23 29 34 -26 31 27 28 61 -31 -32 45 33 -35 38 -37 -38 -39 39 -41 -42 42 -44 -45 -46 50 55 -49 -50 -51 -52 52 -54 60 -56 -57 -58 -59 59 -61 -62 -63
leaf_value=-0.072431165247841503 0.026351142409269546 0.044138491073154706 -0.0038445076195604134 0.086649197180459159 -0.058694230310557927 0.087505182234113785 -0.093415880491243941 -0.046218825410453163 0.086052771028104214 0.05234425198033657 0.11810673091214774 -0.12765545872563339 -0.039464258282404949 0.10600121899778117 -0.013427722930355476 -0.11593325323060247 -0.1477043588586209 0.002872706222060286 -0.0079402635328156036 -0.12452673285578315 -0.014476037202700083 -0.099831125146550306 -0.0088207711750549565 0.0074076243731275183 0.050669125389005525 -0.10541054942655625 -0.041158849996662875 -0.030596218747375021 0.083862798274200415 0.085384415708712205 -0.04945535182547172 -0.037821753031003554 0.085847436663521112 -0.04204626175696323 -0.097164488015205885 -0.049799733342459351 0.069416279628058658 -0.04577229545835329 -0.065063248734859594 0.008239855368793219 0.083222403992305141 0.097889683235300118 0.0091662115850597286 0.011642283692317934 0.0086381296621340677 0.046803245449736131 -0.079069125798851878 -0.057162173308580658 0.091089559453899321 0.013634482018220121 -0.032835208272155532 0.015149496281075085 0.022586437258094238 0.076736256421753662 0.093135868838532865 -0.009788459370198864 -0.021065215369508103 0.082460425031109341 0.11927820850091711 0.012907876303602918 0.14454093123204978 0.016641738806759086
leaf_count=98 58 50 66 50 349 61 79 64 83 62 221 50 84 55 58 69 58 123 93 103 54 64 64 65 55 52 65 51 101 64 88 55 51 60 116 52 112 97 137 71 53 78 51 50 72 65 242 62 50 210 67 67 81 77 133 85 77 370 58 55 117 72
internal_value=0 0.229932 0.425396 0.549502 -0.413489 -0.153984 -0.0963241 -0.250012 0.0628054 -0.194391 0.670116 -0.389592 -0.330474 0.235671 0.174374 -0.495011 -0.701496 0.504533 -0.626038 -0.73761 0.837932 -0.419288 0.0751799 -0.392919 -0.203664 -0.236169 -0.0234735 0.188524 0.363585 0.381811 -0.155467 -0.359505 0.597521 0.158655 -0.491743 0.151569 0.223205 0.0769761 -0.605414 -0.399982 0.326506 0.392682 0.630509 -0.439716 0.50005 -0.308088 -0.394661 -0.0619772 0.240177 0.276351 0.0647408 0.91817 0.7963 0.918995 0.669499 -0.533258 -0.64906 0.688308 0.411853 0.678493 1.17537 0.560111
internal_count=5600 3968 2660 2162 1632 1308 498 1029 419 264 1586 778 728 576 251 516 603 783 545 452 803 202 212 447 1247 1192 437 289 224 128 138 755 660 111 389 521 469 357 324 208 107 187 129 148 155 703 571 167 105 260 132 696 475 394 200 404 319 549 179 113 194 173
shrinkage=0.1


Tree=8
num_leaves=63
num_cat=0
split_feature=25 25 25 26 27 5 0 9 5 22 22 27 15 21 27 5 22 22 9 27 22 0 25 8 3 15 26 27 25 5 5 15 22 1 3 26 3 9 10 6 1 9 17 2 6 5 21 13 10 0 13 27 22 13 13 2 25 6 5 21 10 0
split_gain=95.0854 43.923 38.0731 29.9437 28.6126 17.1109 13.9563 13.3174 11.4078 11.2982 11.8936 14.1223 11.6399 11 10.7307 11.0678 9.93734 10.1972 9.70307 9.6854 10.7471 8.35297 8.22465 7.96515 7.91109 7.67789 7.54506 11.6347 11.534 7.50919 7.25799 7.34262 7.25484 6.9336 6.87269 6.84403 7.59715 6.78261 6.75552 6.65941 6.23636 7.53377 7.69431 6.8975 6.15855 6.13292 6.08364 8.36233 5.59638 5.5306 5.80277 5.50426 5.71031 5.46523 5.41164 5.29046 4.96905 5.13868 4.69077 4.68485 4.65786 4.56679
threshold=1.2450000000000003 0.66550000000000009 0.96550000000000014 0.77650000000000008 0.90250000000000019 0.88650000000000018 1.6975000000000002 1.6725000000000003 0.80850000000000011 0.74450000000000005 1.1625000000000003 1.0705000000000002 -1.2274999999999998 1.0775000000000003 0.90450000000000019 1.0365000000000002 0.81050000000000011 1.0865000000000002 1.0415000000000003 0.91150000000000009 1.0215000000000003 0.79950000000000021 1.9405000000000003 1.6300000000000001 1.7030000000000001 -0.51949999999999996 0.88150000000000006 0.81850000000000012 0.79550000000000021 0.81250000000000011 0.63450000000000017 0.63400000000000012 0.99250000000000005 0.93950000000000011 1.9805000000000004 0.96250000000000002 0.77750000000000019 1.0505000000000002 0.82250000000000012 0.46750000000000008 0.86150000000000004 0.88850000000000018 0.7945000000000001 -0.20349999999999999 0.05050000000000001 1.5125000000000002 0.72750000000000015 0.81950000000000001 0.27550000000000008 1.0375000000000003 0.70750000000000013 1.0105000000000002 1.2620000000000002 0.59750000000000003 1.1385000000000003 -0.34549999999999992 0.78850000000000009 -0.48199999999999993 0.85250000000000015 0.91150000000000009 -0.11849999999999998 0.90750000000000008
decision_type=2 2 2 2 2 2 2 2 2 2 2 2 2 2 2 2 2 2 2 2 2 2 2 2 2 2 2 2 2 2 2 2 2 2 2 2 2 2 2 2 2 2 2 2 2 2 2 2 2 2 2 2 2 2 2 2 2 2 2 2 2 2
left_child=1 7 3 8 13 18 29 14 32 -2 11 12 -11 26 15 16 46 23 30 35 48 24 55 33 -16 -17 27 37 -28 56 -4 -32 49 38 45 36 -7 -5 53 -23 41 54 -43 -44 -20 51 -1 -48 61 50 -3 -31 -53 -18 -14 -12 -6 -58 -15 -55 -27 -21
right_child=9 2 5 4 6 19 -8 -9 -10 10 22 -13 40 58 21 25 17 -19 44 20 -22 39 -24 -25 -26 60 28 -29 -30 34 31 -33 -34 -35 -36 -37 -38 -39 -40 -41 -42 42 43 -45 -46 -47 47 -49 -50 -51 -52 52 -54 59 -56 -57 57 -59 -60 -61 -62 -63
leaf_value=-0.032039765585459998 0.042700196814872686 0.017442504394478208 -0.089212383726967048 0.063658308087336551 -0.032607992392286997 0.073271932526052228 -0.040159151281626462 0.079750360909105131 0.042119163213410402 0.036888683620813781 0.052410181264795935 -0.10398400041972654 -0.12841012766195706 -0.029615967343772066 0.021450451480232963 -0.019581805349473361 -0.087310859814399261 0.042338846932853058 -0.024913668054149407 -0.021113132498410615 0.038899145088943689 -0.099914774450484703 -0.065934942670472729 -0.086715633690540722 -0.077773059928235383 0.031666654189404793 0.050039099411408619 -0.017056613126777118 0.12019309548297873 0.085103316915199331 -0.0046444710047787753 -0.081659943128656501 0.030107354739755367 -0.090135540666511318 -0.01366619433722914 0.10366371561428399 -0.026111643150030419 0.13153861135265868 0.051634538018703081 -0.016431825959867506 -0.11090843943991142 -0.065886278638175907 -0.042305291054913749 0.052024844192803593 0.070437372894017691 0.12399390014831935 0.0070606593762670188 0.10743433172725653 0.017118486227629202 -0.11412900979395835 -0.074772617432162486 0.060133374977339997 -0.016697354551213083 -0.037251557501951624 -0.043041083783013953 -0.020005555201911843 0.080483750319549061 -0.00050000839373189922 0.059438078081029258 0.030159127577010825 0.11900461648469658 -0.10606853054271762
leaf_count=65 52 51 113 270 79 71 111 61 114 61 69 302 66 51 96 53 51 67 56 52 153 142 97 124 51 50 142 62 439 126 176 72 50 59 52 84 59 88 53 55 77 109 61 69 55 63 97 52 53 53 64 97 68 113 59 105 53 82 53 68 51 53
internal_value=0 0.172253 0.305785 0.463291 0.56995 -0.0212891 0.263035 -0.139286 -0.0995032 -0.497906 -0.544034 -0.672045 -0.466917 0.792257 -0.184163 -0.0681583 -0.169988 -0.318327 -0.30107 0.233305 0.0060133 -0.490166 -0.175694 -0.424371 -0.124891 0.427695 0.862077 0.65068 1.02465 0.38224 -0.46325 -0.269506 -0.375171 -0.26578 0.546543 0.572115 0.280347 0.799122 -0.135157 -0.765358 -0.582811 -0.470524 -0.258182 0.0775324 0.22169 0.650055 0.198392 0.423014 -0.366787 -0.581622 -0.333399 0.526864 0.283657 -0.284831 -0.878446 0.0857064 0.0762627 0.312926 0.144448 -0.119922 0.757426 -0.639514
internal_count=5600 4473 3165 2168 1836 997 731 1308 332 1127 1075 804 502 1105 1247 903 749 535 472 525 311 344 271 468 147 154 1001 420 581 620 361 248 218 344 406 214 130 358 285 197 441 364 239 130 111 354 214 149 158 168 115 291 165 232 125 174 214 135 104 181 101 105
shrinkage=0.1


Tree=9
num_leaves=63
num_cat=0
split_feature=25 25 25 26 27 5 9 14 21 5 22 22 27 15 21 22 3 24 3 3 27 3 5 27 24 26 25 27 24 4 9 9 14 9 25 22 5 19 27 10 4 26 15 17 11 4 19 9 22 14 17 23 4 26 25 7 15 10 4 4 14 25
split_gain=78.236 36.2337 31.7367 25.004 24.8357 14.3792 11.0622 10.3145 9.54149 9.33901 9.299 9.98608 12.4465 9.53618 9.00515 9.46582 8.75165 8.38526 7.75832 7.24237 8.48968 7.14093 7.91602 8.26053 9.31322 6.95236 10.5934 9.81537 6.89175 6.6683 7.95031 6.77944 6.62121 6.14781 6.09148 6.08482 6.34787 10.0991 5.99369 7.80631 5.96194 6.95127 5.95081 7.10903 8.33365 5.91615 5.86014 6.03285 5.9606 5.54847 5.15992 4.97741 4.88115 4.87311 4.73192 4.52072 6.41055 5.42917 4.5162 4.35528 6.40661 4.2867
threshold=1.2450000000000003 0.66550000000000009 0.96550000000000014 0.77650000000000008 0.90250000000000019 0.71650000000000003 1.1375000000000002 -0.37849999999999995 1.0775000000000003 0.80850000000000011 0.74450000000000005 1.1625000000000003 1.0705000000000002 -1.2274999999999998 0.83050000000000013 0.70650000000000002 0.58450000000000013 1.3875000000000002 1.7525000000000002 1.6740000000000002 1.2065000000000003 1.7675000000000003 1.1815000000000002 0.95050000000000001 1.2215000000000003 0.88150000000000006 0.79550000000000021 0.81850000000000012 0.85250000000000015 1.2695000000000003 1.0415000000000003 0.70950000000000013 0.7360000000000001 1.0505000000000002 1.9405000000000003 0.80750000000000022 0.96550000000000014 -0.29949999999999993 1.2065000000000003 -0.26449999999999996 0.36100000000000004 0.93950000000000011 -0.53049999999999986 0.84750000000000003 -0.28099999999999997 -1.3804999999999998 -0.49249999999999994 0.72550000000000014 0.87650000000000017 0.099500000000000019 0.50650000000000006 0.99050000000000005 -0.91499999999999992 0.94150000000000011 0.7915000000000002 -1.3714999999999997 -0.7034999999999999 0.76400000000000012 -0.19149999999999998 0.32950000000000007 -0.26349999999999996 0.44450000000000006
decision_type=2 2 2 2 2 2 2 2 2 2 2 2 2 2 2 2 2 2 2 2 2 2 2 2 2 2 2 2 2 2 2 2 2 2 2 2 2 2 2 2 2 2 2 2 2 2 2 2 2 2 2 2 2 2 2 2 2 2 2 2 2 2
left_child=1 6 3 9 8 7 14 -4 25 32 -2 12 13 -12 15 -1 -17 34 35 29 -21 22 45 -24 -25 27 28 33 -27 30 31 54 -3 -5 -13 61 46 -38 39 -32 41 -8 -15 44 -44 -7 47 -37 -48 -33 -47 -45 -50 -9 -6 -52 -57 -58 -11 60 -18 -16
right_child=10 2 5 4 19 21 40 53 -10 58 11 17 -14 42 18 16 59 -19 -20 20 -22 -23 23 24 -26 26 -28 -29 -30 -31 38 49 -34 -35 -36 36 37 -39 -40 -41 -42 -43 43 51 -46 50 48 -49 52 -51 55 -53 -54 -55 -56 56 57 -59 -60 -61 -62 -63
leaf_value=0.024147090425530874 0.038362785826829518 -0.056370480804742579 0.009676891176087804 0.058379008609299288 0.0091714725103229349 0.069327110202383649 0.037514288311470037 -0.1062552138863562 0.013121608712968046 -0.00514778227687996 0.033095257868694813 -0.016642158860092373 -0.096806901087002489 -0.097171869047748383 0.00082706517927352624 -0.0012271358825540622 -0.10938467334012546 0.036739496502595267 -0.071625419128973064 0.023151042748372298 -0.076272330495175636 -0.042089727063353594 0.10074422162145494 -0.049917225278501232 0.06733822440554843 0.10995549664713536 0.11391034548148389 -0.015305669203019831 0.010985399262452851 -0.021071563088445266 -0.0035958519876344505 -0.048895444208608946 0.023865056513801008 0.1242943204069757 -0.098358370438937082 -0.028295320700931121 -0.03394070443483254 0.078101839465411174 0.12418543001534799 0.088529247098456179 0.065212519974944275 -0.057593722052944579 -0.11354419943534402 -0.043677871458687872 -0.023515895610590455 0.051083331996764708 0.020072544507768339 0.061633512752231917 -0.0031996604949775334 0.030757033166562205 0.043426129266947042 0.027099541892295451 -0.075827344651291734 -0.032948269306044699 0.08704640687804184 0.026317994800710672 -0.059734109506381541 0.017119401334412376 0.076279599059304731 -0.11344672359900497 -0.014609276955489629 0.075325698266127755
leaf_count=62 52 160 92 270 57 52 80 93 104 53 61 129 302 99 62 72 54 86 73 89 59 88 91 50 66 51 439 62 91 79 66 75 58 88 56 69 61 73 66 95 101 53 89 88 85 61 51 55 51 70 50 80 154 63 75 79 162 50 61 105 68 64
internal_value=0 0.15722 0.279735 0.425434 0.52433 -0.0192383 -0.12619 -0.444191 0.735868 -0.0907007 -0.454472 -0.496904 -0.615667 -0.423873 -0.213418 -0.476951 -0.629461 -0.159065 -0.081421 0.238733 -0.161472 0.122505 0.195915 0.531864 0.174083 0.802686 0.962877 0.598605 0.458337 0.342188 0.428958 0.199122 -0.34186 0.738236 -0.405104 -0.0105674 -0.109321 0.270945 0.716885 0.502799 0.276466 -0.00653009 -0.529816 -0.401041 -0.692612 0.046503 -0.243659 0.117158 -0.420534 -0.104357 -0.0372951 -0.0999395 -0.576241 -0.763522 0.533496 -0.134708 -0.231539 -0.416333 0.381364 -0.828436 -0.564356 0.386534
internal_count=5600 4473 3165 2168 1836 997 1308 248 1105 332 1127 1075 804 502 1074 361 299 271 713 731 148 749 661 207 116 1001 581 420 142 583 504 277 218 358 185 640 514 134 227 161 234 133 441 342 174 454 380 124 256 145 402 168 205 156 132 341 291 212 114 227 122 126
shrinkage=0.1


Tree=10
num_leaves=63
num_cat=0
split_feature=25 25 5 27 25 9 27 9 15 24 25 3 5 24 5 19 17 21 21 27 17 6 17 21 24 15 13 21 24 4 13 24 25 25 3 4 7 24 25 6 7 11 8 19 27 16 11 4 19 13 4 9 21 6 5 13 21 9 6 24 17 5
split_gain=71.6451 29.7732 25.3525 27.3723 16.592 11.9773 11.4759 10.2372 10.0689 10.0472 9.87782 9.10152 8.26755 8.25625 7.46234 7.18332 9.47392 7.14471 7.19029 11.3534 6.99903 6.97941 6.93671 6.71438 6.90788 8.53001 6.69095 6.54953 6.40601 6.3426 7.76169 6.08291 6.07392 6.03819 6.52144 5.95062 5.88251 5.86872 5.58362 7.77938 5.58173 5.44462 5.40463 5.32445 6.52061 5.14294 4.90885 4.5582 4.52698 5.95334 5.37843 7.42343 4.3164 5.44562 4.31444 10.7907 4.26283 4.21468 4.17979 3.97922 3.8917 4.1696
threshold=1.2815000000000003 0.59250000000000014 0.88150000000000006 0.90450000000000019 0.96550000000000014 1.2475000000000003 0.83850000000000013 1.0415000000000003 0.80350000000000021 1.1525000000000001 2.1950000000000007 1.3665000000000003 1.7360000000000002 1.7695000000000003 0.88450000000000017 1.1060000000000001 1.3765000000000003 0.76650000000000007 1.0625000000000002 0.74550000000000016 1.3265000000000002 0.56250000000000011 1.2435000000000003 0.57350000000000001 1.2485000000000002 1.2825000000000002 0.89950000000000008 0.95550000000000013 1.0035000000000001 0.65950000000000009 0.73650000000000004 0.71850000000000003 1.0505000000000002 1.4335000000000002 0.95600000000000007 0.65950000000000009 -0.50249999999999984 1.0515000000000001 0.81050000000000011 0.43650000000000005 0.35250000000000004 1.0045000000000002 1.6300000000000001 -1.1974999999999998 1.0855000000000004 1.9110000000000003 1.3015000000000001 -0.11749999999999998 0.60250000000000015 0.81050000000000011 -0.70949999999999991 0.73750000000000016 0.94650000000000001 0.60450000000000015 1.0145000000000002 0.63750000000000007 0.90350000000000008 0.78250000000000008 -0.44449999999999995 1.0755000000000001 0.76950000000000018 1.4685000000000001
decision_type=2 2 2 2 2 2 2 2 2 2 2 2 2 2 2 2 2 2 2 2 2 2 2 2 2 2 2 2 2 2 2 2 2 2 2 2 2 2 2 2 2 2 2 2 2 2 2 2 2 2 2 2 2 2 2 2 2 2 2 2 2 2
left_child=1 6 4 32 5 11 8 31 22 20 12 17 23 15 56 16 36 21 19 35 38 40 48 -2 25 43 -20 42 -9 30 -13 -6 54 -26 -35 45 -11 41 -5 -40 -3 -33 59 -25 52 -19 -21 -22 50 -50 -1 -52 53 -45 55 -4 -10 -39 -12 -8 -56 -62
right_child=10 2 3 9 7 -7 27 28 14 13 58 29 -14 -15 -16 -17 -18 18 26 46 47 -23 -24 24 33 -27 -28 -29 -30 -31 -32 37 -34 34 -36 -37 -38 57 39 -41 -42 -43 -44 44 -46 -47 -48 -49 49 -51 51 -53 -54 -55 60 -57 -58 -59 -60 -61 61 -63
leaf_value=0.039773977446372386 0.020862453611798549 0.047353912759952134 -0.015608134026138656 0.017866575213776104 0.026146599302945772 0.083032350931451684 -0.11245160033710343 -0.022349685631153773 -0.013456312401014052 0.044021619426252448 -0.045966717492196135 0.0071159593493873687 0.032941577394582394 -0.018873681554917351 0.107168662535644 -0.016424980105266895 -0.0033969861683008037 0.059938291142540623 -0.039647152013894627 0.07442847729403379 0.083286430915016876 -0.065309121255986535 0.047044562238327557 -0.12112864898599969 0.039100420745076747 0.005700967351819076 0.041036061057125088 -0.013957810641620279 0.072169881405744873 0.031249998593915303 -0.090191440924318772 -0.087333666977714886 0.028409831170311185 0.007832113551992646 -0.092219238453328328 -0.053090630672125487 0.11311410244435459 0.025645637542333767 -0.01153231570867173 -0.095342688260998509 -0.02825581500102935 -0.0098517234358238351 -0.010417939340027181 -0.082505745233579411 -0.10254063944371423 -0.018396621269213955 0.0029838682900780781 -0.0026709706243620516 -0.088641087815094041 0.00020893205707645684 -0.069225999050885029 0.020996428576828749 -0.0086228330232464394 -0.0032366620332181478 0.11460321195974764 0.080665652748633992 0.061315149619348655 -0.052829209598134655 -0.12218573297353225 -0.044361114178575342 0.058126152363604022 0.11736001302989892
leaf_count=67 64 96 70 115 50 127 98 55 79 83 50 61 70 78 53 50 62 83 96 340 55 67 64 75 60 75 78 177 64 59 81 168 123 55 55 56 139 58 147 68 78 50 52 145 126 63 50 50 85 50 86 68 95 50 198 230 52 54 101 57 207 82
internal_value=0 0.163233 0.253339 0.435927 0.0842101 0.207684 -0.149138 -0.231083 0.0255979 0.177851 -0.449623 0.144873 -0.367135 0.406686 0.422089 0.547819 0.674834 0.226988 0.325629 0.438464 -0.0401984 -0.0870328 -0.149201 -0.426314 -0.483519 -0.596861 -0.037426 -0.426463 0.287745 -0.25355 -0.489255 -0.3956 0.70459 -0.124121 -0.412422 0.0440883 0.873142 -0.497265 -0.186558 -0.381621 0.136595 -0.696345 -0.675867 -0.698048 -0.605127 0.263148 0.653454 0.423593 -0.260227 -0.555731 -0.0810679 -0.292082 -0.441002 -0.619968 0.77927 0.576345 0.16366 -0.123445 -0.964186 -0.86893 0.908714 0.745189
internal_count=5600 4579 3591 1757 1834 1335 988 499 604 847 1021 1208 870 412 184 334 284 1007 766 592 435 241 420 800 736 566 174 384 119 201 142 380 910 170 110 202 222 330 330 215 174 218 207 491 416 146 390 105 356 135 221 154 290 195 787 300 131 112 151 155 487 289
shrinkage=0.1


Tree=11
num_leaves=63
num_cat=0
split_feature=25 26 27 25 25 24 24 27 26 24 1 5 17 21 25 25 26 25 25 14 27 19 10 21 27 10 24 17 3 10 10 17 14 5 13 5 26 9 24 18 26 24 15 18 25 14 5 15 19 14 16 14 12 6 19 26 1 24 25 18 25 4
split_gain=58.9852 25.8546 45.329 15.9389 13.6334 13.5083 12.1533 11.737 15.6021 12.336 11.6505 11.0301 10.1285 8.75186 8.63984 11.0361 8.87943 8.60084 8.14538 9.87452 7.86976 7.8649 7.14907 9.94258 7.02374 7.87714 7.01264 6.89143 6.8551 10.1029 8.11955 6.85324 7.1827 6.79513 6.75976 6.69288 6.13834 6.27227 6.05076 6.01305 5.93918 8.17985 7.58938 7.34179 5.88959 5.84001 5.5931 5.41085 5.31571 5.23091 5.21718 5.16515 5.03225 5.01695 4.77726 4.50817 4.43066 4.37579 4.21186 4.05341 3.98828 3.80964
threshold=1.2815000000000003 0.85350000000000004 0.90650000000000019 0.63450000000000017 0.94550000000000012 1.0265000000000002 0.75450000000000006 0.75850000000000006 0.72850000000000004 0.73950000000000016 1.4215000000000002 0.68950000000000011 1.0105000000000002 1.3625000000000003 1.0835000000000001 0.68650000000000022 0.92050000000000021 2.1950000000000007 0.67850000000000021 -0.50149999999999995 1.0105000000000002 1.0630000000000004 -0.034499999999999996 0.91750000000000009 1.1775000000000002 0.68250000000000022 0.63550000000000006 0.46450000000000008 1.3185000000000002 0.27550000000000008 0.68250000000000022 1.2625000000000002 -0.22149999999999997 1.7360000000000002 0.9405 0.60350000000000004 1.0655000000000003 0.83350000000000002 0.88550000000000006 -0.05849999999999999 0.99350000000000016 1.2485000000000002 0.98050000000000004 0.21850000000000003 0.9165000000000002 0.69750000000000012 1.3155000000000003 0.35400000000000004 -0.44799999999999995 0.70750000000000013 1.9110000000000003 -0.13249999999999998 1.0000000180025095e-35 0.13500000000000004 0.075500000000000012 0.73850000000000005 -0.10349999999999998 1.3545000000000003 1.4095000000000002 -0.10149999999999999 0.63950000000000007 -1.4444999999999999
decision_type=2 2 2 2 2 2 2 2 2 2 2 2 2 2 2 2 2 2 2 2 2 2 2 2 2 2 2 2 2 2 2 2 2 2 2 2 2 2 2 2 2 2 2 2 2 2 2 2 2 2 2 2 2 2 2 2 2 2 2 2 2 2
left_child=1 4 14 45 7 6 -5 8 11 56 20 26 22 24 15 34 -16 33 52 -20 36 53 55 60 25 48 -1 -17 30 44 49 32 -6 40 38 -28 37 -7 -3 -14 43 42 46 58 -30 -4 -42 51 -8 50 -22 -43 -11 59 -44 -9 -10 -19 -2 -13 -24 -29
right_child=17 2 3 5 31 10 13 12 9 18 -12 21 39 -15 16 27 -18 57 19 -21 28 -23 23 -25 -26 -27 35 61 29 -31 -32 -33 -34 -35 -36 -37 -38 -39 -40 -41 41 47 54 -45 -46 -47 -48 -49 -50 -51 -52 -53 -54 -55 -56 -57 -58 -59 -60 -61 -62 -63
leaf_value=0.019263678259880308 -0.081335700794912147 0.039882328060912603 -0.060205306063615273 0.050669999059640425 -0.020732349280822265 -0.0054930280309161842 -0.10413121282641635 -0.12787986413832639 0.059562573644748651 0.021673124607218226 -0.046318197922465665 0.035591002668102681 -0.020644528272702953 0.01939886588960054 -0.058372702461260619 0.019176196033923915 0.044137420772983091 -0.12636172688969785 -0.019999451245932359 0.094575533905322196 0.046247289550008244 -0.046141677047624174 -0.10281791596198249 0.031731175322884594 -0.11066338602375697 0.03836780776876067 -0.032949792504243312 0.029831779308307573 0.0084281421980833392 0.054818798404904646 -0.019482726620271035 0.011630958629636479 -0.10943165354014853 0.029466484089403683 0.078577655790277964 -0.11851927347042268 0.10939110246416771 0.084207478265645869 -0.040828394019100989 0.05622011489800649 -0.097463175345735065 -0.033781805537179403 -0.061476751608441932 0.043411383476424092 -0.084064078120737684 0.0079557278232333783 -0.032482353064188445 -0.057828314391072201 -0.025656507874789975 0.00318347247032912 0.1159236335255077 0.054116718575972549 -0.065152215182698023 0.0069393875218488974 0.030109022365156141 -0.052455517946780272 0.1324878736532249 -0.051238645224584614 -0.0018897784891531656 0.11558294710440174 -0.019568260178350907 0.085009980867284937
leaf_count=76 53 79 196 96 64 64 59 50 75 56 76 55 86 101 50 96 120 83 52 93 104 51 51 93 66 50 169 67 50 67 70 51 99 70 67 52 93 69 77 88 249 51 52 73 66 71 82 71 97 53 80 62 55 84 50 112 72 68 57 51 50 810
internal_value=0 0.148642 0.270611 0.0356554 -0.0537229 0.132161 -0.144912 0.0175508 0.156081 0.468465 0.294619 -0.0709824 -0.2291 -0.31306 0.565797 0.635445 0.137538 -0.411128 0.194697 0.530495 0.375886 0.254151 -0.429838 -0.161474 -0.508823 -0.32412 -0.337318 0.744245 0.230903 -0.0792402 0.419307 -0.539306 -0.746631 -0.334549 0.228305 -0.526302 0.693585 0.407185 -0.00249448 0.17932 -0.388971 -0.490891 -0.656425 -0.0699119 -0.442435 -0.41819 -0.816014 -0.133905 -0.553132 0.600463 0.76369 0.14376 -0.21467 0.445778 -0.153564 -0.751454 0.955148 -0.900542 -0.399336 0.740405 -0.621381 0.80769
internal_count=5600 4579 2894 1528 1685 1261 469 1471 941 403 792 538 530 373 1366 1196 170 1021 256 145 716 241 356 194 272 206 297 973 490 183 307 214 163 870 223 221 226 133 156 174 800 617 433 183 116 267 331 184 156 237 184 113 111 190 102 162 147 151 110 106 101 877
shrinkage=0.1


Tree=12
num_leaves=63
num_cat=0
split_feature=25 26 27 22 24 5 24 22 22 5 3 25 26 1 17 22 27 25 22 26 24 25 23 22 25 2 9 27 27 6 18 6 3 22 24 2 1 21 9 1 17 24 11 21 11 3 25 21 26 25 18 3 0 26 0 9 20 24 2 22 27 26
split_gain=48.5935 21.3281 38.0362 18.2543 27.4466 12.0383 10.969 8.80944 9.30228 8.64416 8.46518 8.36987 7.93202 12.4182 13.0021 7.8613 6.9908 7.61151 6.9845 6.63649 7.13134 6.51621 6.46744 7.15955 6.30256 6.52236 6.25756 6.25567 10.0524 6.50761 6.17635 6.45843 6.51514 6.06778 5.96037 5.95745 6.5509 5.83748 6.68666 5.74381 5.73376 5.51302 5.87712 8.12486 7.58458 5.40038 5.24837 7.89292 5.13476 4.75925 6.64531 5.39115 6.4822 5.00884 4.58454 4.90116 4.43853 4.30342 4.29614 5.22197 4.26055 7.15184
threshold=1.2815000000000003 0.85350000000000004 0.90650000000000019 1.0485000000000002 1.0795000000000001 1.5755000000000001 0.73550000000000015 0.9255000000000001 0.86250000000000016 0.85250000000000015 1.8535000000000001 0.62350000000000005 0.72850000000000004 0.9105000000000002 0.52050000000000007 1.0125000000000002 0.76850000000000007 0.86750000000000005 0.78850000000000009 0.99350000000000016 1.1915000000000002 2.1950000000000007 1.0665000000000002 0.88750000000000007 0.81050000000000011 0.50950000000000017 0.9105000000000002 0.75050000000000006 0.81850000000000012 0.58650000000000013 -0.6865 -0.32249999999999995 1.0325000000000002 0.9195000000000001 0.73250000000000004 0.26900000000000007 1.0370000000000001 0.95150000000000012 0.90750000000000008 -0.32649999999999996 1.1255000000000002 0.81450000000000011 -0.19749999999999998 0.92850000000000021 -1.2144999999999999 0.99150000000000016 1.1405000000000003 1.2440000000000002 1.4625000000000001 0.95550000000000013 -0.94849999999999979 0.87550000000000006 1.3185000000000002 0.77650000000000008 0.69450000000000001 0.60150000000000003 1.0000000180025095e-35 1.1965000000000001 -0.51449999999999985 1.0025000000000002 1.1835000000000002 1.0925000000000002
decision_type=2 2 2 2 2 2 2 2 2 2 2 2 2 2 2 2 2 2 2 2 2 2 2 2 2 2 2 2 2 2 2 2 2 2 2 2 2 2 2 2 2 2 2 2 2 2 2 2 2 2 2 2 2 2 2 2 2 2 2 2 2 2
left_child=1 5 7 4 34 6 12 8 27 -10 15 -6 13 14 -1 18 17 -14 -2 26 -21 30 23 45 25 39 -20 -3 -29 -30 -17 -32 -33 -22 -4 36 56 38 -37 -5 -24 -26 44 -44 -43 -8 47 58 -45 50 -25 52 53 -52 -16 -56 -13 -46 59 -9 61 -36
right_child=10 2 3 24 11 -7 22 46 9 -11 -12 35 16 -15 54 21 -18 -19 19 20 33 -23 40 49 41 -27 -28 28 29 -31 31 32 -34 -35 60 37 -38 -39 -40 -41 -42 42 43 48 57 -47 -48 -49 -50 -51 51 -53 -54 -55 55 -57 -58 -59 -60 -61 -62 -63
leaf_value=-0.071557664059426734 0.012362637160679242 -0.014330487481876798 -0.0038625693033120002 0.024162022196278755 -0.044886643728184475 0.089131237279143155 0.010834380054972281 0.0049906056390413116 -0.051754810774414774 0.040646449657147039 -0.10570586852224462 0.085860268019084127 0.091614615851597872 -0.078646628183808534 -0.0025498151275383965 -0.04087432434616052 -0.011056564894479901 0.0020464371160703577 -0.065858937139153695 -0.09330173926129566 0.021340775266222169 -0.071536628376698386 -0.0093932515619308578 0.028907925462860425 0.1050199335965756 0.044152394524933337 0.033166323819315391 0.09195317524223906 0.052638134459037124 -0.027909585391979644 -0.02694841888742195 0.07931918095385744 -0.012648127347006308 -0.07746873040802249 -0.092400620352341978 -0.025770973294774586 -0.018209929361083742 -0.059121185847303505 0.070433448987612599 -0.051992975309758327 0.070895559976864087 0.0026457604548230378 0.077917101517293197 -0.041860074124283025 0.056558321410531513 -0.043796489881175758 0.012962282505973461 0.0098732926691866216 0.036307549493559611 -0.099314807598603949 -0.039835159090176549 -0.085523057432227864 -0.085971289861909994 0.04786776563459369 0.010807745336977342 0.084780680667639247 0.021774765738502688 0.1421074503204626 0.10164946129114859 0.084646207245195795 -0.12672416103113412 -0.010119615523690152
leaf_count=63 68 59 54 70 90 61 216 58 89 97 88 121 130 80 94 98 79 60 52 270 53 65 161 52 55 104 55 235 146 71 77 91 50 54 134 62 54 56 59 100 50 53 58 94 50 124 60 70 57 70 61 121 55 53 63 92 74 50 346 135 64 69
internal_value=0 0.135561 0.247277 0.0323518 -0.172749 -0.0487874 -0.0815563 0.521722 0.351297 -0.0563598 -0.37596 0.115814 0.122737 -0.0612739 0.122329 -0.321038 0.400906 0.62244 -0.488084 -0.583137 -0.727459 -0.0963101 -0.223745 -0.314534 0.278459 0.0391067 -0.140847 0.507104 0.597876 0.261768 0.0215764 0.212933 0.47079 -0.284887 -0.65495 0.235927 0.44086 -0.0497528 0.203886 -0.206818 0.0962013 0.438641 0.347103 0.123687 0.654204 -0.0903057 0.704243 0.771034 -0.126292 -0.498636 -0.397584 -0.519963 -0.280381 0.00545842 0.330827 0.54672 0.618332 0.989141 0.866864 0.599097 -0.785906 -0.640577
internal_count=5600 4579 2894 1528 837 1685 1624 1366 697 186 1021 516 661 392 312 933 269 190 552 484 377 381 963 752 691 274 107 511 452 217 316 218 141 107 321 426 249 177 121 170 211 417 362 209 153 340 669 609 151 412 342 290 169 114 249 155 195 100 539 193 267 203
shrinkage=0.1


Tree=13
num_leaves=63
num_cat=0
split_feature=25 25 26 22 25 25 0 21 22 5 22 24 17 9 21 9 18 5 2 7 21 24 24 25 16 2 2 10 14 9 9 4 13 24 4 14 5 26 24 7 21 6 22 21 24 24 18 0 22 26 7 25 21 22 22 13 24 18 13 21 25 21
split_gain=40.1525 23.1417 20.4706 13.8119 12.6417 11.0568 11.805 9.77157 10.7207 9.66587 8.94418 8.77874 9.95682 8.60189 9.72258 8.26719 8.86884 8.13732 8.09053 7.84715 7.80875 7.93235 8.9514 7.2089 8.28908 6.85235 7.14526 6.34938 11.3511 6.45626 8.24185 6.09947 5.99945 5.94493 5.91061 5.82702 5.55798 5.43398 5.823 5.71281 5.27913 4.97286 7.33937 8.23835 6.23674 7.99142 5.68698 5.49089 5.47316 4.93499 4.92276 4.84019 4.7129 4.67539 4.41541 8.37184 4.4046 4.27883 4.27875 4.1912 5.57525 4.14863
threshold=1.0675000000000001 0.67850000000000021 0.85650000000000015 1.0285000000000002 1.5875000000000001 0.71350000000000013 1.3185000000000002 1.2310000000000001 0.98350000000000015 1.5755000000000001 0.77950000000000019 0.75750000000000017 0.61350000000000005 1.2615000000000003 1.4615000000000002 0.83850000000000013 -0.44949999999999996 0.73850000000000005 -0.88449999999999995 -0.72549999999999992 0.58250000000000013 0.71050000000000002 0.7965000000000001 0.50850000000000006 1.0000000180025095e-35 1.2955000000000003 0.67900000000000016 -0.6825 -0.55149999999999999 0.69950000000000012 1.0805000000000002 1.2985000000000002 0.80650000000000011 1.4355000000000002 0.50350000000000017 0.5525000000000001 1.1325000000000003 0.80550000000000022 0.88750000000000007 -0.41149999999999992 0.88450000000000017 0.5525000000000001 0.86050000000000015 0.85950000000000004 0.76450000000000007 0.92650000000000021 -0.72249999999999981 1.0205000000000002 0.91750000000000009 1.3205000000000002 0.63250000000000017 0.8135 1.0870000000000004 0.9275000000000001 0.87650000000000017 0.86050000000000015 1.0185000000000002 -0.36349999999999993 0.85550000000000004 0.81850000000000012 1.3425000000000002 0.78850000000000009
decision_type=2 2 2 2 2 2 2 2 2 2 2 2 2 2 2 2 2 2 2 2 2 2 2 2 2 2 2 2 2 2 2 2 2 2 2 2 2 2 2 2 2 2 2 2 2 2 2 2 2 2 2 2 2 2 2 2 2 2 2 2 2 2
left_child=1 9 5 10 13 -3 15 8 41 11 57 12 -1 14 34 37 -17 -9 -19 -6 -12 -22 -23 24 53 26 27 28 -13 40 -31 49 -28 -21 -5 36 -20 39 -39 -7 -29 42 43 47 -44 -46 -43 -4 -47 -10 -48 -18 54 -14 55 -24 -57 -2 -8 60 -56 -41
right_child=3 2 7 4 19 6 58 17 31 -11 20 25 23 -15 -16 16 51 18 35 33 21 22 52 -25 -26 -27 32 29 -30 30 -32 -33 -34 -35 -36 -37 -38 38 -40 61 -42 46 44 -45 45 48 50 -49 -50 -51 -52 -53 -54 -55 59 56 -58 -59 -60 -61 -62 -63
leaf_value=-0.02824697421113417 0.048597021760915564 0.059926052305335736 0.071892090405877282 0.0064067564140014369 0.024011210657041371 0.0064593659647495588 -0.034442143710885255 -0.059801258919117264 0.088200801433794246 0.063818455687431316 0.028269196218865464 -0.0013815494224546114 0.075762407172876869 0.073851406123362384 0.068664345542899394 -0.021729400068849145 0.11708357190503259 0.084101066813677711 -0.01140365247135916 -0.093046006786211402 0.020480016758045547 -0.12429339729923794 -0.087403559290584409 0.068239766192331935 -0.055385010851825844 -0.076039456657880672 -0.023057331338737559 -0.018518892269057043 -0.11530754198023541 -0.064164195545769298 0.011768308955835317 0.0097458756767704394 0.062921948789170443 -0.0058197936565571751 -0.0713760116996775 -0.050685473388507478 0.07406900308585869 0.072026688285736634 -0.02875916682707752 -0.11238056040234777 0.052837296074977586 -0.057085309592120242 0.087169642508357917 0.10889768856164568 -0.05391659227960674 -0.011981752091203663 0.048327001717760193 0.0014143729200973921 0.061050733682732318 0.019282894726822607 -0.018982539151920816 0.034324607861579925 -0.0062995393194368579 -0.0076738969226265927 0.014091384223393564 -0.038465324035350766 0.049702809194915015 -0.023151649165847783 -0.12161910820222749 -0.085290786172318556 -0.076199983200316554 -0.037871672057545561
leaf_count=173 63 112 122 115 62 78 50 60 456 83 57 68 62 105 69 82 55 72 74 108 60 90 69 141 61 93 61 91 83 157 99 69 79 52 63 62 60 51 52 50 85 50 58 137 74 81 142 100 109 50 81 81 90 51 50 53 53 80 50 280 81 95
internal_value=0 0.154049 0.276811 -0.24237 0.0121771 -0.0124728 -0.118481 0.402557 0.479837 -0.0581659 -0.393649 -0.100805 0.117505 0.24762 0.0397255 0.00358122 0.325695 0.0802003 0.238381 -0.389403 -0.477525 -0.531261 -0.591625 0.333802 0.0569489 -0.231894 -0.164247 -0.264898 -0.63079 -0.138167 -0.347291 0.720035 0.253549 -0.641652 -0.214096 0.0201034 0.265008 -0.205426 0.199222 -0.385744 0.165392 0.338771 0.439566 0.662308 0.206944 0.0715346 0.0912598 0.395468 0.298868 0.803725 0.240162 0.663699 -0.508329 0.38292 -0.580671 -0.294868 0.0874035 0.0803424 -0.784005 -0.703433 -0.384923 -0.631986
internal_count=5600 4000 2613 1600 574 756 644 1857 1529 1387 1026 1304 488 352 247 544 218 328 268 222 883 826 766 315 174 816 723 583 151 432 256 575 140 160 178 196 134 326 103 223 176 954 681 359 322 264 273 222 190 506 223 136 676 113 586 175 106 143 100 411 131 145
shrinkage=0.1


Tree=14
num_leaves=63
num_cat=0
split_feature=25 25 22 27 26 21 25 26 17 27 26 9 27 0 14 9 10 27 3 25 14 23 11 0 14 22 26 7 26 25 14 9 13 15 10 7 6 6 14 6 13 13 17 20 14 15 17 10 20 0 15 10 27 6 18 18 14 25 13 21 25 13
split_gain=33.6017 15.7529 13.8815 14.6937 22.3891 14.0125 11.6041 13.3323 9.13604 8.65026 8.41278 9.60055 8.57873 11.8222 8.25135 8.53755 9.46601 8.0258 7.53534 7.24731 7.76408 7.15658 6.62174 6.56508 6.36719 6.23335 6.11915 5.75149 5.64957 7.5999 5.57793 5.44102 9.15675 6.93758 9.71251 6.29284 4.9037 4.87316 5.18331 4.84354 4.80699 5.33136 4.6981 5.03891 5.85624 5.55802 10.134 4.66226 4.63055 6.80305 4.62906 4.49589 4.4664 4.45559 6.95686 4.40089 4.32817 5.69479 5.52756 4.31115 4.24656 4.11919
threshold=1.2815000000000003 0.5375000000000002 1.0675000000000001 0.90450000000000019 0.87350000000000005 1.0205000000000002 0.90350000000000008 0.76450000000000007 1.1705000000000003 1.1665000000000003 1.0315000000000001 0.90350000000000008 1.1775000000000002 1.2285000000000001 0.88850000000000018 0.6735000000000001 0.32050000000000006 0.64850000000000019 1.8535000000000001 1.0075000000000001 1.0975000000000004 1.0625000000000002 -0.66599999999999993 0.39350000000000007 -1.2964999999999998 1.0125000000000002 0.72450000000000003 1.3595000000000002 0.88850000000000018 0.7985000000000001 0.36350000000000005 0.6605000000000002 0.82750000000000001 -0.33849999999999997 0.34950000000000003 -0.27649999999999997 -0.51849999999999985 -0.50649999999999984 -0.21149999999999997 0.96650000000000003 0.65950000000000009 0.87750000000000006 1.3915000000000002 2.3265000000000007 -0.53349999999999997 0.80350000000000021 0.71150000000000013 0.027500000000000004 2.3265000000000007 0.70850000000000002 0.064500000000000016 -0.5704999999999999 0.76650000000000007 -0.28749999999999992 0.14600000000000002 0.5395000000000002 0.34350000000000008 0.37150000000000005 0.74450000000000005 1.8670000000000002 0.71350000000000013 0.83650000000000013
decision_type=2 2 2 2 2 2 2 2 2 2 2 2 2 2 2 2 2 2 2 2 2 2 2 2 2 2 2 2 2 2 2 2 2 2 2 2 2 2 2 2 2 2 2 2 2 2 2 2 2 2 2 2 2 2 2 2 2 2 2 2 2 2
left_child=1 24 3 4 6 9 7 17 37 28 11 22 21 -14 15 -9 36 50 23 20 30 48 -5 -2 -1 27 47 40 29 -4 52 -7 -33 59 35 -35 -17 -8 -39 53 -25 -42 43 45 -45 56 -47 -19 49 -12 -3 -21 -6 -27 -55 -53 58 -58 -26 -34 -54 -24
right_child=18 2 5 10 19 31 8 14 -10 -11 12 -13 13 -15 -16 16 -18 26 -20 51 -22 -23 61 25 42 39 -28 -29 -30 -31 -32 32 33 34 -36 -37 -38 38 -40 -41 41 -43 -44 44 -46 46 -48 -49 -50 -51 -52 55 60 54 -56 -57 57 -59 -60 -61 -62 -63
leaf_value=0.046016387431428891 0.03535489048322242 0.062118642747535091 0.091957197955793615 -0.016815221816493097 -0.0057152220946941994 0.064150464742631225 -0.11321294376811214 0.072382567636572526 0.023902363373142634 0.00074858364085705691 -0.02604585961693396 -0.0013318881218935482 -0.0020052892942052872 -0.12042405379570215 0.095429285517190932 0.019387300567866125 0.060286798879553107 -0.098263765099473613 -0.098459288464526534 -0.039273409301202732 -0.00016219615572477951 0.075450702009994833 -0.06131591352449766 -0.098268182401649196 -0.089827468993022797 -0.028228467123796765 0.0031594077066173032 0.021183334260354653 0.096960280206557822 -0.0048236828160906431 0.10948119301876474 -0.046437330523927484 -0.05332821987771013 -0.025022520669382316 0.1215700569775047 0.071482519574463388 -0.05918180536396013 0.012267742590626449 -0.067836729857015818 -0.070228611795237553 0.011322660486015724 -0.056848461107874129 0.029026546619634788 0.010752109492534589 -0.06961791342089399 0.089558486731939502 -0.032502565811770127 -0.021940737179719075 -0.032670887213194034 0.056416106387421498 -0.018372128435898052 0.061233632098545834 0.014770068192681816 -0.016647082364361087 0.069814891917705249 -0.014867820711940399 0.046142570866850856 -0.040310086820863317 -0.014492828119770257 0.025529817629828061 0.077122927283734252 -0.14268474281406648
leaf_count=66 71 71 77 56 51 78 53 114 82 75 69 145 137 50 95 57 80 83 88 52 94 80 51 96 80 142 92 51 281 72 145 108 61 68 57 52 98 54 102 52 66 294 71 50 177 54 61 61 90 110 55 86 60 89 72 52 60 70 87 59 331 59
internal_value=0 0.113199 0.171361 0.0945485 0.200419 0.388228 0.0070978 0.138812 -0.350338 0.649276 -0.130992 -0.405476 0.0249216 -0.337131 0.391117 0.239813 0.0087167 -0.154577 -0.318209 0.476966 0.597627 0.213923 -0.749259 -0.266718 -0.153657 -0.318638 -0.381772 -0.478845 0.776664 0.444982 0.69885 0.141949 0.044832 0.236346 0.500326 0.164976 -0.299674 -0.583903 -0.396895 -0.111804 -0.5574 -0.438645 -0.210769 -0.2672 -0.517162 -0.132219 0.25027 -0.654743 0.0531998 0.24517 0.269629 0.128371 0.570203 -0.0119031 0.22275 0.323107 -0.282061 -0.000595644 -0.502748 -0.148813 0.656344 -1.04955
internal_count=5600 4579 3803 2815 1968 988 1097 806 291 505 847 311 536 187 444 349 235 362 1021 871 681 349 166 933 776 862 236 507 430 149 587 483 405 297 177 120 155 209 156 355 456 360 710 639 227 412 115 144 269 179 126 190 442 303 161 138 297 130 167 120 391 110
shrinkage=0.1


Tree=15
num_leaves=63
num_cat=0
split_feature=25 25 0 5 27 0 3 24 25 5 21 22 25 27 4 2 10 13 1 13 5 3 23 8 18 10 3 18 10 20 18 0 23 1 24 27 5 20 2 24 24 5 13 22 22 13 25 11 2 1 4 8 7 13 6 7 18 27 24 27 5 18
split_gain=27.2345 30.4032 14.6263 14.17 13.959 10.9935 10.3825 12.6469 10.1223 13.5074 9.32225 21.0388 7.37112 7.26823 10.7096 10.1949 7.19574 7.13004 6.98913 7.94125 7.92078 6.44147 6.32358 9.49919 6.32144 6.13183 6.12251 7.3136 5.33587 5.49486 6.4068 6.13636 6.5106 5.32659 5.23723 10.1036 5.30718 5.65268 5.1872 5.16014 5.71372 5.13457 5.10276 4.94975 6.62305 4.98988 4.80701 5.74196 4.76959 5.43695 4.69985 4.57061 4.38339 4.27949 4.24993 4.24686 4.31341 4.23649 4.13858 7.28367 6.83031 6.04402
threshold=0.98450000000000004 0.59250000000000014 2.4805000000000006 0.80850000000000011 1.0105000000000002 1.7985000000000002 1.8135000000000001 1.2895000000000001 2.0390000000000001 1.7110000000000001 1.1605000000000001 1.0705000000000002 1.1635000000000002 0.90250000000000019 -1.1214999999999997 1.2535000000000003 -1.3474999999999997 1.3085000000000002 0.86150000000000004 0.67650000000000021 0.89050000000000018 1.8535000000000001 1.0315000000000001 1.6300000000000001 1.2545000000000002 0.77950000000000019 1.1045000000000003 0.10650000000000001 -1.3474999999999997 1.0000000180025095e-35 0.60150000000000003 0.74550000000000016 1.0795000000000001 -0.018999999999999996 1.0225000000000002 0.85950000000000004 0.59850000000000014 2.3265000000000007 -1.3834999999999997 1.1965000000000001 1.3165000000000002 1.4220000000000004 1.5135000000000003 0.87850000000000017 1.0735000000000003 1.3315000000000003 0.32150000000000006 0.18250000000000002 1.4685000000000001 0.89550000000000007 -1.0124999999999997 1.0000000180025095e-35 0.40650000000000003 0.80150000000000021 -0.36949999999999994 0.40650000000000003 -1.0000000180025095e-35 0.72050000000000003 0.94450000000000001 0.84450000000000014 0.93150000000000011 0.025500000000000005
decision_type=2 2 2 2 2 2 2 2 2 2 2 2 2 2 2 2 2 2 2 2 2 2 2 2 2 2 2 2 2 2 2 2 2 2 2 2 2 2 2 2 2 2 2 2 2 2 2 2 2 2 2 2 2 2 2 2 2 2 2 2 2 2
left_child=1 16 6 10 28 21 7 8 9 13 11 24 -8 14 52 22 -1 38 19 20 -16 41 25 -24 34 42 55 -28 -5 -30 31 -31 -33 -12 35 36 37 54 -18 -36 -41 53 -15 -21 45 -45 47 -40 49 58 -38 -13 -2 -6 -3 56 -9 -52 59 60 61 -48
right_child=2 3 -4 4 5 -7 12 26 -10 -11 33 51 -14 15 18 -17 17 -19 -20 43 -22 -23 23 -25 -26 -27 27 -29 29 30 -32 32 -34 -35 39 -37 50 -39 46 40 -42 -43 -44 44 -46 -47 48 -49 -50 -51 57 -53 -54 -55 -56 -57 -58 -59 -60 -61 -62 -63
leaf_value=-0.069326079416672612 -0.097818173292279612 0.0058323694595918754 -0.12582391298172327 0.0030364345990573326 0.064820467813063651 -0.071502305813290049 -0.010918404709161902 -0.063812874713707127 -0.091034949076951976 0.086602694103322775 -0.089130681555712118 0.13247321104813881 -0.10492525691059591 -0.092259168523450924 -0.084415993611090756 0.039614750313186398 -0.066349485379312637 0.041257775052209511 -0.04132877954339139 0.076963242832683409 0.022647724771418725 -0.038109139318670271 -0.062169421584636467 0.065760735751591498 -0.052675917342743919 -0.013777241767360919 0.087999979934154357 0.0062428537465743297 0.074883374807667311 0.093142969005295478 -0.013381830905334355 0.005607987583764646 0.098291145005091632 -0.0061217311571523199 0.066694276617259948 -0.067488393262331803 0.087919667986240346 0.040901854789993197 0.055861190830301347 -0.049013586483867944 0.043312182247479139 0.084482658228919427 -0.024023995308446171 -0.024455574830824771 0.078995928926264239 0.047312723605551679 -0.061981547363518491 -0.021937520725211285 -0.081168318857889554 -0.05974682534664142 -0.022388315209491087 0.050866732329935861 -0.016711686913763086 -0.0043872431903226889 -0.072355946685242672 0.037532867141054117 0.0092754447292059446 0.04127092843726294 0.028915063511443264 -0.077856289988648311 0.065221348355103195 0.017244035146320284
leaf_count=101 66 52 58 94 57 64 58 61 105 56 57 78 112 227 57 69 84 98 107 86 64 57 57 50 80 93 99 89 559 133 86 147 52 76 129 87 55 57 85 51 71 78 65 123 61 62 79 76 52 95 76 58 51 115 78 76 77 131 114 68 53 88
internal_value=0 0.135314 -0.173888 0.264821 0.413335 0.0726319 -0.143979 -0.0989566 -0.196717 -0.15091 0.0888039 0.162757 -0.669409 -0.196558 -0.0543049 -0.380032 -0.168267 -0.108995 0.0651588 0.177753 -0.281536 0.236169 -0.488033 -0.027877 0.0427173 -0.61675 0.22106 0.494404 0.552693 0.601652 0.405955 0.550898 0.3011 -0.419365 0.101581 -0.0185931 0.113934 -0.159201 -0.174786 0.356568 0.0528939 0.38383 -0.770202 0.342384 0.192535 -0.00114987 -0.11726 0.194267 -0.210734 -0.148229 0.314979 0.972121 -0.625814 0.18853 -0.40197 -0.0157237 -0.22998 0.165352 -0.0430031 -0.17671 0.00543508 -0.201611
internal_count=5600 3571 2029 2578 1442 371 1971 1801 1399 1294 1136 1003 170 1238 677 561 993 892 560 453 121 307 492 107 867 385 402 188 1071 977 418 332 199 133 787 536 449 187 794 251 122 250 292 332 246 185 710 161 549 497 262 136 117 172 130 214 138 207 402 288 220 167
shrinkage=0.1


Tree=16
num_leaves=63
num_cat=0
split_feature=27 26 25 24 22 24 25 26 0 13 25 9 13 15 0 22 21 22 7 18 0 24 21 4 4 7 25 26 19 17 9 21 18 13 9 27 27 25 13 25 27 13 13 25 10 24 21 9 15 13 9 14 10 2 24 19 19 9 25 7 25 10
split_gain=23.0872 31.0059 19.9984 18.1303 20.4503 9.92097 9.7499 12.8221 8.94414 7.9871 7.33307 9.12329 7.11466 7.7144 6.95947 6.64 8.75179 6.5819 7.21953 7.35869 6.54125 6.41703 6.18431 6.15296 6.13778 7.2636 6.12165 5.82876 5.78378 5.92846 5.43102 5.40907 5.4002 5.37796 5.29847 5.24327 5.02389 11.1029 5.01848 6.64039 4.98664 4.92989 4.91185 4.794 4.64885 4.53194 5.01186 4.48907 6.64624 8.22909 4.51965 4.26352 4.2573 5.78279 5.88424 4.56934 4.21823 4.26196 4.21094 4.27911 4.11198 3.99974
threshold=0.90250000000000019 0.85650000000000015 1.0895000000000004 1.0035000000000001 1.0625000000000002 2.3415000000000004 0.94550000000000012 0.76750000000000018 1.2935000000000001 1.2215000000000003 2.1950000000000007 1.6385000000000003 0.66850000000000021 -1.0384999999999998 0.6715000000000001 1.0885000000000002 0.66350000000000009 0.85350000000000004 -0.79749999999999999 -0.37549999999999994 0.52950000000000019 0.79950000000000021 1.0385000000000002 -1.3674999999999997 0.18550000000000003 0.69350000000000012 0.76450000000000007 0.89450000000000018 -0.78649999999999987 0.74050000000000005 0.69950000000000012 0.80550000000000022 -0.26349999999999996 0.88950000000000007 0.81850000000000012 0.69950000000000012 0.96150000000000013 0.92250000000000021 1.4385000000000001 1.0675000000000001 1.2915000000000003 0.96150000000000013 0.85550000000000004 0.68650000000000022 0.55650000000000011 0.88750000000000007 0.91350000000000009 1.3035000000000003 -1.3854999999999997 0.6645000000000002 1.1665000000000003 -0.12149999999999998 -1.3474999999999997 -0.92049999999999998 0.81150000000000022 0.89550000000000007 0.25750000000000006 0.57950000000000002 0.94850000000000001 0.14550000000000002 1.1705000000000003 0.26100000000000007
decision_type=2 2 2 2 2 2 2 2 2 2 2 2 2 2 2 2 2 2 2 2 2 2 2 2 2 2 2 2 2 2 2 2 2 2 2 2 2 2 2 2 2 2 2 2 2 2 2 2 2 2 2 2 2 2 2 2 2 2 2 2 2 2
left_child=1 6 12 4 8 10 7 20 30 35 11 17 14 -14 -3 16 -4 18 -5 -20 -1 42 28 -9 32 43 41 -16 -18 -30 -2 34 -25 -34 -19 -8 -32 -38 39 -13 47 -15 -6 -26 -42 -23 -47 48 -33 -50 -51 -39 -22 -54 55 56 57 -55 -28 -60 -36 -29
right_child=3 2 15 5 21 -7 9 23 -10 -11 -12 38 13 26 27 -17 22 31 19 -21 52 45 -24 24 25 -27 58 61 29 -31 36 40 33 -35 60 -37 37 51 -40 -41 44 -43 -44 -45 -46 46 -48 -49 49 50 -52 -53 53 54 -56 -57 -58 -59 59 -61 -62 -63
leaf_value=-0.054455861298513125 0.0015592704695743878 -0.027643245331475653 0.060004896192324277 -0.023633286624555043 -0.014676218286012356 -0.074770406633508799 -0.016244413503874164 -0.03602397776101917 -0.10248473142462283 0.019511989178693578 -0.067869600944517591 0.082753043685485181 0.11252722447132019 -0.011325592858652891 -0.0091872486382741682 0.061293242253508809 -0.10599613094829463 -0.082703010499162649 0.0022416329278905989 0.091377927499264419 -0.056482333121467866 -0.055257138406847144 0.029218330953529784 0.02272436741393952 -0.053168522040732739 0.072170824319995094 0.088856483038295353 0.098657656571502925 -0.081364540634642574 0.0028349981962978699 -0.10035753851240821 -0.068886534754980494 0.12662162337872071 0.041926271790460601 0.029934370410738625 -0.09288689452519984 0.034526946911059467 -0.029743675975231948 0.11189445527290609 -0.021579703996912326 -0.0069589124219569011 0.06080659422227528 0.066662388718337823 0.018630401377485558 -0.079316218688756268 0.057901568988445368 -0.022557017136626476 0.054490848454074585 0.071694863932975139 0.0074378094463139798 -0.05996676258341125 -0.10925713169070556 -0.039145101910008279 -0.025386569860915614 -0.025628670535966198 -0.015994904763520567 0.086922226980979067 0.044938840026170906 0.073096257001338164 -0.0057928471518325008 -0.05238361389329254 0.030059045076517622
leaf_count=150 91 84 58 69 52 76 60 60 202 62 68 56 168 93 66 62 52 70 66 101 65 99 61 103 69 67 311 107 54 105 93 50 75 65 56 116 59 65 51 52 132 91 89 105 53 50 110 89 81 312 50 88 131 52 139 84 61 126 82 55 51 80
internal_value=0 0.145186 0.380647 -0.132116 -0.362411 0.0112725 -0.0535672 0.0161153 -0.633342 -0.443016 0.0499038 0.0811625 0.549788 0.67175 0.27398 -0.00922648 -0.125537 0.0192812 0.329294 0.562368 -0.147977 -0.0041289 -0.28156 0.272525 0.354292 0.111588 0.555764 0.468952 -0.450972 -0.257627 -0.442903 -0.0583986 0.594426 0.872252 -0.387213 -0.672558 -0.589676 -0.391131 0.558703 0.305783 0.0168704 0.226294 0.359669 -0.115715 -0.278681 -0.198574 0.0179819 0.111742 0.0347641 0.11511 -0.0177833 -0.756059 -0.0592156 -0.003762 0.105246 0.257637 0.403274 0.24076 0.714859 0.407053 -0.091291 0.685985
internal_count=5600 3119 1529 2481 998 1483 1590 1352 598 238 1407 1339 1137 800 337 392 330 1180 236 167 808 400 272 544 484 241 632 253 211 159 396 944 243 140 177 176 305 212 159 108 767 184 141 174 185 259 160 582 493 443 362 153 658 593 462 323 239 178 448 137 107 187
shrinkage=0.1


Tree=17
num_leaves=63
num_cat=0
split_feature=27 5 24 0 5 3 11 9 1 13 23 24 10 2 0 6 27 18 23 9 3 14 12 10 9 4 23 2 18 0 3 9 2 2 24 6 23 5 21 3 4 3 0 17 15 24 13 5 12 5 13 11 27 14 4 24 14 14 3 6 15 10
split_gain=19.0239 19.4168 15.6501 11.0879 13.3281 10.9852 12.973 10.0236 8.81319 8.16675 11.4323 7.62985 9.72245 7.56762 7.50328 6.62506 6.25366 9.82405 8.71119 7.62703 6.01732 8.08902 6.95685 10.1774 8.01027 7.99537 6.20944 6.09512 5.92653 5.48055 6.66205 5.37324 5.26746 5.01542 4.86093 4.84233 5.69237 4.77157 4.72978 4.60074 4.32013 4.09153 5.95761 5.80114 7.00329 4.04867 5.7828 4.02544 5.71213 4.78862 7.19158 5.76972 4.56923 4.00307 4.0646 3.52207 3.49528 6.79832 6.43759 9.18689 5.76767 4.86186
threshold=0.90250000000000019 1.0025000000000002 1.1375000000000002 1.7985000000000002 1.7625000000000002 1.7675000000000003 -0.78449999999999986 1.2475000000000003 -1.5909999999999997 0.9405 1.1385000000000003 1.7450000000000003 0.12450000000000001 -1.3584999999999998 1.8725000000000003 -1.2374999999999998 1.2915000000000003 0.11700000000000001 0.98750000000000016 1.0875000000000001 1.7785000000000002 -1.1534999999999997 1.0000000180025095e-35 -0.60149999999999981 0.77250000000000008 -0.96549999999999991 1.0065000000000002 -0.22649999999999998 1.3105000000000002 1.1555000000000002 1.1105000000000003 0.79050000000000009 0.5375000000000002 -0.39699999999999996 0.94450000000000001 1.3550000000000002 0.98550000000000015 0.88450000000000017 0.90550000000000008 1.1695000000000002 0.40650000000000003 0.72550000000000014 1.2935000000000001 0.82050000000000012 -0.53049999999999986 1.0475000000000001 0.63750000000000007 1.1575000000000002 1.6610000000000003 0.87650000000000017 0.78850000000000009 -0.36849999999999994 1.0405000000000002 -0.83849999999999991 -0.30949999999999994 1.3545000000000003 0.20050000000000004 -0.33549999999999996 0.8025000000000001 1.0000000180025095e-35 -0.87349999999999983 -0.31599999999999995
decision_type=2 2 2 2 2 2 2 2 2 2 2 2 2 2 2 2 2 2 2 2 2 2 2 2 2 2 2 2 2 2 2 2 2 2 2 2 2 2 2 2 2 2 2 2 2 2 2 2 2 2 2 2 2 2 2 2 2 2 2 2 2 2
left_child=1 7 3 4 8 16 -7 9 -2 14 28 12 -8 -3 45 37 47 18 -18 -19 21 -17 23 32 -24 -25 40 -27 29 30 31 33 -23 -11 -5 36 -15 -10 -31 -20 -26 42 -38 -43 -45 56 -47 49 -49 51 -51 -4 -52 -9 -55 -53 57 58 59 61 -59 -1
right_child=2 13 5 34 -6 6 11 53 15 10 -12 -13 -14 35 -16 20 17 19 39 -21 -22 22 24 25 26 27 -28 -29 -30 38 -32 -33 -34 -35 -36 -37 41 -39 -40 -41 -42 43 -44 44 -46 46 -48 48 -50 50 52 55 -54 54 -56 -57 -58 60 -60 -61 -62 -63
leaf_value=-0.054088308033151206 -0.11071973738083503 -0.01991555111296341 -0.0044262916298383323 -0.11017325102053931 0.060248445937938294 0.03738041849170675 0.025034818784386827 0.10451145082611756 -0.10633923573465967 -0.037136540984145872 0.087824834409592129 -0.13537952880222584 -0.10349614203762088 0.091702198560165413 0.052867785479004274 -0.069281710108479763 0.09278542331543857 -0.11187809072212201 -0.054307429118673679 -0.0097941083744415777 -0.067811361620113753 -0.070750222382107694 0.053083467267076669 0.12259617729008804 -0.032750442944327711 0.07499164810740476 0.019353786775174901 -0.01086775617059531 -0.061679309027584832 -0.069902757688491482 -0.019903340652379815 0.065638630002184922 0.021010474680306038 0.03883404958646744 -0.030189231844061772 -0.016246791532196325 0.04318278849566954 -0.018859045574992843 0.013289566376134283 0.033487107207948244 -0.095518316285321661 0.091970353476376887 -0.04252483213942862 -0.036869847853632648 0.063390959761299687 -0.024627395305942129 0.059065288253495454 0.071876941654938811 0.00023277573582081818 0.046865659805591979 -0.074390960942406423 0.10031903474883004 0.00089620457004368527 -0.0092737609160380048 0.064277929778945489 0.031254377457953335 -0.0063301059749956388 -0.0064409688173633689 -0.043362978138809023 0.070981469436113317 -0.088148327863864062 0.027775655356517843
leaf_count=84 56 90 88 115 89 73 53 52 70 63 95 59 50 170 83 97 53 53 52 77 99 66 52 50 148 65 70 92 53 62 119 180 50 120 53 50 149 50 63 51 86 153 56 52 108 76 80 156 74 69 66 62 72 66 87 65 498 56 192 72 135 55
internal_value=0 0.132812 -0.120317 -0.287515 -0.212827 0.0517987 -0.36139 0.0340438 -0.280312 -0.00896934 0.171766 -0.701477 -0.37177 0.433457 -0.109115 -0.232671 0.151011 -0.104853 0.245762 -0.527841 -0.166668 -0.103312 -0.0202685 0.204778 -0.233709 0.489622 -0.374659 0.249038 0.0711769 0.13235 0.239059 0.388243 -0.302032 0.124716 -0.825683 0.507438 0.557369 -0.707185 -0.264793 -0.106847 -0.548782 0.43989 0.192312 0.602625 0.304048 -0.149636 0.178601 0.264118 0.491156 0.145796 -0.0787797 0.362254 -0.350495 0.507505 0.325854 0.645204 -0.19482 -0.305575 -0.149428 0.105704 -0.639814 -0.219347
internal_count=5600 3119 2481 1308 1140 1173 235 2291 1051 2086 755 162 103 828 1331 995 938 286 156 130 875 776 679 323 356 207 304 157 660 607 482 363 116 183 168 738 688 120 125 103 234 518 205 313 160 1248 156 652 230 422 207 215 138 205 153 127 1092 594 403 211 191 139
shrinkage=0.1


Tree=18
num_leaves=63
num_cat=0
split_feature=25 25 0 5 27 9 6 0 23 2 6 27 22 27 5 0 0 24 25 4 19 6 22 22 22 27 24 19 14 9 6 25 7 5 22 10 13 25 27 9 0 0 23 19 7 1 27 8 2 14 17 19 11 0 4 1 17 2 5 7 0 25
split_gain=18.9511 22.1046 11.3834 10.958 9.84359 9.26323 7.63266 11.8227 6.28528 7.25052 6.2411 6.24801 5.92728 7.14078 9.63533 8.12468 6.70677 6.51201 6.58896 6.02159 5.80024 7.00965 5.68075 5.55318 6.91887 6.50629 7.72494 6.91808 5.21905 5.00068 4.90562 4.77075 5.68062 5.95628 5.52471 4.5802 4.84184 5.20004 5.01148 7.79085 4.51563 4.41448 4.38519 4.7782 4.38159 4.36908 5.61677 5.72664 6.01057 4.35404 4.31081 4.29933 5.39909 4.3532 5.27397 4.13995 3.9787 3.79099 3.78577 3.62398 3.42335 3.34501
threshold=0.98450000000000004 0.59250000000000014 2.4805000000000006 0.80850000000000011 1.0105000000000002 1.2475000000000003 1.1275000000000002 1.7805000000000002 1.3730000000000002 -1.4204999999999999 0.46750000000000008 1.3455000000000001 1.1275000000000002 1.0855000000000004 1.1885000000000001 0.62350000000000005 1.0575000000000003 0.90050000000000019 1.1705000000000003 -0.24899999999999997 1.5115000000000001 -1.4399999999999997 0.88750000000000007 1.0515000000000001 1.1275000000000002 0.85750000000000004 0.88550000000000006 0.74050000000000005 0.94350000000000012 0.88450000000000017 1.1945000000000003 1.5165000000000002 1.2485000000000002 0.71650000000000003 0.94750000000000012 -1.3779999999999999 1.4065000000000003 0.57050000000000012 0.83850000000000013 0.99050000000000005 1.2695000000000003 1.5795000000000001 0.98750000000000016 0.19050000000000003 1.0085000000000002 1.1045000000000003 0.72650000000000003 1.0000000180025095e-35 -0.48249999999999993 -0.53349999999999997 0.49050000000000005 0.34550000000000003 0.28550000000000003 1.0995000000000001 -0.26349999999999996 -0.7164999999999998 0.65550000000000008 1.0880000000000003 0.89050000000000018 0.12750000000000003 0.75450000000000006 0.73050000000000004
decision_type=2 2 2 2 2 2 2 2 2 2 2 2 2 2 2 2 2 2 2 2 2 2 2 2 2 2 2 2 2 2 2 2 2 2 2 2 2 2 2 2 2 2 2 2 2 2 2 2 2 2 2 2 2 2 2 2 2 2 2 2 2 2
left_child=1 8 12 5 20 23 7 10 9 -1 11 29 13 14 30 -16 17 -15 -19 -20 21 -5 -17 25 60 45 -27 -28 49 -6 31 32 33 34 -2 -11 37 38 39 40 42 51 -37 -44 -40 46 55 48 -48 -14 -23 53 -53 54 -35 -3 -57 59 -33 -51 -25 -52
right_child=2 3 -4 4 6 -7 -8 -9 -10 35 -12 -13 28 16 15 22 -18 18 19 -21 -22 50 -24 24 -26 26 27 -29 -30 -31 -32 58 -34 41 -36 36 -38 -39 44 -41 -42 -43 43 -45 -46 -47 47 -49 -50 57 61 52 -54 -55 -56 56 -58 -59 -60 -61 -62 -63
leaf_value=-0.076609369092224835 -0.082525821600291427 -0.064632042251784413 -0.11449731344750358 -0.020145963199486513 0.10606678452869334 0.074488947435638442 0.077875142845549056 -0.09487705060876106 0.051908235880411081 -0.060150957453733125 -0.048619585674296334 -0.029446284888240831 -0.011614304761211948 -0.1068085028666813 -0.043123381253497656 0.087910058728948803 -0.089379805077544172 0.054566486579277984 0.022860720873202331 -0.075445648514233771 -0.015533750729283716 0.014517414270581955 0.012812152071941231 0.11521991828221462 -0.0060786115572237986 -0.10104840134741043 -0.040580809329602396 0.052109114490851087 -0.036541069597654463 0.024440683884937021 -0.074177377252388474 -0.0017648098825680941 0.03958838344884405 -0.052835842163415081 -0.0023045980971731915 0.0073733417845752592 0.045284120397016153 -0.073775128940242601 -0.04801248064932432 0.061918246637483576 0.031674798178663324 0.055625233810287771 -0.091730503177255618 -0.011357732257902584 0.020774414896698384 -0.038700515127119028 -0.058703678528385629 0.06188932237445597 0.035296099777422034 0.049571246688786104 0.039015375109408612 0.050700940277116961 -0.036102192382618324 -0.083289683264596973 0.025195048848645298 -0.042193594601557846 0.02921054430436168 0.086751941875114272 -0.071634122425060884 -0.007513995102075845 0.035434762708798445 0.072621585268390285
leaf_count=87 99 53 58 65 51 98 57 56 57 82 56 56 133 50 61 86 138 50 51 79 71 104 101 51 100 62 120 51 94 95 73 54 92 73 61 107 67 58 181 87 84 51 62 68 53 87 51 164 92 103 195 81 50 51 78 52 99 51 116 95 56 636
internal_value=0 0.112759 -0.148862 0.225916 0.360123 0.0697984 0.0717488 -0.0578426 -0.147591 -0.189065 0.130647 0.304767 -0.122819 -0.190995 -0.111864 0.266236 -0.472784 -0.245898 -0.0722997 -0.355341 0.481498 0.527514 0.48566 0.0130433 0.333194 -0.0647333 -0.361031 -0.134241 0.0804912 0.534854 -0.213787 -0.166609 -0.0859791 -0.167253 -0.51005 -0.13035 -0.080302 -0.132024 -0.0783887 0.0600454 -0.0879997 -0.0272598 -0.237925 -0.497046 -0.324591 0.0576484 0.135029 0.331228 0.0107367 0.189486 0.579606 -0.113106 0.178685 -0.304896 -0.127039 -0.129657 0.0443735 0.354576 -0.493892 0.222667 0.736076 0.637204
internal_count=5600 3571 2029 2578 1442 1136 371 314 993 936 258 202 1971 1495 1127 248 368 230 180 130 1071 1000 187 1038 207 831 233 171 476 146 879 806 636 544 160 849 767 700 642 408 321 384 237 130 234 598 511 307 143 382 935 333 131 202 151 204 151 249 170 198 107 831
shrinkage=0.1


Tree=19
num_leaves=63
num_cat=0
split_feature=25 25 26 27 0 26 27 3 24 25 26 1 27 0 1 15 3 27 3 15 26 27 7 24 0 19 13 3 13 4 15 25 0 25 21 8 14 27 27 0 15 18 25 21 1 26 21 21 3 19 15 3 19 6 1 22 0 13 15 3 21 24
split_gain=15.5787 18.1835 11.6659 14.716 9.71433 8.07973 7.90054 7.57178 8.5164 7.64456 7.34684 7.2661 7.26133 7.08672 6.99312 6.73654 8.40137 6.40851 6.20332 6.10211 5.85891 10.5222 7.46204 6.33148 5.98528 7.08495 5.85613 5.66283 5.71613 5.30829 9.01409 5.27886 5.23041 5.97929 5.05473 5.03543 5.03452 5.18993 11.3914 8.64816 6.19293 4.89144 4.88465 4.41525 4.38562 4.35767 4.30103 5.05119 4.20567 4.1156 4.09678 3.853 3.81771 4.14268 3.81438 3.77188 3.73686 3.82036 5.26095 3.53914 3.41413 3.38644
threshold=0.98450000000000004 0.59250000000000014 0.76750000000000018 0.85750000000000004 2.4805000000000006 0.92250000000000021 1.3285000000000002 1.8335000000000001 1.2565000000000002 2.0390000000000001 0.89650000000000019 1.3180000000000003 0.79950000000000021 1.5415000000000003 -1.6234999999999997 0.17550000000000002 0.72550000000000014 1.0705000000000002 1.3665000000000003 0.37750000000000006 0.88850000000000018 0.89550000000000007 0.62250000000000016 0.71450000000000002 0.65650000000000019 0.27150000000000007 1.0225000000000002 0.78650000000000009 1.2425000000000002 -0.54099999999999993 0.29050000000000004 0.86150000000000004 0.55750000000000022 0.86150000000000004 1.0095000000000003 1.6300000000000001 1.6405000000000003 0.83850000000000013 0.81250000000000011 0.96350000000000013 0.60850000000000015 0.24350000000000002 0.74250000000000005 0.98350000000000015 -0.66749999999999987 1.0405000000000002 1.1395000000000002 1.8670000000000002 0.78650000000000009 0.60250000000000015 -0.12649999999999997 1.0375000000000003 -0.12049999999999998 -0.052499999999999991 -0.26249999999999996 0.85550000000000004 0.83750000000000002 0.74450000000000005 0.33900000000000008 0.88750000000000007 0.97850000000000004 0.88550000000000006
decision_type=2 2 2 2 2 2 2 2 2 2 2 2 2 2 2 2 2 2 2 2 2 2 2 2 2 2 2 2 2 2 2 2 2 2 2 2 2 2 2 2 2 2 2 2 2 2 2 2 2 2 2 2 2 2 2 2 2 2 2 2 2 2
left_child=1 36 15 10 7 19 13 8 9 11 12 20 31 14 -7 44 -17 -9 -8 -5 22 23 26 -22 35 29 -2 28 -27 -26 -31 61 33 -16 42 -23 37 38 39 40 54 43 -12 50 -3 -15 56 -48 -14 -41 -39 -43 55 -54 -1 -25 -34 -58 -59 -46 -19 -4
right_child=4 2 3 5 -6 6 18 17 -10 -11 34 -13 48 45 32 16 -18 60 -20 -21 21 24 -24 52 25 27 -28 -29 -30 30 -32 -33 46 -35 -36 -37 -38 41 -40 49 -42 51 -44 -45 59 -47 47 -49 -50 -51 -52 -53 53 -55 -56 -57 57 58 -60 -61 -62 -63
