tree
version=v4
num_class=1
num_tree_per_iteration=1
label_index=0
max_feature_idx=7
objective=binary sigmoid:1
feature_names=Column_0 Column_1 Column_2 Column_3 Column_4 Column_5 Column_6 Column_7
feature_infos=-1:10:5:8:9:7:1:6:3:0:2:11:4 -1:26:3:1:13:25:11:28:5:2:9:29:0:19:20:4:6:8:30:18:22:15:10:14:23:7:17:16:27:12:21:24 [0:6] [5:2545] -1:20:1:7:13:16:19:14:18:21:15:5:8:10:3:22:4:12:9:6:11:17 -1:19:216:84:163:141:83:225:75:161:100:203:38:224:262:270:90:182:65:261:168:49:140:156:82:184:252:279:63:108:209:289:36:134:274:191:272:221:242:180:229:267:79:133:253:2:21:66:25:186:215:204:48:146:269:47:246:192:213:237:155:220:294:95:171:260:16:122:211:251:292:217:190:212:114:37:201:245:89:124:13:51:158:169:80:154:178:285:299:123:150:183:232:30:45:102:157:164:223:226:278:46:70:137:248:255:257:52:78:110:142:170:306:56:98:113:202:265:29:104:187:188:194:200:207:236:238:254:280:15:20:73:111:117:121:166:167:189:196:240:1:58:64:71:72:119:120:132:136:151:165:172:228:288:303:5:32:35:60:93:103:105:126:135:173:179:233:263:268:276:295:296:309:0:42:44:67:81:88:97:106:129:145:152:160:197:206:239:256:264:282:290 -1:19:218:83:164:82:141:227:74:99:275:162:205:64:267:89:49:38:184:170:140:81:156:226:266:186:294:193:62:284:257:188:211:247:182:36:231:78:107:272:134:279:133:2:223:222:21:258:277:146:240:256:47:25:48:274:215:213:251:155:194:253:299:206:173:65:217:69:250:16:192:122:297:30:37:79:123:214:265:94:219:234:103:114:58:260:290:304:51:142:238:259:158:110:180:268:45:52:120:137:311:13:27:46:165:172:196:242:308:60:101:124:136:202:209:293:15:31:71:150:154:169:171:203:262:270:283:1:24:29:56:88:159:168:245:252:0:35:50:72:111:119:121:135:153:198:11:20:22:113:143:157:185:189:190:191:224:228:235:243:246:285:5:6:70:77:87:116:126:145:151:152:160:204:225:255:269:271:295:301:312:314 [31:4433]
tree_sizes=3511 3487 3475 3499 3604 3599 3521 3533 3618 3652

Tree=0
num_leaves=31
num_cat=11
split_feature=3 6 3 3 5 3 5 3 5 6 1 1 4 7 3 7 3 7 1 3 1 7 7 1 7 3 3 7 7 7
split_gain=317.704 85.5595 57.2024 44.2263 35.1242 30.654 27.3046 26.6779 22.6466 20.4229 17.9173 16.54 15.9191 13.5537 12.1263 10.7873 10.2877 9.50459 9.46615 9.42175 9.33977 9.32025 9.98159 9.10488 8.78669 8.21578 8.03458 8.00061 7.99246 8.40209
threshold=1404.5000000000002 0 1905.5000000000002 945.50000000000011 1 193.50000000000003 2 1926.5000000000002 3 4 5 6 7 1905.0000000000002 2128.5000000000005 256.50000000000006 1637.5000000000002 698.50000000000011 8 1611.5000000000002 9 533.50000000000011 787.50000000000011 10 454.00000000000006 2056.5000000000005 779.50000000000011 278.50000000000006 174.50000000000003 1442.0000000000002
decision_type=2 9 2 2 9 2 9 2 9 9 1 1 9 2 2 2 2 2 1 2 1 2 2 1 2 2 2 2 2 2
left_child=3 7 4 5 23 -1 -5 10 -4 11 16 -8 17 15 24 -9 19 -11 21 -2 -14 -6 -23 27 -10 -26 -7 -3 -22 -30
right_child=1 2 8 6 18 26 9 13 14 12 -12 -13 20 -15 -16 -17 -18 -19 -20 -21 28 22 -24 -25 25 -27 -28 -29 29 -31
leaf_value=-1.3169872807480765 -1.4501347315299455 -1.4192541480654759 -1.5075932621901693 -1.5741628330231772 -1.5482433794744805 -1.6063393653909259 -1.4696402189324738 -1.420189923321975 -1.4432829533806641 -1.5573276007525012 -1.3819465017346104 -1.5737608191011143 -1.5063306537706322 -1.4510514093322302 -1.2996620702848936 -1.2818792722958161 -1.5151952297756133 -1.4630317528868437 -1.5708087831887818 -1.2592365792041336 -1.5656361346178318 -1.3785717153041177 -1.5162488305509141 -1.4404399477211065 -1.3404595750872559 -1.4904053356716989 -1.5720754734050084 -1.5391811348852262 -1.3830361798046782 -1.5245288644216222
leaf_weight=4.1557935476303092 20.036861747503284 7.1242175102233878 33.543190777301788 85.639031320810318 28.200027644634247 149.1633041203022 15.732647001743315 6.678953915834426 26.270552068948746 37.253720730543137 69.164278328418732 54.619000911712646 33.097927182912827 7.2726387083530417 14.842119812965391 36.214772343635559 28.793712437152863 14.990541011095045 66.641117960214615 2.9684239625930777 3.1168451607227317 8.7568506896495837 13.209486633539198 50.314786165952682 24.192655295133594 4.3042147457599631 126.45486080646515 25.380024880170822 36.066351145505905 4.7494783401489249
leaf_count=28 135 48 226 577 190 1005 106 45 177 251 466 368 223 49 100 244 194 101 449 20 21 59 89 339 163 29 852 171 243 32
internal_value=-1.50766 -1.44728 -1.48267 -1.5583 -1.51309 -1.58655 -1.5306 -1.39284 -1.42137 -1.50853 -1.41156 -1.54864 -1.48533 -1.32482 -1.39589 -1.30342 -1.48059 -1.52664 -1.54683 -1.4255 -1.45835 -1.50978 -1.46136 -1.46581 -1.40157 -1.36311 -1.59062 -1.51166 -1.42916 -1.3995
internal_weight=0 473.909 302.779 565.04 199.627 279.774 285.266 171.13 103.153 199.627 120.963 70.3516 129.275 50.1664 69.6095 42.8937 51.799 52.2443 116.807 23.0053 77.0306 50.1664 21.9663 82.819 54.7674 28.4969 275.618 32.5042 43.9327 40.8158
internal_count=7000 3193 2040 3807 1345 1885 1922 1153 695 1345 815 474 871 338 469 289 349 352 787 155 519 338 148 558 369 192 1857 219 296 275
cat_boundaries=0 10 19 28 37 46 47 48 49 50 51 52
cat_threshold=1074266112 16 262144 8 64 4203540 3423076354 8388608 268700676 64 524292 131072 67141632 16 268443712 2168455170 16908288 536879107 96 4 2147483648 2148042752 16 134230016 88080650 0 272629760 8470528 0 0 67110914 0 12352 10 0 0 16480 0 1073872960 33965057 0 268443680 67108880 0 65544 277349376 1286898345 5849616 2124928 1631970865 1558216989 1424075906
is_linear=0
shrinkage=1


Tree=1
num_leaves=31
num_cat=10
split_feature=3 6 5 3 3 4 3 5 3 3 0 1 1 1 7 2 2 7 7 3 3 3 3 7 2 7 3 4 1 7
split_gain=257.498 71.0888 46.7937 39.2969 25.3875 24.5212 24.4253 20.8515 17.9493 15.9826 14.6757 14.3631 14.1913 13.475 9.51574 9.45027 11.8846 8.25604 9.89431 11.014 9.46362 11.6327 8.11728 13.6408 14.4895 7.75827 7.71499 7.63231 7.54184 13.367
threshold=1404.5000000000002 0 1 945.50000000000011 1935.5000000000002 2 193.50000000000003 3 1901.5000000000002 1926.5000000000002 4 5 6 7 883.50000000000011 4.5000000000000009 2.5000000000000004 742.50000000000011 673.50000000000011 1845.5000000000002 1547.5000000000002 1702.5000000000002 2053.5000000000005 547.50000000000011 3.5000000000000004 1055.5000000000002 779.50000000000011 8 9 551.50000000000011
decision_type=2 9 9 2 2 9 2 9 2 2 1 1 1 1 2 2 2 2 2 2 2 2 2 2 2 2 2 9 1 2
left_child=3 9 4 6 11 -5 -1 13 27 12 -10 -3 -2 -7 -6 16 -11 18 19 -14 -19 -22 23 -12 -25 -17 -8 -4 29 -29
right_child=1 2 8 5 14 7 26 -9 10 15 22 -13 17 -15 -16 25 -18 20 -20 -21 21 -23 -24 24 -26 -27 -28 28 -30 -31
leaf_value=0.15178201740458747 0.0093001697597162782 -0.014259849281519474 0.0097418841185559941 0.04934630900006589 0.11538338208482896 -0.029168327516872362 -0.095039145855680907 -0.055280040320484551 -0.036943379814272446 0.12911053151333771 0.045872598565219982 0.069330746133313387 0.11915134858234777 0.038191220653765907 0.24125341757518295 0.13557162534147146 0.24073295225963692 0.073809557850952653 -0.069600289681766001 -0.03213467356287545 0.27183338349397329 0.13354095003235456 0.016029183694559909 0.10112774653649322 0.33703258417561255 -0.011742865096562279 -0.060577096354684279 -0.058843550812332349 -0.063267033338255702 0.074732773850336526
leaf_weight=4.666587531566619 34.006539866328239 33.535654440522194 37.231183066964149 34.951782703399658 32.814085945487022 50.549875810742378 139.87178631126881 147.65073516964912 18.126357689499855 21.508882150053978 17.14022366702557 45.210982754826546 41.456773594021797 48.607274934649467 7.3518281131982794 11.042104333639147 17.139280453324318 11.08722925186157 3.6380669027566901 5.4441726356744757 9.5764088928699511 16.671565353870392 17.956910252571106 7.0895496457815153 4.1147626340389252 5.2865513861179343 121.2941113114357 15.921000659465792 64.041434645652771 14.14972575008869
leaf_count=28 223 222 253 234 204 343 1005 1021 118 130 112 296 263 324 45 66 103 70 23 35 60 106 118 45 26 33 852 109 440 93
internal_value=0 0.0523018 0.0209495 -0.0474025 0.0680063 -0.021382 -0.0749819 -0.0320971 -0.00954888 0.101182 0.0331965 0.0407256 0.0867127 0.00432537 0.138422 0.151663 0.178612 0.1038 0.0892671 0.10159 0.151275 0.183996 0.0564437 0.101961 0.187763 0.0878772 -0.0790338 -0.0312438 -0.0438352 0.00300968
internal_weight=0 491.541 314.684 547.592 118.913 281.76 265.832 246.808 195.771 176.858 64.4278 78.7466 121.881 99.1572 40.1659 54.9768 38.6482 87.8742 50.539 46.9009 37.3352 26.248 46.3014 28.3445 11.2043 16.3287 261.166 131.343 94.1122 30.0707
internal_count=7000 3193 2081 3807 767 1922 1885 1688 1314 1112 419 518 780 667 249 332 233 557 321 298 236 166 301 183 71 99 1857 895 642 202
cat_boundaries=0 10 18 19 29 30 31 32 33 34 35
cat_threshold=1074266112 1073741840 0 8 64 4203540 3423076354 142606336 268700676 64 524292 131072 1081344 16 268435520 2168455424 16777216 8195 4195160 524288 65616 67371010 0 268435520 1048576 562169856 537133091 264288 2 1160 1895303618 1275365024 1549976014 1065224 541852469
is_linear=0
shrinkage=0.1


Tree=2
num_leaves=31
num_cat=11
split_feature=3 6 5 3 4 5 3 3 1 4 0 3 3 1 7 7 7 1 3 7 1 7 7 0 2 3 3 3 7 3
split_gain=207.464 57.4864 45.8108 35.2921 21.6659 20.9819 20.6626 19.9418 16.6234 11.1705 10.5429 14.1772 10.4962 10.4844 10.1968 9.35634 8.29158 8.04027 7.41521 7.19206 12.0794 7.97558 7.88671 7.12107 9.68412 6.1417 5.92885 6.40953 5.77863 6.4473
threshold=1404.5000000000002 0 1 945.50000000000011 2 3 1930.5000000000002 193.50000000000003 4 5 6 1850.5000000000002 1926.5000000000002 7 405.50000000000006 883.50000000000011 1234.5000000000002 8 779.50000000000011 742.50000000000011 9 653.00000000000011 589.50000000000011 10 3.5000000000000004 2009.5000000000002 1536.5000000000002 1842.5000000000002 296.50000000000006 1656.5000000000002
decision_type=2 9 9 2 9 9 2 2 1 9 1 2 2 1 2 2 2 1 2 2 1 2 2 1 2 2 2 2 2 2
left_child=3 12 6 7 -5 8 9 -1 -6 13 11 -4 19 -3 -10 -8 -17 28 -9 20 -2 22 -22 24 -11 -13 -21 -28 -12 -30
right_child=1 2 10 4 5 -7 15 18 14 23 17 25 -14 -15 -16 16 -18 -19 -20 26 21 -23 -24 -25 -26 -27 27 -29 29 -31
leaf_value=0.12502740647145147 -0.018328780147676318 0.00090527575222673184 -0.013866140400311353 0.047583491324328493 0.056741990618666686 -0.05185500862016873 0.084439590715624055 -0.091552887362346722 -0.091964054463355774 0.11187973891123254 0.17462241062881001 0.16115029658055427 0.14289450546269841 0.083111216138864241 -0.00022831835936787319 0.25156893265318503 0.10124569252711382 -0.03735153609918887 -0.056884071317538698 0.054054218015536663 0.10171372105169059 -0.012251711920879879 0.25115389290934198 -0.041119236265265723 -0.040858868628691675 0.044660983291565204 0.16251503902280295 0.049083001881683047 -0.064631265376362323 0.084109163269259421
leaf_weight=5.0738978385925284 17.611694529652596 32.127889588475227 30.54086722433567 33.992079004645348 32.952601432800293 151.87939043343067 46.643840730190277 131.13375417888165 17.034950479865074 9.7322614789009112 3.0226224511861792 8.2853376269340533 45.173304811120033 45.652748510241508 41.96820293366909 7.2975548058748227 7.3801730126142502 118.16001844406128 116.50737977027893 11.109229415655134 31.977479100227356 5.3876128047704688 3.9699480086565009 23.065557762980461 7.2385465502738944 9.9751153290271741 24.3732303082943 6.2610940337181082 5.1369139999151212 6.7350336015224457
leaf_count=28 110 211 209 220 216 1081 276 1005 118 62 20 49 249 292 287 40 43 795 852 68 194 35 24 149 47 62 142 38 34 44
internal_value=0 0.0452838 0.0214319 -0.0441787 -0.0195803 -0.0296776 0.0561419 -0.0712214 0.00844514 0.0347739 -0.0139036 0.0230811 0.0962468 0.0531268 -0.0228422 0.106351 0.175984 -0.0281339 -0.0752423 0.0848776 0.0623872 0.0814962 0.118218 -0.0113227 0.0294053 0.0975158 0.116637 0.139332 0.0306208 0.0197502
internal_weight=0 506.858 360.994 530.542 277.827 243.835 179.139 252.715 91.9558 117.817 181.856 48.8013 145.864 77.7806 59.0032 61.3216 14.6777 133.055 247.641 100.69 58.9467 41.335 35.9474 40.0364 16.9708 18.2605 41.7436 30.6343 14.8946 11.8719
internal_count=7000 3193 2333 3807 1922 1702 1120 1885 621 761 1213 320 860 503 405 359 83 893 1857 611 363 253 218 258 109 111 248 180 98 78
cat_boundaries=0 10 19 20 30 31 32 33 34 35 36 37
cat_threshold=1074266112 16 0 8 64 4203524 1141374978 8388608 268698628 64 524292 131136 68190208 16 268439616 22020354 16910336 8195 2048 4194648 524288 65616 68419586 0 268435520 1048576 545261568 262147 264288 2 1941009 5792034 769 548941189 553914368 1082147882 908
is_linear=0
shrinkage=0.1


Tree=3
num_leaves=31
num_cat=13
split_feature=3 6 5 3 3 5 1 3 4 7 5 1 4 3 1 1 2 4 3 2 3 3 3 0 3 7 1 3 7 3
split_gain=167.862 48.9082 38.1534 31.2087 21.5765 20.539 17.602 16.5194 14.6992 16.0026 14.0465 13.5307 11.5708 11.5297 10.9102 10.8877 9.46139 9.06085 8.71158 7.76852 7.41506 7.12231 7.02599 6.56614 12.0336 6.53436 6.31784 7.8753 6.30985 7.12912
threshold=1379.5000000000002 0 1 945.50000000000011 1706.5000000000002 2 3 193.50000000000003 4 698.50000000000011 5 6 7 2114.5000000000005 8 9 2.5000000000000004 10 1805.5000000000002 2.5000000000000004 1640.5000000000002 779.50000000000011 1611.5000000000002 11 1920.5000000000002 561.50000000000011 12 1110.5000000000002 798.00000000000011 2204.5000000000005
decision_type=2 9 9 2 2 9 1 2 9 2 9 1 9 2 1 1 2 9 2 2 2 2 2 1 2 2 1 2 2 2
left_child=3 10 4 7 15 26 17 -1 9 -7 16 12 -4 -12 -10 19 22 -6 -19 -3 -18 -9 -2 24 -13 -22 -5 -28 29 -8
right_child=1 2 11 5 6 8 28 21 14 -11 13 23 -14 -15 -16 -17 20 18 -20 -21 25 -23 -24 -25 -26 -27 27 -29 -30 -31
leaf_value=0.10530531416743534 0.073940640901883722 0.0020320224907274353 0.053342368019654751 -0.0087805814908018722 -0.029728246277667555 0.0010930870692688454 0.084086259897095977 -0.088182193896588823 0.028263101274212773 0.19190733074881952 0.10275401364899449 -0.034836633319062081 -0.020187398096688923 0.2103464509310794 -0.054697702233520606 -0.022354717827531241 -0.021566969690678214 0.15786106720726573 0.030900759630549765 0.14395867557996234 0.18442533837298514 -0.05332963858779606 -0.090573390108968463 -0.053778062213583458 0.094681297831277822 0.049821064828885611 0.12133179818900751 0.029326751969950743 0.16472522486310684 0.1971981582199977
leaf_weight=5.4021596908569327 3.4818728864192954 6.2674602270126369 33.568395763635635 32.56312058866024 20.278518885374069 23.583927348256115 44.096983954310417 122.95823056250811 15.452357262372969 5.401757836341857 107.53098875284195 23.980450600385666 36.611043214797974 10.976537451148031 150.58679896593094 47.439443722367287 8.3721744269132632 6.7254503369331351 27.518079593777657 10.02626360952854 5.3799391239881542 112.08203387260437 10.203123211860655 73.417394444346428 10.235448434948919 10.940690487623213 13.886253014206885 28.190169394016266 20.020387053489685 6.378031611442565
leaf_count=28 21 39 218 222 121 162 268 1005 107 36 611 163 240 57 1089 308 49 43 162 63 30 852 59 499 59 60 91 186 117 35
internal_value=0 0.0392138 0.0172037 -0.0413938 0.0475344 -0.0180376 0.0741931 -0.0675885 -0.0341517 0.0272514 0.0841785 -0.0158095 0.0172499 0.103948 -0.0458101 0.0026997 0.0142634 0.0156828 0.0432157 0.0553784 0.0549436 -0.0715623 -0.0487161 -0.036999 0.00302397 0.0941921 0.0252582 0.0482285 0.102659 0.0983791
internal_weight=0 523.449 366.563 510.107 188.751 269.664 125.017 240.442 195.025 28.9857 156.885 177.813 70.1794 118.508 166.039 63.7332 38.3778 54.522 34.2435 16.2937 24.6928 235.04 13.685 107.633 34.2159 16.3206 74.6395 42.0764 70.4954 50.475
internal_count=7000 3222 2335 3778 1156 1893 746 1885 1394 198 887 1179 458 668 1196 410 219 326 205 102 139 1857 80 721 222 90 499 277 420 303
cat_boundaries=0 9 18 28 29 30 39 40 41 42 43 44 45 46
cat_threshold=1074266112 16 0 8 64 4203524 3423084546 142606336 263172 34078724 131136 68716544 16 268439616 22020354 16908288 262145 2048 524288 65552 67108866 0 268435520 0 25167872 262144 262240 2 618726332 4202752 0 2147614720 67667974 0 12288 0 0 268435458 262176 2000969764 3195018 590848 21304 786562 785 1416114279
is_linear=0
shrinkage=0.1


Tree=4
num_leaves=31
num_cat=14
split_feature=3 6 5 3 5 3 1 1 7 6 4 5 7 3 1 3 4 3 1 7 3 1 2 3 3 1 0 7 3 7
split_gain=136.364 39.0323 31.6443 28.128 18.5264 17.7425 17.426 17.2167 16.0053 15.3812 15.0866 14.5395 13.8426 13.8095 13.3434 12.0542 10.9237 7.72168 7.38794 7.22781 6.82736 8.34605 6.6534 6.64741 6.55743 6.43815 7.15546 8.85137 8.70809 6.6123
threshold=1404.5000000000002 0 1 945.50000000000011 2 1926.5000000000002 3 4 336.50000000000006 5 6 7 460.50000000000006 193.50000000000003 8 1920.5000000000002 9 1308.5000000000002 10 1031.0000000000002 779.50000000000011 11 5.5000000000000009 1724.5000000000002 1547.5000000000002 12 13 263.00000000000006 1730.5000000000002 526.50000000000011
decision_type=2 9 9 2 9 2 1 1 2 9 9 9 2 2 1 2 9 2 1 2 2 1 2 2 2 1 1 2 2 2
left_child=3 11 7 13 -5 6 10 12 -8 14 -4 15 -3 -1 17 -2 -11 -6 -18 -14 -15 -22 -12 -24 -10 26 27 -13 -29 -30
right_child=1 2 5 4 9 -7 8 -9 24 16 22 25 19 20 -16 -17 18 -19 -20 -21 21 -23 23 -25 -26 -27 -28 28 29 -31
leaf_value=0.090071481582553528 -0.0027129904206367639 -0.01693115725754827 0.053043258748661219 -0.056626692478671352 -0.0049098907531070482 0.10012095120717807 0.013831853721729383 -0.041097945900222935 0.059889192957652826 -0.025328347587269168 -0.042698848055753164 -0.073174988847485273 0.11468118050900916 -0.08489745935752202 -0.071805568171503811 0.12055436790034478 0.0033167577255589012 0.1253921314410113 0.060601390225261488 0.0068998783335294193 -0.0041542872729256834 -0.067941681392174477 0.13494323003196274 -0.045080236933799082 0.11868617914678235 -0.059247740879880544 -0.036871089202873804 0.0073583372670606483 0.27588101996792641 0.085972214522128554
leaf_weight=5.6685613989830008 21.455604702234268 23.89296618103981 35.383960008621216 70.618654236197472 23.088615357875828 104.5458607673645 28.530027985572815 47.820062711834908 27.760182857513428 34.092344880104065 44.666465073823929 4.0209366083145168 22.196122676134113 115.34188337624073 36.19130876660347 12.587037056684492 49.234437301754951 5.6634388566017142 51.884772062301636 8.6452267467975599 41.831908375024796 66.170473247766495 4.6062003523111326 3.6977305561304092 59.889917150139809 51.136662065982819 15.701726168394087 6.1270152777433378 3.2338161170482635 4.233770489692688
leaf_count=28 140 152 217 540 159 551 178 298 168 242 282 27 134 1005 269 68 338 39 335 49 330 522 29 23 348 339 103 41 20 26
internal_value=0 0.0345351 0.0484111 -0.038271 -0.0164536 0.0645213 0.0494794 -0.00156096 0.0726363 0.00052332 0.00970966 -0.0163713 0.0339942 -0.0640669 -0.0362941 0.0331318 0.0194887 0.0154002 0.0355183 0.0844687 -0.0679789 -0.0499107 -0.0230636 0.054779 0.100064 -0.0377207 0.00136983 0.0364645 0.0957159 0.168212
internal_weight=0 530.131 411.635 499.786 270.774 309.08 204.534 102.554 116.18 200.155 88.3544 118.497 54.7343 229.013 64.9434 34.0426 135.212 28.7521 101.119 30.8413 223.344 108.002 52.9704 8.30393 87.6501 84.4539 33.3173 17.6155 13.5946 7.46759
internal_count=7000 3193 2429 3807 1922 1796 1245 633 694 1382 551 764 335 1885 467 208 915 198 673 183 1857 852 334 52 516 556 217 114 87 46
cat_boundaries=0 10 20 29 30 31 40 41 49 50 51 52 53 54 55
cat_threshold=65536 67305536 33702946 262144 4128 335544320 8404992 67108992 11010051 2052 2097156 2147549184 264198 0 8224 1048576 8388608 805306402 344064 2 0 2147483648 2148042752 16 12288 88080648 536870912 272629792 8470528 1110740904 2047956325 0 1073872960 33965057 0 268443680 67108880 0 65664 268960770 3154208 524288 2147483648 524290 16 268435456 256 16777216 2 140074577 11392 1558358286 1361562720 424057356 498
is_linear=0
shrinkage=0.1


Tree=5
num_leaves=31
num_cat=14
split_feature=3 6 3 5 3 1 5 4 1 5 6 6 7 0 0 1 1 3 3 3 2 1 2 7 2 3 3 7 2 2
split_gain=111.621 35.1611 24.944 22.687 18.6764 15.6047 14.7509 13.0738 11.9102 11.4756 11.4043 11.2803 10.8828 11.8284 10.6141 10.5346 9.50558 9.17769 9.03571 8.71373 8.63947 8.1503 7.13597 6.97948 7.83379 6.57234 6.52316 6.16484 6.94877 7.94746
threshold=1404.5000000000002 0 1015.5000000000001 1 1730.5000000000002 2 3 4 5 6 7 8 895.50000000000011 9 10 11 12 905.50000000000011 193.50000000000003 1320.5000000000002 2.5000000000000004 13 4.5000000000000009 307.50000000000006 2.5000000000000004 2128.5000000000005 1140.5000000000002 307.50000000000006 2.5000000000000004 3.5000000000000004
decision_type=2 9 2 9 2 1 9 9 1 9 9 9 2 1 1 1 1 2 2 2 2 1 2 2 2 2 2 2 2 2
left_child=2 6 9 4 8 12 20 27 23 17 21 25 13 19 -8 -13 -9 -1 -11 26 -2 -7 -14 -3 -25 -6 -4 -5 -29 -30
right_child=1 3 5 7 11 10 14 16 -10 18 -12 15 22 -15 -16 -17 -18 -19 -20 -21 -22 -23 -24 24 -26 -27 -28 28 29 -31
leaf_value=-0.029713048029974577 -0.055409328884154098 -0.047812497860160043 0.017184545562138356 -0.021119877936034571 -0.050787585902232424 -0.031958744851371783 0.028451872341739431 0.014364057649432849 -0.036153260932618905 0.058300073845346828 -0.048838090555322899 -0.0050613226128823959 0.045263553292072961 -0.039356478917561312 0.11088915168030805 0.091271490459737661 -0.044620062032836687 0.077470407587683046 -0.071970258408343812 -0.069823081754591204 0.03998140060050176 0.048408018039178477 0.16656959455459242 0.0090500171940438769 0.11586695905972084 0.094085910819625751 0.10966581635890625 0.010536196967596511 0.22344274013231838 0.064053255346718449
leaf_weight=27.941520005464554 14.823781765997408 6.4653418511152259 14.989963136613371 12.792696408927439 16.222376316785816 13.984811089932917 50.273643627762794 35.674118183553219 39.271704375743866 5.4654486477375022 104.2765501588583 20.771516144275665 22.065692789852623 32.642160661518574 81.242596425116062 74.570763424038887 99.397268734872341 11.187270946800707 206.32052391022444 5.7640452161431304 26.410068474709988 20.693319462239742 6.215354472398757 12.532014444470407 15.185187563300131 3.8804810196161261 15.527263723313807 14.004365846514704 4.2903783470392218 11.549714535474775
leaf_count=244 87 41 102 87 93 105 262 234 255 26 773 116 151 228 420 409 667 85 1758 40 144 146 42 77 91 20 107 90 27 73
internal_value=0 0.0302296 -0.0358095 0.0112514 0.0346244 -0.0124832 0.0660314 -0.0141146 -0.00296212 -0.057764 -0.0326393 0.0615388 0.0178515 -0.00174546 0.0836138 0.071796 -0.0291253 0.000742023 -0.065515 0.0336625 0.00457775 0.0160991 0.0719231 0.035393 0.0675709 -0.015241 0.0642393 0.0299375 0.0618541 0.107225
internal_weight=0 539.358 487.074 366.608 188.899 236.159 172.75 177.709 73.4542 250.915 138.955 115.445 97.2045 68.9234 131.516 95.3423 135.071 39.1288 211.786 36.2813 41.2339 34.6781 28.281 34.1825 27.7172 20.1029 30.5172 42.6372 29.8445 15.8401
internal_count=7000 3193 3807 2280 1102 1694 913 1178 464 2113 1024 638 670 477 682 525 901 329 1784 249 231 251 193 209 168 113 209 277 190 100
cat_boundaries=0 9 18 19 28 29 30 40 49 59 60 61 62 63 64
cat_threshold=1074266112 16 0 67108872 64 4203524 3423076354 142606340 268698628 524292 131136 68192256 16 268439616 22020352 16914432 262147 2048 554260089 0 2147614720 67405830 0 8192 0 2048 268435490 262144 1081864 336185145 2097156 64 67371010 0 268701696 2164260864 1053184 0 0 64 524288 0 0 0 8192 285212676 67117058 8388608 2048 0 131072 33685504 0 0 67108864 0 128 2048 68 1563 2226 539000861 545605650 1120010370
is_linear=0
shrinkage=0.1


Tree=6
num_leaves=31
num_cat=16
split_feature=3 6 5 5 4 3 1 0 1 3 1 1 5 1 2 4 7 0 3 0 3 7 7 4 7 3 1 7 3 3
split_gain=92.7523 30.6291 25.8809 23.5861 20.9501 16.5199 13.0085 12.5847 12.5704 11.4325 12.7057 10.5703 9.45469 9.35681 9.18862 8.9613 8.64888 8.12444 10.3686 7.76754 8.71382 7.45785 11.4499 7.43345 10.1421 7.11234 6.77213 7.44278 7.79623 6.46357
threshold=1379.5000000000002 0 1 2 3 819.50000000000011 4 5 6 1029.5000000000002 7 8 9 10 2.5000000000000004 11 1006.0000000000001 12 1920.5000000000002 13 1821.5000000000002 364.50000000000006 516.50000000000011 14 919.50000000000011 1742.5000000000002 15 412.50000000000006 1231.5000000000002 193.50000000000003
decision_type=2 9 9 9 9 2 1 1 1 2 1 1 9 1 2 9 2 1 2 1 2 2 2 9 2 2 1 2 2 2
left_child=3 12 8 5 7 -1 -6 -4 15 29 23 16 25 17 -13 -3 -9 18 -14 -10 21 -21 -23 24 -11 -2 27 -7 -29 -5
right_child=1 2 4 9 6 26 -8 11 19 10 -12 14 13 -15 -16 -17 -18 -19 -20 20 -22 22 -24 -25 -26 -27 -28 28 -30 -31
leaf_value=-0.054027635228119347 -0.023867335392963231 -0.022694500940589068 0.085077016790158833 0.05429075473004738 0.026975669735590659 -0.057862566637064662 -0.041423228002733778 0.086731794910495735 0.015749962825850533 0.012128798529236592 -0.048348249132502533 -0.071287823017359142 0.010307134881327286 -0.057129072195209421 0.017269541784120029 0.045108112244563181 -0.045312539398587627 -0.025460246189341645 0.16224629420208908 0.010790177449151717 0.15392661568140639 0.27173165460940607 0.091446302610764543 -0.022175739626336538 0.13413354051312384 0.11116094120152607 0.052901983388000673 -0.0048880134215607074 0.10957952204229604 -0.066910408560218598
leaf_weight=32.730874761939049 6.1422650441527393 22.679223671555519 37.889562696218491 4.5077191442251197 35.969190426170826 16.095948986709118 69.890213958919048 28.929111465811729 28.318406015634537 22.964861482381821 96.193664439022541 19.921791076660156 12.581379324197771 51.336080864071846 28.447222404181957 63.919716320931911 5.9870350509881964 32.952414512634277 6.9848639369010916 9.3000216484069806 41.791663900017738 3.9567802101373664 32.113113686442375 33.752259396016598 9.6879558488726598 10.689968049526213 40.774682655930519 21.719560749828819 8.1950682103633863 184.24271909892559
leaf_count=303 43 126 218 21 217 119 427 169 155 157 735 126 82 338 170 345 36 218 36 55 205 22 173 245 64 61 279 161 56 1638
internal_value=0 0.0268501 0.0388401 -0.0336218 0.0139808 0.00600854 -0.0178601 0.0410382 0.0647931 -0.0459653 -0.0278385 0.0140309 -0.0175457 -0.0292891 -0.0159144 0.0268403 0.0498214 0.00270907 0.0427158 0.088847 0.108531 0.0906362 0.111223 0.00795467 0.0369968 0.038823 0.0293434 -0.00249072 0.0264702 -0.0640159
internal_weight=0 549.8 429.113 470.865 227.034 119.516 105.859 121.175 202.079 351.349 162.599 83.2852 120.687 103.855 48.369 86.5989 34.9161 52.5187 19.5662 115.48 87.1616 45.3699 36.0699 66.4051 32.6528 16.8322 86.7853 46.0106 29.9146 188.75
internal_count=7000 3222 2444 3778 1363 918 644 719 1081 2860 1201 501 778 674 296 471 205 336 118 610 455 250 195 466 221 104 615 336 217 1659
cat_boundaries=0 10 19 29 30 31 32 33 34 35 41 42 43 44 45 46 47
cat_threshold=65536 67305536 33702946 262144 282656 268435456 8404993 67108992 11075587 4 34144256 131136 1605632 16 268697664 2235564290 16783360 1 10240 1073741824 622592 100925442 0 268435520 2147483648 59773441 2097408 10352 2114 3195178 1210536198 801 1076338572 605901912 637875688 0 2147483648 2 16 268435456 264 1565919758 2097282 1298 2192 5775634 773206510
is_linear=0
shrinkage=0.1


Tree=7
num_leaves=31
num_cat=14
split_feature=3 6 5 3 5 1 4 4 1 3 0 5 3 1 1 1 3 1 3 3 2 7 0 2 3 3 3 3 3 2
split_gain=76.1936 28.8133 25.0942 21.4775 20.488 14.7297 20.3456 14.4097 19.7592 13.9582 13.8682 12.3797 12.2809 11.8115 11.7667 10.9844 10.3367 9.48051 8.62565 8.56964 8.5683 8.18541 7.33997 7.28159 6.08729 5.7937 5.54181 5.86126 8.8945 5.41159
threshold=1404.5000000000002 0 1 806.50000000000011 2 3 4 5 6 843.50000000000011 7 8 940.50000000000011 9 10 11 193.50000000000003 12 1656.5000000000002 1901.5000000000002 1.5000000000000002 256.50000000000006 13 2.5000000000000004 1930.5000000000002 822.50000000000011 929.50000000000011 1110.5000000000002 1015.5000000000001 2.5000000000000004
decision_type=2 9 9 2 9 1 9 9 1 2 1 9 2 1 1 1 2 1 2 2 2 2 1 2 2 2 2 2 2 2
left_child=2 15 -1 16 10 11 22 8 -6 -8 14 26 -11 18 29 24 -4 21 -9 23 -21 -12 -7 -10 -2 -24 -5 28 -28 -3
right_child=1 4 3 5 7 6 9 13 19 12 17 -13 -14 -15 -16 -17 -18 -19 -20 20 -22 -23 25 -25 -26 -27 27 -29 -30 -31
leaf_value=-0.062539414975851124 0.0041261974838374882 0.016709833641675175 0.12204043943478673 -0.046985136302214923 -0.029968357411961993 0.020278612943065741 0.25674765609239553 -0.042920593959087094 -0.031393567172682914 -0.065694614358747322 0.0067445056534901964 -0.042097862867730151 0.089038950830326868 -0.047772070887825077 -0.036146251223436204 0.084932910641581552 -0.067616615019524998 0.01559747509778147 0.044120965484338311 0.031586847419187838 0.18284349064823618 0.11233264645860748 0.11292369037617991 0.083724553055491369 0.068909769584568875 -0.054579257350000965 0.049077799172807419 0.021248134197304026 0.26196417374968867 0.12798283845012501
leaf_weight=154.45528806746006 48.593484058976173 8.7650075256824511 2.9943049103021613 5.8544628620147732 33.832517847418785 37.304056160151958 4.2973457872867575 17.58666467666626 8.7605249807238597 5.9458396956324568 8.624687656760214 83.913355343043804 37.353258036077023 99.551725655794144 39.363096669316292 85.757559970021248 71.348811350762844 57.617216348648071 32.286668591201305 5.539126098155978 11.563326224684713 49.363697044551373 2.1898225471377364 14.738980636000631 20.675416082143784 36.214042991399765 5.2978428006172198 13.265727005898951 3.117411695420742 8.7176805809140188
leaf_count=1335 266 50 14 51 212 266 37 121 60 50 49 654 242 674 227 422 725 328 195 32 62 260 19 92 96 263 38 92 21 47
internal_value=0 0.0240595 -0.0309466 -0.0127247 0.00863055 0.00169766 0.02452 -0.0112426 0.022913 0.0701192 0.0336301 -0.0236321 0.0677909 -0.0286268 -0.00781075 0.0591312 -0.0599778 0.053007 0.0111851 0.0641918 0.133855 0.0824159 -0.00898391 0.040809 0.0205029 -0.0357255 0.0288649 0.0626599 0.127941 0.0459262
internal_weight=0 551.337 463.552 309.096 396.311 234.753 123.304 223.86 74.4345 47.5964 172.451 111.449 43.2991 149.425 56.8458 155.026 74.3431 115.606 49.8733 40.602 17.1025 57.9884 75.7079 23.4995 69.2689 38.4039 27.5354 21.681 8.41525 17.4827
internal_count=7000 3193 3807 2472 2409 1733 877 1448 458 329 961 856 292 990 324 784 739 637 316 246 94 309 548 152 362 282 202 151 59 97
cat_boundaries=0 9 18 27 28 29 30 31 32 41 42 43 44 45 46
cat_threshold=1074266112 1073741840 0 67108872 64 4203520 1309147138 142606336 263172 33562628 2147614720 2148009984 67108880 134488096 88080648 538968064 272637986 8470528 524292 131136 68190208 16 268697664 22020352 16777216 270337 2112 1523855758 1338498 5247784 823249802 2256 0 0 262144 0 268435456 1048576 16779264 0 264224 843335938 1426946 1277658552 1565679802 3101
is_linear=0
shrinkage=0.1


Tree=8
num_leaves=31
num_cat=16
split_feature=3 6 3 1 5 1 1 5 6 5 1 0 3 3 4 4 6 7 3 7 5 0 3 2 7 7 7 7 3 4
split_gain=65.7302 43.659 23.8982 20.3343 16.9036 14.8444 12.0324 11.9144 10.7429 10.669 9.99717 8.52326 8.36928 8.04167 7.86627 7.58241 7.41622 7.07441 6.5834 6.7757 6.534 10.2582 6.05209 7.38945 5.9998 8.56026 5.66615 6.06424 5.56715 5.09275
threshold=1029.5000000000002 0 1730.5000000000002 1 2 3 4 5 6 7 8 9 1304.5000000000002 2211.0000000000005 10 11 12 301.50000000000006 835.50000000000011 986.50000000000011 13 14 1950.5000000000002 4.5000000000000009 798.00000000000011 1592.0000000000002 855.00000000000011 1010.0000000000001 193.50000000000003 15
decision_type=2 9 2 1 9 1 1 9 9 9 1 1 2 2 9 9 9 2 2 2 9 1 2 2 2 2 2 2 2 9
left_child=8 4 5 14 6 7 12 -3 29 18 11 -6 -2 -12 24 17 26 -5 -10 -20 21 -7 -13 -24 -4 -26 -9 -28 -11 -1
right_child=1 2 3 15 10 20 -8 16 9 28 13 22 -14 -15 -16 -17 -18 -19 19 -21 -22 -23 23 -25 25 -27 27 -29 -30 -31
leaf_value=-0.024130770042348374 -0.082471876159072907 0.046062977650559472 0.062761150539067029 -0.046704533805665319 -0.0249469167645225 0.044185388567580669 -0.031451082039733312 0.005300484247693033 -0.030760254008086692 0.041250563438668619 0.07479112556177557 0.029921506971063268 0.11117601315816608 0.2028299553636681 0.0060654480079386482 -0.032630329756997305 -0.032055375319955996 0.048246974264015551 0.029952752443891624 0.21028181245258845 -0.055080800714083972 -0.039770445946208537 0.15318336389755613 -0.0058466724726611435 0.17488940620552237 0.034750136135359266 0.22086867466288954 0.027627471740614386 -0.068080897817210481 0.047208832208818489
leaf_weight=11.482866436243055 2.6514304950833347 34.333164393901825 40.85605201870203 10.596802368760107 22.847450435161591 16.953043773770332 45.34619515389204 11.741623222827913 13.04970705509186 4.7794032394886008 133.80026630312204 53.085638180375099 14.103147074580191 5.0919455736875525 38.810268923640251 60.805295258760452 66.249645411968231 30.235060274600983 8.6928740665316564 2.7405342534184447 123.23559032380581 21.662832900881767 9.522822752594946 4.2151214331388465 13.508527509868147 6.4352793693542472 3.1635684818029395 3.3369202613830566 182.43915227800608 13.546239309012892
leaf_count=108 20 216 226 61 136 113 275 82 127 22 736 314 77 24 234 369 461 164 67 22 919 149 44 20 70 36 20 23 1746 119
internal_value=0 0.0129374 -0.00580615 0.0203719 0.0427437 -0.0247829 -0.00542899 0.00350139 -0.0472901 -0.0531715 0.0555112 0.0221032 0.0504311 0.0741467 0.0496884 -0.012062 -0.016838 0.0189612 0.0126221 0.0731768 -0.0431014 -0.00140518 0.0393433 0.104389 0.0727445 0.129671 0.0302088 0.121671 -0.0619793 0.0169343
internal_weight=0 772.588 481.924 201.247 290.664 280.676 62.1008 118.825 236.731 211.702 228.563 89.671 16.7546 138.892 99.6101 101.637 84.4918 40.8319 24.4831 11.4334 161.851 38.6159 66.8236 13.7379 60.7999 19.9438 18.2421 6.50049 187.219 25.0291
internal_count=7000 4789 3143 1160 1646 1983 372 802 2211 1984 1274 514 97 760 566 594 586 225 216 89 1181 262 378 64 332 106 125 43 1768 227
cat_boundaries=0 10 11 20 21 22 31 40 48 49 50 51 52 60 69 70 71
cat_threshold=1076363264 557072 1073741824 67108872 4160 4203524 1309147142 142606340 265732 65600 190770210 0 2147549248 264196 0 8192 67108864 536870912 268435490 329728 1141723677 34620196 524288 0 1048576 16 0 1048578 131072 3 16480 0 32768 0 0 262144 335552512 524288 536871044 8389633 2097156 0 67371008 0 268435456 2164260866 4096 536870912 1289783088 2082 1860874 5251488 0 0 263168 0 268435456 0 8192 8 4 131136 262146 0 268435456 1048576 16777216 2 264256 3720 1073162
is_linear=0
shrinkage=0.1


Tree=9
num_leaves=31
num_cat=15
split_feature=3 6 5 5 6 1 1 1 4 6 5 1 7 3 7 3 0 1 3 3 7 2 0 3 3 2 7 3 1 3
split_gain=54.6198 34.5911 24.5295 16.5073 13.1333 13.463 13.032 12.3028 12.1646 11.6862 14.1156 11.5618 10.0878 9.76147 12.1543 8.58743 8.22851 7.88915 6.48926 5.97741 5.80817 9.01893 5.6824 7.77282 5.67662 6.04342 5.30369 4.87823 4.86288 5.45187
threshold=1055.5000000000002 0 1 2 3 4 5 6 7 8 9 10 239.50000000000003 1917.5000000000002 331.50000000000006 2045.5000000000002 11 12 1737.5000000000002 2142.5000000000005 446.50000000000006 2.5000000000000004 13 850.50000000000011 2204.5000000000005 3.5000000000000004 595.50000000000011 193.50000000000003 14 1656.5000000000002
decision_type=2 9 9 9 9 1 1 1 9 9 9 1 2 2 2 2 1 1 2 2 2 2 1 2 2 2 2 2 1 2
left_child=9 3 4 11 28 13 8 19 16 27 17 -2 -7 -6 -15 -14 20 -11 -18 -5 -4 -22 -19 -24 25 -8 -17 -1 -3 -30
right_child=1 2 6 7 5 12 24 -9 -10 10 -12 -13 15 14 -16 26 18 22 -20 -21 21 -23 23 -25 -26 -27 -28 -29 29 -31
leaf_value=0.059487426204110662 0.048119096738933984 0.019815113678697965 -0.06152500043692069 0.0046723777188071892 -0.034202172618106257 -0.017320506386675618 -0.070965419490522097 0.072206911345458577 -0.031151016335449002 -0.018817847498396906 -0.041025125868597495 -0.02936380072740026 0.062522445910665955 -0.064140039501307908 0.11618018436355876 0.24508286310689198 0.031658208467702252 -0.013155791909743052 0.11739181335545884 0.13497590638413753 -0.045364770213750474 0.079868467767925111 0.056740392715253496 0.18974992338870561 0.027301023815731285 -0.026604334299756973 0.09280401186580689 -0.07248445795251135 -0.088894132794803113 -0.010474355474819251
leaf_weight=2.8722098916769019 18.809003569185734 15.613042794167994 14.139915347099302 58.227621771395206 39.808279491961002 14.366067849099634 77.17686703056097 139.02199763059616 59.635254718363285 24.180354662239552 83.434284374117851 48.67541541904211 81.108465619385242 5.5856454670429256 11.300435841083525 4.3260372877120954 19.189198091626167 11.796050153672693 16.351828575134277 3.7470146715641013 11.036525376141073 12.006864853203295 8.0920858904719406 9.6126037091016752 9.373798340559004 51.005971468985081 4.8528896272182465 112.83420535176992 18.228659652173519 17.259097062051296
leaf_count=13 103 99 96 335 266 89 538 758 422 215 810 285 477 30 53 21 130 103 88 17 72 75 77 69 48 353 23 1106 130 99
internal_value=0 0.0122557 -0.00406093 0.0402238 0.0208241 0.0345845 -0.0236919 0.0546845 -0.000377919 -0.0414831 -0.0168572 -0.004345 0.0552349 -0.00610106 0.0565331 0.0728973 0.0255718 0.0212495 0.0554899 0.0108068 -0.00872465 0.0198886 0.0505407 0.0824098 -0.0445792 -0.0533134 0.164573 -0.0637029 -0.0211728 -0.0395974
internal_weight=0 750.846 482.365 268.481 212.449 161.348 269.916 200.997 132.36 252.822 137.115 67.4844 104.653 56.6944 16.8861 90.2874 72.7243 53.6811 35.541 61.9746 37.1833 23.0434 29.5007 17.7047 137.557 128.183 9.17893 115.706 51.1008 35.4878
internal_count=7000 4607 3109 1498 1287 959 1822 1110 883 2393 1274 388 610 349 83 521 461 464 218 352 243 147 249 146 939 891 44 1119 328 229
cat_boundaries=0 10 19 28 37 38 39 40 41 51 60 61 62 63 64 65
cat_threshold=1074266112 557072 1073741824 8 12352 20980736 3456630790 142606336 263684 65600 33619972 131136 1310720 16 268439616 89129216 16912385 4464643 272480 0 2147614784 68421632 0 12288 67108864 0 268435488 264224 33554436 131136 131106 0 262144 335544320 0 128 8978434 1757583500 751457831 1214416003 1591082 524288 64 33965056 8 268447776 16778244 2214592514 8388608 589828 64 524288 64 262146 4096 268439552 16777480 16779264 536870913 96 268984582 2268 487485971 2498 564370
is_linear=0
shrinkage=0.1


end of trees

feature_importances:
Column_3=98
Column_1=51
Column_7=49
Column_5=29
Column_4=20
Column_2=19
Column_6=18
Column_0=16

parameters:
[boosting: gbdt]
[objective: binary]
[metric: binary_logloss]
[tree_learner: serial]
[device_type: cpu]
[data: ../data/categorical.data]
[valid: ]
[num_iterations: 10]
[learning_rate: 0.1]
[num_leaves: 31]
[num_threads: 0]
[deterministic: 0]
[force_col_wise: 0]
[force_row_wise: 0]
[histogram_pool_size: -1]
[max_depth: -1]
[min_data_in_leaf: 20]
[min_sum_hessian_in_leaf: 0.001]
[bagging_fraction: 1]
[pos_bagging_fraction: 1]
[neg_bagging_fraction: 1]
[mvs_lambda: 0.0001]
[mvs_adaptive: 0]
[mvs_max_sequential_size: 256000]
[bagging_freq: 0]
[bagging_seed: 3]
[feature_fraction: 1]
[feature_fraction_bynode: 1]
[feature_fraction_seed: 2]
[extra_trees: 0]
[extra_seed: 6]
[early_stopping_round: 0]
[first_metric_only: 0]
[max_delta_step: 0]
[lambda_l1: 0]
[lambda_l2: 0]
[linear_lambda: 0]
[min_gain_to_split: 0]
[drop_rate: 0.1]
[max_drop: 50]
[skip_drop: 0.5]
[xgboost_dart_mode: 0]
[uniform_drop: 0]
[drop_seed: 4]
[top_rate: 0.2]
[other_rate: 0.1]
[min_data_per_group: 100]
[max_cat_threshold: 32]
[cat_l2: 10]
[cat_smooth: 10]
[max_cat_to_onehot: 4]
[top_k: 20]
[monotone_constraints: ]
[monotone_constraints_method: basic]
[monotone_penalty: 0]
[feature_contri: ]
[forcedsplits_filename: ]
[refit_decay_rate: 0.9]
[cegb_tradeoff: 1]
[cegb_penalty_split: 0]
[cegb_penalty_feature_lazy: ]
[cegb_penalty_feature_coupled: ]
[path_smooth: 0]
[interaction_constraints: ]
[verbosity: 1]
[saved_feature_importance_type: 0]
[linear_tree: 0]
[max_bin: 255]
[max_bin_by_feature: ]
[min_data_in_bin: 3]
[bin_construct_sample_cnt: 200000]
[data_random_seed: 1]
[is_enable_sparse: 1]
[enable_bundle: 1]
[use_missing: 1]
[zero_as_missing: 0]
[feature_pre_filter: 1]
[pre_partition: 0]
[two_round: 0]
[header: 0]
[label_column: ]
[weight_column: ]
[group_column: ]
[ignore_column: ]
[categorical_feature: 0,1,4,5,6]
[forcedbins_filename: ]
[precise_float_parser: 0]
[parser_config_file: ]
[objective_seed: 5]
[num_class: 1]
[is_unbalance: 0]
[scale_pos_weight: 1]
[sigmoid: 1]
[boost_from_average: 1]
[reg_sqrt: 0]
[alpha: 0.9]
[fair_c: 1]
[poisson_max_delta_step: 0.7]
[tweedie_variance_power: 1.5]
[lambdarank_truncation_level: 30]
[lambdarank_norm: 1]
[label_gain: ]
[eval_at: ]
[multi_error_top_k: 1]
[auc_mu_weights: ]
[num_machines: 1]
[local_listen_port: 12400]
[time_out: 120]
[machine_list_filename: ]
[machines: ]
[gpu_platform_id: -1]
[gpu_device_id: -1]
[gpu_use_dp: 0]
[num_gpu: 1]

end of parameters
