tree
version=v3
num_class=1
num_tree_per_iteration=1
label_index=0
max_feature_idx=74
objective=binary sigmoid:1
feature_names=Column_0 Column_1 Column_2 Column_3 Column_4 Column_5 Column_6 Column_7 Column_8 Column_9 Column_10 Column_11 Column_12 Column_13 Column_14 Column_15 Column_16 Column_17 Column_18 Column_19 Column_20 Column_21 Column_22 Column_23 Column_24 Column_25 Column_26 Column_27 Column_28 Column_29 Column_0_label_mean_ctr_0.621094 Column_1_label_mean_ctr_0.621094 Column_2_label_mean_ctr_0.621094 Column_3_label_mean_ctr_0.621094 Column_4_label_mean_ctr_0.621094 Column_5_label_mean_ctr_0.621094 Column_6_label_mean_ctr_0.621094 Column_7_label_mean_ctr_0.621094 Column_8_label_mean_ctr_0.621094 Column_9_label_mean_ctr_0.621094 Column_10_label_mean_ctr_0.621094 Column_11_label_mean_ctr_0.621094 Column_12_label_mean_ctr_0.621094 Column_13_label_mean_ctr_0.621094 Column_14_label_mean_ctr_0.621094 Column_0_count Column_1_count Column_2_count Column_3_count Column_4_count Column_5_count Column_6_count Column_7_count Column_8_count Column_9_count Column_10_count Column_11_count Column_12_count Column_13_count Column_14_count Column_0_ctr_0.5 Column_1_ctr_0.5 Column_2_ctr_0.5 Column_3_ctr_0.5 Column_4_ctr_0.5 Column_5_ctr_0.5 Column_6_ctr_0.5 Column_7_ctr_0.5 Column_8_ctr_0.5 Column_9_ctr_0.5 Column_10_ctr_0.5 Column_11_ctr_0.5 Column_12_ctr_0.5 Column_13_ctr_0.5 Column_14_ctr_0.5
feature_infos=-1:12:13:11:14:10:15:9:17:19:16:20:18:8:21:23:7 -1:18:21:17:19:16:20:15:14:22:23:13:24:12:25:26:27:28:10:11:29 -1:78:82:87:88:73:94:70:75:76:77:81:84:85:71:102:79:96:61:68:74:97:59:83:86:92:80:90:95:103:60:64:65:66:89:91:93:109:129:134:54:72:98:100:107:108:111:114:117:120:122:123:127:128:130:132:58:62:63:67:69:104:106:110:113:115:118:121:137 -1:432:321:466:477:512:514:289:386:420:464:476:506:507:520:538:546:561:571:575:656:668:928 none none none none none none -1:0:1 -1:1:0:2:3 -1:1:2:3:4:5:7:0:6:8:9 -1:19:20:18:17:16:23:12:14:21:11:15:22:24:13:28:27:9:25:26:29:31:30:33:32:34:45:8:10:39:43:44:49:67:35:36:40:41:48:54:52:53:58:68:81:87:93 none [0.0030119999999999999:0.13539999999999999] [0:0.30380000000000001] [0:0.040899999999999999] [0.0078820000000000001:0.078950000000000006] [0.00089479999999999996:0.022859999999999998] [7.9299999999999997:36.039999999999999] [12.02:49.539999999999999] [50.409999999999997:251.19999999999999] [185.19999999999999:4254] [0.071169999999999997:0.22259999999999999] [0.027289999999999998:1.0580000000000001] [0:1.252] [0:0.2903] [0.1565:0.66379999999999995] [0.055039999999999999:0.20749999999999999] [0.032689144736842105:0.98596643518518523] [0.062109375000000001:0.98005756578947367] [0.103515625:0.97085336538461542] [0.20703125:0.9052734375] [0.60367207687338498:0.64298715641361259] [0.60367207687338498:0.64298715641361259] [0.60367207687338498:0.64298715641361259] [0.60367207687338498:0.64298715641361259] [0.60367207687338498:0.64298715641361259] [0.60367207687338498:0.64298715641361259] [0.041406249999999999:0.66563982046070458] [0.310546875:0.71004971590909094] [0.056463068181818184:0.96210937500000004] [0.103515625:0.98195684523809523] [0.60367207687338498:0.64298715641361259] [1:81] [1:55] [1:18] [1:5] none none none none none none [2:493] [1:277] [1:192] [1:26] none [0.026315789473684209:0.98148148148148151] [0.050000000000000003:0.97368421052631582] [0.083333333333333329:0.96153846153846156] [0.16666666666666666:0.875] [0.60335917312661502:0.64267015706806285] [0.60335917312661502:0.64267015706806285] [0.60335917312661502:0.64267015706806285] [0.60335917312661502:0.64267015706806285] [0.60335917312661502:0.64267015706806285] [0.60335917312661502:0.64267015706806285] [0.033333333333333333:0.66531165311653118] [0.25:0.70454545454545459] [0.045454545454545456:0.94999999999999996] [0.083333333333333329:0.97619047619047616] [0.60335917312661502:0.64267015706806285]
category_encoding_provider=1 30 75 0 23:0:5 6:1:1 18:0:18 9:28:28 27:0:2 10:34:35 11:66:71 28:0:1 24:0:2 7:3:3 21:0:7 14:35:54 16:4:21 15:4:29 20:0:19 13:56:73 12:75:81 19:0:23 8:11:11 25:0:2 22:0:1 17:1:25@1 24:7:18 39:0:1 22:8:27 20:17:40 18:38:55 10:5:6 27:5:9 16:35:40 33:1:2 12:14:14 29:3:4 28:6:9 11:3:4 13:22:22 30:1:2 19:23:42 23:5:27 25:6:14 9:1:1 26:1:10 32:0:1 15:33:39 17:34:45 21:18:46 14:32:34@2 165:0:1 91:2:5 107:0:4 186:0:1 129:0:5 65:5:5 144:0:1 70:12:12 105:0:2 119:0:2 121:0:3 43:1:1 122:0:4 102:2:10 116:0:2 112:0:2 77:10:12 114:1:4 131:0:2 94:8:13 120:0:4 83:6:7 98:1:4 61:8:8 63:3:3 142:0:2 66:5:5 72:4:4 109:0:5 188:0:1 87:13:17 166:0:1 86:7:7 80:6:6 55:2:2 134:0:5 92:5:7 171:0:1 53:1:1 132:0:4 155:0:1 76:12:12 67:3:3 104:2:3 158:0:1 79:9:9 97:4:8 73:15:16 152:0:2 110:0:3 78:17:18 115:0:3 54:4:4 133:0:2 96:5:9 74:8:8 153:0:1 95:4:6 174:0:1 58:3:3 137:0:3 100:0:4 103:0:6 182:0:1 108:1:4 71:9:10 113:0:3 123:0:4 59:7:7 138:0:2 147:0:2 68:8:8 117:0:4 75:11:12 81:10:12 64:5:5 143:0:2 128:0:4 60:5:5 111:0:4 69:3:3 106:1:3 126:0:2 47:2:2 89:5:5 90:2:6 88:15:17 84:12:12 99:1:1 124:0:2 82:16:18 85:9:12 48:1:1 127:0:4 101:0:2 118:0:3 141:0:1 62:3:3 93:1:5 56:2:2 135:0:2 130:0:4 51:1:1 125:0:1@3 514:4:4 1223:0:1 555:1:1 1264:0:2 388:2:2 451:1:1 788:1:1 590:1:1 1299:0:1 899:0:1 562:1:1 337:1:1 1685:0:1 674:2:2 320:1:1 657:1:1 317:1:1 991:0:1 928:0:3 597:0:1 1306:0:1 260:1:1 658:1:2 321:4:4 221:2:2 930:0:1 895:0:1 558:1:1 561:3:3 224:1:1 933:0:1 596:1:1 728:0:1 391:1:1 568:1:1 571:3:3 234:1:1 1033:0:1 324:1:1 1335:0:1 998:0:1 289:3:3 1001:0:1 664:1:2 984:0:1 310:1:1 372:2:2 2499:0:1 477:2:4 427:1:1 761:1:2 551:2:2 1260:0:1 1761:0:1 713:0:1 1214:0:1 491:1:1 992:1:1 334:2:2 671:0:1 618:1:1 955:0:1 246:1:1 920:0:1 360:1:1 603:1:1 269:1:1 606:1:1 403:2:2 1077:0:1 686:1:1 349:1:1 559:1:2 392:1:1 381:2:2 632:1:1 295:1:1 793:0:1 1092:0:1 418:1:1 257:1:1 758:0:2 1130:0:1 421:1:1 815:0:1 1152:0:1 648:0:1 311:2:2 645:0:1 1319:0:1 610:0:1 982:0:1 273:1:1 947:0:1 373:2:2 710:0:1 1384:0:1 307:1:1 644:0:1 981:0:1 272:1:1 609:1:2 401:1:1 1110:0:1 442:2:2 402:2:2 1076:0:2 408:2:2 241:1:1 578:0:2 575:3:3 203:1:1 912:0:1 244:2:2 918:0:1 417:1:1 584:0:1 250:1:1 587:1:1 819:1:1 1261:0:1 552:1:1 719:0:1 886:0:1 640:2:2 807:0:1 470:1:1 333:1:1 1007:0:1 201:1:1 143:1:1 817:0:1 480:2:2 406:2:2 573:1:1 538:3:3 1247:0:1 248:1:1 585:2:2 582:1:2 245:1:1 415:1:1 731:0:1 394:1:1 503:0:1 840:0:1 336:1:1 1347:0:1 673:1:1 412:2:2 416:1:1 398:1:1 732:0:1 1104:0:1 395:1:1 516:2:2 629:1:2 623:1:1 507:3:3 170:1:1 595:0:1 428:2:2 1102:0:1 365:1:1 358:1:1 1234:0:1 525:1:1 1297:0:1 588:1:2 440:0:1 1230:0:1 344:1:1 678:0:1 441:2:2 858:0:1 357:1:1 682:0:1 515:1:1 178:1:1 422:1:1 659:1:1 1670:0:1 994:0:1 285:1:1 577:0:1 744:0:2 536:1:1 1245:0:1 693:1:1 1068:0:1 359:1:1 485:1:1 1194:0:1 520:3:3 857:0:1 347:1:1 684:1:2 1088:0:1 420:3:3 1094:0:1 593:1:1 426:2:2 537:2:2 1682:0:1 264:1:1 431:1:2 355:1:1 689:1:1 572:1:2 534:0:1 701:0:1 457:1:1 290:2:2 685:1:2 268:1:1 1686:0:1 338:1:1 512:4:4 501:1:1 668:2:3 1138:0:2 464:3:3 340:1:1 592:1:1 2010:0:1 662:1:1 748:0:1 513:1:1 346:1:1 680:1:1 293:1:1 580:1:1 747:1:1 2250:0:1 832:0:1 495:1:1 279:1:1 616:1:1 1290:0:1 437:1:1 1191:0:1 1024:0:1 523:1:1 641:1:1 600:1:1 1274:0:1 529:1:1 1203:0:1 370:1:1 704:0:1 1041:0:1 566:2:2 399:2:2 736:0:1 1404:0:1 2501:0:1 519:1:2 449:2:2 1123:0:1 288:2:2 455:2:2 493:2:2 1006:0:1 380:1:1 371:1:2 705:0:1 1206:0:1 869:0:1 1308:0:1 599:1:2 446:2:2 1155:0:1 481:2:2 447:1:1 781:0:1 948:0:1 280:1:1 1250:0:1 541:1:1 557:1:1 651:2:2 530:1:2 1169:0:1 1878:0:1 542:1:1 363:1:1 579:1:1 1288:0:1 951:0:1 1162:0:1 453:1:1 469:1:1 716:0:2 880:1:1 1217:0:1 508:2:2 809:0:1 475:0:1 396:2:2 546:3:3 467:1:1 230:1:1 904:0:2 602:1:2 1311:0:1 476:3:3 813:0:1 271:2:2 980:0:1 181:1:1 389:1:1 509:1:1 496:2:2 404:1:1 471:1:1 773:0:1 1482:0:1 1145:0:1 1148:0:1 465:1:1 1174:0:1 506:2:3 690:1:1 1364:0:1 1027:0:1 227:1:1 504:1:1 390:1:1 463:1:1 800:1:1 797:0:1 1407:0:1 698:0:1 361:1:2 531:0:1 1479:0:1 805:0:1 468:1:1 386:2:3 553:1:1 502:1:1 527:1:1 1491:0:1 782:0:2 445:2:2 448:1:1 1167:0:1 458:2:2 1841:0:1 1132:0:1 438:1:1 384:2:2 1386:0:1 712:0:1 766:0:1 432:4:5 499:0:1 666:1:1 1747:0:1 329:1:1 656:2:3 489:2:2 826:0:1 492:1:1 433:1:1 633:1:2 466:4:4 803:0:1 545:0:1 378:2:2 302:1:1 1040:0:1 1075:0:2 366:2:2 646:1:1 611:1:1 1320:0:1 278:1:1 798:0:1 461:1:1 294:1:1 642:0:2 462:2:2 963:0:1 409:2:2@4 0:318:512@5 0:318:512@6 0:318:512@7 0:318:512@8 0:318:512@9 0:318:512@10 1:0:17 2:0:2 0:318:493@11 3:1:3 4:1:1 0:128:197 1:165:277 2:23:34@12 8:0:7 9:0:3 2:101:152 21:0:1 4:5:39 11:0:1 6:0:7 7:0:12 18:0:1 1:175:192 5:2:21 10:0:1 3:25:65 0:10:10@13 54:0:4 34:4:6 111:0:2 32:3:6 69:0:2 40:0:4 7:2:2 81:0:3 38:0:2 89:0:1 10:5:5 79:0:1 158:0:1 61:0:1 22:10:14 180:0:1 13:12:13 101:0:1 59:0:1 138:0:1 106:0:1 27:8:10 50:1:2 92:0:1 56:0:1 90:0:2 11:14:14 28:10:12 67:0:5 57:0:2 164:0:1 6:1:1 35:1:4 30:7:7 109:0:1 58:0:3 137:0:1 17:22:22 96:0:1 80:0:2 43:1:5 122:0:1 47:0:1 20:24:24 99:0:1 77:1:2 156:0:1 124:0:1 45:0:6 88:0:1 139:0:1 60:0:2 102:0:2 23:14:17 134:0:1 98:0:1 19:21:26 25:7:9 104:0:2 42:1:1 153:0:2 74:0:1 100:0:1 21:14:15 63:0:1 76:0:1 155:0:1 39:3:5 118:0:1 16:17:18 95:0:1 44:1:5 83:0:2 120:0:1 133:0:1 48:1:4 75:0:1 37:1:1 116:0:2 71:0:2 14:14:15 93:0:3 51:0:1 130:0:2 53:1:3 94:0:2 15:14:14 52:0:3 112:0:1 33:3:7 70:0:2 18:20:23 97:0:2 9:9:9 176:0:1 105:0:1 26:8:9 128:0:1 49:1:5 8:5:5 87:0:3 233:0:1 66:0:1 103:0:2 525:0:1 24:9:14 29:7:9 36:1:4 115:0:1 68:0:3 41:1:4 542:0:1 12:15:15 46:1:1 31:3:8@14 0:318:512@label_mean_ctr:0.621094,13:43#14:44#12:42#11:41#9:39#10:40#8:38#7:37#6:36#0:30#1:31#2:32#3:33#5:35#4:34 count,13:58#14:59#12:57#11:56#9:54#10:55#8:53#7:52#6:51#0:45#1:46#2:47#3:48#5:50#4:49 ctr:0.5,13:73#14:74#12:72#11:71#9:69#10:70#8:68#7:67#6:66#0:60#1:61#2:62#3:63#5:65#4:64 
tree_sizes=1451 1567 1667 1673 1670 1677 1678 1674 1680 1667 1673 1670 1683 1682 1664 1670 1678 1667 1684 1697 1679 1670 1691 1686 1702 1685 1676 1685 1673 1689 1684 1692 1696 1687 1717 1710 1696 1715 1701 1710 1711 1715 1705 1710 1703 1707 1700 1715 1726 1709 1722 1715 1725 1694 1726 1730 1719 1728 1713 1705 1727 1718 1738 1731 1725 1747 1730 1748 1732 1753 1758 1761 1751 1754 1762 1767 1767 1744 1748 1760 1763 1753 1774 1763 1772 1778 1773 1774 1765 1776 1787 1759 1783 1786 1779 1783 1796 1790 1778 1799

Tree=0
num_leaves=13
num_cat=0
split_feature=22 22 27 24 21 27 19 42 31 15 15 15
split_gain=357.656 29.9665 28.4772 22.8581 11.5417 4.66719 1.5886 1.2982 0.267774 0.212462 2.84217e-14 2.84217e-14
threshold=105.95000000000002 116.05000000000003 0.16030000000000003 0.13660000000000003 25.810000000000006 0.1358 0.0017030000000000003 0.36316588684752754 0.32268415178571436 0.028930000000000004 0.050890000000000005 0.032790000000000007
decision_type=2 2 2 2 2 2 2 2 2 2 2 2
left_child=2 3 5 4 -2 7 -3 -1 -9 -5 -8 -10
right_child=1 6 -4 9 -6 -7 10 8 11 -11 -12 -13
leaf_value=0.58437887717812942 0.65519951302502477 0.31526046095992716 0.30753457341299312 0.27276807945179005 0.39370793451341124 0.52445372376921795 0.23027569794365277 0.62687125868626659 0.65519951302502477 0.23027569794365288 0.23027569794365277 0.65519951302502477
leaf_weight=2.8240356445312491 3.7653808593749982 2.3533630371093741 2.5886993408203116 2.353363037109375 3.0593719482421875 3.0593719482421866 28.946365356445312 3.5300445556640616 52.71533203125 2.353363037109375 4.7067260742187491 8.2367706298828107
leaf_count=12 16 10 11 10 13 13 123 15 224 10 20 35
internal_value=0.494193 0.280762 0.633268 0.421058 0.537979 0.645251 0.23583 0.650742 0.653649 0.251522 0.230276 0.6552
internal_weight=0 47.5379 72.9543 11.5315 6.82475 70.3656 36.0065 67.3062 64.4821 4.70673 33.6531 60.9521
internal_count=512 202 310 49 29 299 153 286 274 20 143 259
is_linear=0
shrinkage=1


Tree=1
num_leaves=14
num_cat=0
split_feature=22 27 21 20 24 15 27 42 24 31 27 16 22
split_gain=287.28 23.8195 23.1313 9.45359 11.7322 9.36141 4.18032 1.19106 0.308809 0.250039 0.0328528 0.00567906 0.000267611
threshold=105.95000000000002 0.16030000000000003 20.810000000000002 16.765000000000004 0.14075000000000001 0.023120000000000005 0.1358 0.36316588684752754 0.11245000000000001 0.32268415178571436 0.13100000000000003 0.023180000000000003 121.30000000000003
decision_type=2 2 2 2 2 2 2 2 2 2 2 2 2
left_child=1 6 5 4 -4 -2 7 -1 -5 -9 -10 -12 -13
right_child=2 -3 3 8 -6 -7 -8 9 10 -11 11 12 -14
leaf_value=0.08322305696321064 0.15633509455065156 -0.1615463170909085 0.057577027295912075 -0.19064413536027155 -0.22725548115175842 -0.11972632028638085 0.027452034840052372 0.1240527064666635 -0.2379703862576435 0.15193385377530166 -0.23003075922406746 -0.22698303810402992 -0.22589471029228189
leaf_weight=2.7577784657478324 2.5141048580408087 2.6859892755746833 2.8305287957191458 2.4525152891874304 2.9566547423601151 2.401940330862999 3.0363799035549155 3.4044438600540152 2.6774239242076865 58.269483372569084 3.9309053421020499 2.4645329415798214 27.138637900352478
leaf_count=12 11 11 12 10 12 10 13 15 11 259 16 10 110
internal_value=0 0.13049 -0.184379 -0.207143 -0.087943 0.0214537 0.142116 0.14752 -0.224985 0.150395 -0.227311 -0.22646 -0.225985
internal_weight=0 70.1541 49.3672 44.4512 5.78718 4.91605 67.4681 64.4317 38.664 61.6739 36.2115 33.5341 29.6032
internal_count=512 310 202 181 24 21 299 286 157 274 147 136 120
is_linear=0
shrinkage=0.1


Tree=2
num_leaves=15
num_cat=0
split_feature=22 27 27 21 20 27 22 28 45 58 21 42 22 19
split_gain=236.225 20.18 18.4024 13.6915 10.0916 3.81601 1.26584 1.178 0.291639 0.25974 0.0118713 0.00919278 0.00543708 0.00311746
threshold=105.95000000000002 0.16030000000000003 0.14115000000000003 20.810000000000002 16.765000000000004 0.1358 113.75000000000001 0.19935000000000003 24.000000000000004 25.000000000000004 21.830000000000002 0.36316588684752754 119.25000000000001 0.0019925000000000008
decision_type=2 2 2 2 2 2 2 2 2 2 2 2 2 2
left_child=1 5 3 -2 -5 7 -4 -1 -6 11 -8 -9 -12 -14
right_child=2 -3 6 4 8 -7 10 9 -10 -11 12 -13 13 -15
leaf_value=0.079122100047293434 0.14976861473225897 -0.14260280017790097 -0.13988655491217403 0.050172356301944776 -0.16415547904834149 0.02489557292306949 -0.208306914568445 0.15129371951392243 -0.21045201947648887 0.11741661761840581 -0.20564163781592312 0.14475310745373191 -0.20417058493316498 -0.20048346020745389
leaf_weight=3.0081207752227774 2.6390516161918631 2.7353994697332373 3.6598705202341071 2.5881510376930219 2.4974847882986069 3.014555186033248 2.4946604967117301 2.2408995032310477 2.9892007261514664 3.6355717331171027 2.4940767586231223 52.323886901140213 2.4976667314767864 27.999678567051888
leaf_count=14 12 11 15 11 10 13 10 10 12 17 10 245 10 112
internal_value=0 0.123404 -0.164098 -0.0479712 -0.112597 0.134734 -0.195881 0.140143 -0.189378 0.143297 -0.201655 0.145022 -0.201153 -0.200785
internal_weight=0 66.9584 49.8598 10.7139 8.07484 64.223 39.146 61.2085 5.48669 58.2004 35.4861 54.5648 32.9914 30.4973
internal_count=512 310 202 45 33 299 157 286 22 272 142 255 132 122
is_linear=0
shrinkage=0.1


Tree=3
num_leaves=15
num_cat=0
split_feature=22 27 21 21 20 24 30 42 58 31 22 22 19 28
split_gain=197.368 17.5561 15.1229 12.566 7.30275 6.46884 7.91318 1.21855 0.778762 0.265155 0.0883508 0.00851035 0.00243657 0.00153935
threshold=105.95000000000002 0.1358 20.810000000000002 26.320000000000004 17.480000000000004 0.11640000000000002 0.15954589843750003 0.36316588684752754 16.000000000000004 0.32268415178571436 111.10000000000001 119.25000000000001 0.0019790000000000003 0.19935000000000003
decision_type=2 2 2 2 2 2 2 2 2 2 2 2 2 2
left_child=1 7 4 -3 -2 6 -4 -1 10 -9 -7 -12 -13 -11
right_child=2 3 5 -5 -6 8 -8 9 -10 13 11 12 -14 -15
leaf_value=0.066527214568479473 0.14678379803348404 0.12764412874749367 -0.18840976638140816 -0.1729461480691088 -0.10223258195340812 -0.2025471755425996 0.061036154563465665 0.10865243820497797 -0.12596857888017945 0.14121963099388374 -0.18786434112484907 -0.18548112018207966 -0.18221723571606219 0.13866691737696585
leaf_weight=2.5599336028099051 2.3376591205596915 2.3621481955051413 2.4882429391145697 3.3818374276161194 2.3733671605587006 2.4711992591619483 2.601224347949028 3.0928115248680106 2.44090911746025 2.4802486896514884 3.2309263050556174 2.4832835197448757 28.971007764339447 49.66849684715271
leaf_count=12 11 10 10 14 10 10 11 15 10 12 13 10 117 247
internal_value=0 0.117406 -0.149078 -0.0493318 0.0213319 -0.167044 -0.0609181 0.133976 -0.180684 0.137101 -0.184279 -0.182977 -0.182475 0.138788
internal_weight=0 63.5455 49.3978 5.74399 4.71103 44.6868 5.08947 57.8015 39.5973 55.2416 37.1564 34.6852 31.4543 52.1487
internal_count=512 310 202 24 21 181 21 286 160 274 150 140 127 259
is_linear=0
shrinkage=0.1


Tree=4
num_leaves=15
num_cat=0
split_feature=22 27 27 21 21 20 28 22 58 25 21 42 43 24
split_gain=166.766 15.5275 13.0585 10.1607 9.90277 7.55416 1.1982 0.995599 0.272192 0.260781 0.0170232 0.0110846 0.00364792 0.00262312
threshold=105.95000000000002 0.1358 0.14115000000000003 26.320000000000004 20.810000000000002 16.765000000000004 0.19935000000000003 113.75000000000001 25.000000000000004 0.18860000000000002 21.830000000000002 0.36316588684752754 0.69002384334415601 0.12065000000000002
decision_type=2 2 2 2 2 2 2 2 2 2 2 2 2 2
left_child=1 6 4 -3 -2 -6 -1 -4 11 -7 -9 -8 13 -12
right_child=2 3 7 -5 5 9 8 10 -10 -11 12 -13 -14 -15
leaf_value=0.064513825430153535 0.13998290493676285 0.11834154576755246 -0.11455427038765204 -0.15350643756515153 0.049799586066914647 -0.13468812177979503 0.14125396809495624 -0.17778052994627502 0.1042332128688738 -0.17890062274434182 -0.17180266144325085 0.13377002768883894 -0.17267334949143545 -0.16851498243244817
leaf_weight=2.7548873126506797 2.4053932875394803 2.2964544147253028 3.6105814427137366 3.4261560440063477 2.5601597428321838 2.4401354491710663 2.0675899088382712 2.4553405940532675 3.2594269067049018 2.9432519376277924 2.6710829585790696 46.225937649607658 2.6757550388574591 26.53931599855423
leaf_count=14 12 10 15 14 11 10 10 10 17 12 11 245 11 110
internal_value=0 0.11226 -0.137354 -0.0444152 -0.0377815 -0.0916105 0.128769 -0.164505 0.132203 -0.15886 -0.169757 0.13409 -0.169139 -0.168816
internal_weight=0 60.0305 48.301 5.72261 10.3489 7.94355 54.3078 37.9521 51.553 5.38339 34.3415 48.2935 31.8862 29.2104
internal_count=512 310 202 24 45 33 286 157 272 22 142 255 132 121
is_linear=0
shrinkage=0.1


Tree=5
num_leaves=15
num_cat=0
split_feature=22 27 27 21 20 31 42 23 24 58 27 22 21 28
split_gain=142.234 13.7971 11.096 10.4064 5.95638 3.1092 2.13695 0.662248 0.390682 0.27188 0.077526 0.0139257 0.0112375 0.00332584
threshold=105.95000000000002 0.16030000000000003 0.14525000000000002 20.810000000000002 16.765000000000004 0.32268415178571436 0.28256460336538464 826.20000000000016 0.16610000000000003 3.5000000000000004 0.13100000000000003 117.80000000000003 21.830000000000002 0.19935000000000003
decision_type=2 2 2 2 2 2 2 2 2 2 2 2 2 2
left_child=1 5 3 -2 -5 -1 -7 -4 10 -6 13 -9 -13 -8
right_child=2 -3 7 4 9 6 8 11 -10 -11 -12 12 -14 -15
leaf_value=0.02779595902777179 0.13850697224143457 -0.11333464960329045 -0.10440826520953478 0.02839045337436168 -0.12497355128174797 0.010738460253997583 0.13355484885478672 -0.16615897256610623 0.084065786579686302 -0.16805610858725187 0.14940493671406749 -0.16515051901454195 -0.15799746759261024 0.12961581068994354
leaf_weight=3.5057757794857016 2.4989100098609915 2.6871683448553076 2.3673650771379462 2.7628351300954801 2.5984067469835281 1.5798877775669087 2.2574450969696036 2.6159878969192496 1.8681342303752888 3.3574715107679367 2.1156346797943106 2.3824164569377926 28.110119476914406 42.462182626128197
leaf_count=18 13 11 10 12 11 8 12 11 10 14 10 10 121 241
internal_value=0 0.107802 -0.128092 -0.041401 -0.0929653 0.11885 0.125198 -0.155504 0.128911 -0.14926 0.1307 -0.159157 -0.158556 0.129815
internal_weight=0 56.4762 46.6935 11.2176 8.71871 53.7891 50.2833 35.4759 48.7034 5.95588 46.8353 33.1085 30.4925 44.7196
internal_count=512 310 202 50 37 299 281 152 273 25 263 142 131 253
is_linear=0
shrinkage=0.1


Tree=6
num_leaves=15
num_cat=0
split_feature=27 20 23 21 31 42 22 73 21 22 23 31 28 24
split_gain=122.634 22.2603 10.1216 4.12732 3.55177 1.72012 0.375509 0.348639 0.306443 0.0687529 0.00657235 0.0032299 0.0018245 0.00101788
threshold=0.1358 16.765000000000004 722.85000000000002 20.810000000000002 0.54269748263888895 0.28256460336538464 111.10000000000001 0.39583333333333343 33.350000000000001 105.85000000000001 908.30000000000007 0.33110608552631587 0.19935000000000003 0.12065000000000002
decision_type=2 2 2 2 2 2 2 2 2 2 2 2 2 2
left_child=1 5 -2 -4 -3 -1 -5 -7 9 11 -8 -9 -13 -12
right_child=2 4 3 6 -6 7 10 8 -10 -11 13 12 -14 -15
leaf_value=0.022775413019899427 0.021144315182351978 -0.15572635045549588 -0.028724633258119303 -0.18247749685266415 -0.0018938031759210276 0.080320882005364108 -0.15530143303939231 0.13036645509390951 0.094379595438390709 0.14511713298910897 -0.15157885526352727 0.12935980198872474 0.12606054650986304 -0.14953435788520025
leaf_weight=1.7585030496120442 4.0898038893938056 3.1988471001386634 2.8488928675651541 4.0629501789808264 2.8275759667158127 1.8025713562965382 2.2834512740373638 1.960905373096465 3.0258246213197699 2.0618480145931235 2.6876693665981319 1.7545042932033528 37.531213000416756 25.915927827358246
leaf_count=9 18 14 13 17 14 10 10 11 18 10 12 10 229 117
internal_value=0 0.0979926 -0.128295 -0.144464 -0.0835487 0.119919 -0.153898 0.123468 0.125147 0.127296 -0.150139 0.126406 0.126208 -0.149726
internal_weight=0 55.9218 41.8887 37.7989 6.02642 49.8954 34.95 48.1369 46.3343 43.3085 30.887 41.2466 39.2857 28.6036
internal_count=512 325 187 169 28 297 156 288 278 260 139 250 239 129
is_linear=0
shrinkage=0.1


Tree=7
num_leaves=15
num_cat=0
split_feature=27 20 23 21 31 58 32 21 22 22 42 23 31 28
split_gain=105.449 19.5495 8.90002 3.80757 3.12587 1.74033 0.511401 0.317622 0.240581 0.0688979 0.00656498 0.00419267 0.0036297 0.00154421
threshold=0.1358 16.765000000000004 722.85000000000002 20.810000000000002 0.54269748263888895 4.5000000000000009 0.96383167613636378 33.350000000000001 111.10000000000001 105.95000000000002 0.37738544045888706 908.30000000000007 0.32268415178571436 0.19935000000000003
decision_type=2 2 2 2 2 2 2 2 2 2 2 2 2 2
left_child=1 5 -2 -4 -3 -1 7 9 -5 10 -7 -10 -12 -14
right_child=2 4 3 8 -6 6 -8 -9 11 -11 12 -13 13 -15
leaf_value=0.018106943822386215 0.019077555520115978 -0.14774152355800751 -0.02583886793349674 -0.16946590254266727 -0.0017041304359257715 0.12933010211643597 0.066532887944904931 0.090037521678900223 -0.14738089007669891 0.14324385812466697 0.12759492388038043 -0.14281378950559079 0.12591817958235121 0.12290811248275123
leaf_weight=1.7385056912899006 4.0801150053739539 3.0425684452056876 2.8502762019634238 3.9433514773845664 2.8280335366725922 1.897450104355811 1.7149605602025975 2.8631030023097983 2.1713005006313351 1.8718629330396641 1.8640972077846516 27.06816840171814 1.797896236181258 32.748349472880363
leaf_count=10 18 14 13 17 14 11 11 18 10 9 11 129 11 216
internal_value=0 0.0945606 -0.120903 -0.136753 -0.0773912 0.116271 0.120084 0.122218 -0.14628 0.124511 0.123596 -0.143153 0.123297 0.123065
internal_weight=0 52.3668 40.1132 36.0331 5.8706 46.4962 44.7577 43.0428 33.1828 40.1797 38.3078 29.2395 36.4103 34.5462
internal_count=512 325 187 169 28 297 287 276 156 258 249 139 238 227
is_linear=0
shrinkage=0.1


Tree=8
num_leaves=15
num_cat=0
split_feature=22 27 21 21 19 24 42 58 58 24 27 23 31 28
split_gain=91.3697 10.5005 8.15053 7.33493 5.17273 4.12646 2.02488 0.846343 0.328362 0.122429 0.0885365 0.00771151 0.00318992 0.00105135
threshold=105.95000000000002 0.1358 20.810000000000002 26.320000000000004 0.0036360000000000003 0.10935000000000002 0.28256460336538464 16.000000000000004 25.000000000000004 0.11800000000000001 0.13765000000000002 831.85000000000014 0.32268415178571436 0.19935000000000003
decision_type=2 2 2 2 2 2 2 2 2 2 2 2 2 2
left_child=1 6 4 -3 -2 -4 -1 9 12 -7 -11 -12 -8 -14
right_child=2 3 5 -5 -6 7 8 -9 -10 10 11 -13 13 -15
leaf_value=-0.00017308866514785258 0.13794739820795224 0.1111635152195192 -0.0063521398062829082 -0.12682020533739516 -0.08506684182951102 -0.11407781849966143 0.1246126926577471 -0.074846581511352206 0.084378189108013299 -0.15698380067766743 -0.14337032576998204 -0.13704292726257369 0.12300904022337825 0.12043918389065203
leaf_weight=1.4959300607442845 2.0370541810989371 2.125985085964202 2.7721360474824897 3.3137354701757431 2.1250115036964417 2.0702784210443523 2.0591654330492011 2.3088213056325904 2.654894918203353 2.5659014880657223 2.0894235819578197 24.648254752159119 1.6720651239156712 33.222383707761765
leaf_count=8 11 10 13 14 10 10 13 11 18 12 10 125 11 236
internal_value=0 0.0967553 -0.108491 -0.0338099 0.0240838 -0.123628 0.114034 -0.13328 0.118348 -0.13758 -0.13924 -0.137537 0.120788 0.120562
internal_weight=0 46.5442 40.6169 5.43972 4.16207 36.4548 41.1044 33.6827 39.6085 31.3739 29.3036 26.7377 36.9536 34.8944
internal_count=512 310 202 24 21 181 286 168 278 157 147 135 260 247
is_linear=0
shrinkage=0.1


Tree=9
num_leaves=15
num_cat=0
split_feature=27 23 23 21 58 31 21 58 32 22 22 42 22 31
split_gain=79.7767 15.7055 7.48789 3.16559 2.2767 1.77252 0.647263 0.918377 0.595167 0.142833 0.069221 0.00604332 0.00210197 0.00173289
threshold=0.1358 874.85000000000014 722.85000000000002 20.810000000000002 3.5000000000000004 0.54269748263888895 33.350000000000001 16.000000000000004 0.96383167613636378 111.10000000000001 105.95000000000002 0.37738544045888706 119.25000000000001 0.32268415178571436
decision_type=2 2 2 2 2 2 2 2 2 2 2 2 2 2
left_child=1 4 -2 -4 -1 -3 8 -8 10 -5 11 -6 -11 -13
right_child=2 5 3 9 6 -7 7 -9 -10 12 -12 13 -14 -15
leaf_value=-0.024427753348247188 0.019590034707314078 -0.13751418387921266 -0.023460564368886331 -0.15392100012071502 0.12447898077236189 -0.017720754926086425 0.12019919656655885 0.006233569937951277 0.056145827436659405 -0.13552472908326063 0.13730310814941094 0.12153238358729551 -0.13247565279428425 0.11815689318196708
leaf_weight=1.2333494424819935 3.9811204373836508 2.5439558029174796 2.764013096690177 3.6443388015031841 1.683888480067252 2.4008409231901169 1.5318178981542581 1.3133129179477689 1.5346534550189961 2.5039801895618465 2.115233212709426 1.6028334796428705 23.294102936983109 29.7496148198843
leaf_count=7 18 13 13 17 11 12 11 9 11 13 11 11 126 229
internal_value=0 0.0889515 -0.10979 -0.125784 0.109367 -0.079351 0.113541 0.0675926 0.117104 -0.135389 0.119766 0.118643 -0.132772 0.118329
internal_weight=0 45.7095 36.1876 32.2064 40.7647 4.9448 39.5314 2.84513 36.6862 29.4424 35.1516 33.0363 25.7981 31.3524
internal_count=512 325 187 169 300 25 293 20 273 156 262 251 139 240
is_linear=0
shrinkage=0.1


Tree=10
num_leaves=15
num_cat=0
split_feature=23 27 21 26 58 31 58 28 32 43 22 21 27 42
split_gain=69.9061 16.9575 8.86382 2.88496 2.12266 1.00203 0.658787 0.820172 0.597491 0.375085 0.0455934 0.0384481 0.0312436 0.00574531
threshold=874.85000000000014 0.1358 25.810000000000006 0.22440000000000002 3.5000000000000004 0.44039818548387105 25.000000000000004 0.27425000000000005 0.96383167613636378 0.78493652343750009 107.05000000000001 21.955000000000002 0.14360000000000003 0.36316588684752754
decision_type=2 2 2 2 2 2 2 2 2 2 2 2 2 2
left_child=1 4 -3 -2 -1 -4 8 -8 10 11 13 -5 -13 -6
right_child=3 2 5 9 6 -7 7 -9 -10 -11 -12 12 -14 -15
leaf_value=-0.021718401915097336 -0.0052377433686025682 0.07578208644024742 -0.15466392021462622 -0.14396588774513655 0.12339814197971344 -0.06718389137865774 0.11929162830012192 0.0090041602852082327 0.052546369475128168 -0.082880361397515701 0.13298702182568775 -0.13934331760083807 -0.12834763615951517 0.11635600935806939
leaf_weight=1.2476812303066243 2.0637051165103939 3.7403372824192029 3.5835174024105072 2.0563518702983918 1.2060666084289575 2.0632675886154175 1.329635098576545 1.3681086152791975 1.4787914901971806 1.7400321811437596 1.8054504096508015 2.9504513591527965 20.814197957515717 29.388992950320244
leaf_count=7 11 18 17 10 8 10 10 10 11 10 10 15 121 244
internal_value=0 0.0766893 -0.0436139 -0.11928 0.106545 -0.1227 0.110921 0.0633615 0.114708 -0.12782 0.117545 -0.130848 -0.129713 0.116634
internal_weight=0 47.2118 9.38712 29.6247 37.8247 5.64678 36.577 2.69774 33.8793 27.561 32.4005 25.821 23.7646 30.5951
internal_count=512 345 45 167 300 27 293 20 273 156 262 146 136 252
is_linear=0
shrinkage=0.1


Tree=11
num_leaves=15
num_cat=0
split_feature=23 27 21 26 58 31 21 16 32 43 22 21 27 42
split_gain=60.9533 15.0938 7.48855 2.70663 1.98637 0.930282 0.699434 0.951171 0.603484 0.399648 0.0330934 0.0259204 0.0213748 0.00290994
threshold=874.85000000000014 0.1358 25.810000000000006 0.22440000000000002 3.5000000000000004 0.44039818548387105 33.350000000000001 0.01626 0.96383167613636378 0.78493652343750009 105.95000000000002 21.955000000000002 0.14360000000000003 0.37738544045888706
decision_type=2 2 2 2 2 2 2 2 2 2 2 2 2 2
left_child=1 4 -3 -2 -1 -4 8 -8 10 11 13 -5 -13 -6
right_child=3 2 5 9 6 -7 7 -9 -10 -11 -12 12 -14 -15
leaf_value=-0.019339172836117049 -0.0047164422358631592 0.069503479551262792 -0.14746749467353196 -0.13818234273137492 0.11918581995649352 -0.061773375364113751 0.11641553701380643 -0.0062271150737824169 0.049094348046670039 -0.076806002889694427 0.12863457797732913 -0.13433573421145806 -0.12493382532780187 0.11456486836693598
leaf_weight=1.2603491991758335 2.0626799166202572 3.6739675253629667 3.3923879861831665 1.9344500005245269 1.4364851862192249 2.0218168646097183 1.3277694880962365 1.2074472308158872 1.4272588193416584 1.6924455612897862 1.8434718325734127 2.7639860808849361 19.321345508098602 26.554495245218277
leaf_count=7 11 18 17 10 11 10 11 9 11 10 11 15 121 240
internal_value=0 0.0741525 -0.0406911 -0.114932 0.103924 -0.115467 0.108521 0.0580045 0.112618 -0.123773 0.115657 -0.127083 -0.12611 0.114802
internal_weight=0 44.1454 9.08817 27.7749 35.0573 5.4142 33.7969 2.53522 31.2617 25.7122 29.8345 24.0198 22.0853 27.991
internal_count=512 345 45 167 300 27 293 20 273 156 262 146 136 251
is_linear=0
shrinkage=0.1


Tree=12
num_leaves=15
num_cat=0
split_feature=22 27 24 21 20 24 42 31 20 15 43 27 21 27
split_gain=53.8367 8.18761 6.48816 5.93691 3.68466 4.2003 2.04376 1.18044 0.863577 0.342623 0.246205 0.299397 0.019404 0.00964253
threshold=102.85000000000001 0.14525000000000002 0.17835000000000004 20.810000000000002 16.765000000000004 0.12240000000000002 0.28256460336538464 0.32268415178571436 15.870000000000003 0.019405000000000002 0.60271661931818199 0.14525000000000002 21.830000000000002 0.12910000000000002
decision_type=2 2 2 2 2 2 2 2 2 2 2 2 2 2
left_child=2 3 6 -2 5 -5 -1 -8 -3 -6 -9 13 -10 -12
right_child=1 8 -4 4 9 -7 7 10 12 -11 11 -13 -14 -15
leaf_value=-0.016977201820759333 0.12966708967758253 -0.053934112669832716 -0.10161215509794236 0.12077266291089772 -0.13390904007674673 -0.10554925871719256 0.032139265132370712 0.075284440823134791 -0.13333996254965971 -0.077148558128925904 0.11325301695936348 0.16605111744715617 -0.12254000140578628 0.123361150482517
leaf_weight=1.3588872402906442 2.3182567283511144 1.9447325766086603 1.6315197125077237 1.9680503457784655 2.7426753789186478 1.4057640880346296 1.8992791324853922 1.5809636265039468 1.8106039613485361 1.7369807064533231 24.214600726962097 1.1395293474197377 20.488713711500168 0.98200520128011604
leaf_count=8 14 10 9 15 15 7 15 14 10 10 236 5 137 7
internal_value=0 -0.0862501 0.0927841 -0.0109484 -0.0524565 0.0264713 0.102958 0.108424 -0.117843 -0.1119 0.113614 0.115914 -0.123417 0.113647
internal_weight=0 34.4158 32.8068 10.1717 7.85347 3.37381 31.1753 29.8164 24.2441 4.47966 27.9171 26.3361 22.2993 25.1966
internal_count=512 218 294 61 47 22 285 277 157 25 262 248 147 243
is_linear=0
shrinkage=0.1


Tree=13
num_leaves=15
num_cat=0
split_feature=22 27 27 21 20 24 42 21 27 20 30 27 21 27
split_gain=47.1899 7.29907 5.82011 5.17821 3.19943 3.61746 1.8507 1.98366 4.30541 0.906258 0.33264 0.202311 0.0133966 0.00595854
threshold=102.85000000000001 0.14525000000000002 0.18605000000000002 20.810000000000002 16.765000000000004 0.12240000000000002 0.28256460336538464 31.675000000000004 0.092660000000000006 15.870000000000003 0.15954589843750003 0.14525000000000002 21.830000000000002 0.12700000000000003
decision_type=2 2 2 2 2 2 2 2 2 2 2 2 2 2
left_child=2 3 6 -2 5 -5 -1 11 -9 -3 -6 13 -11 -8
right_child=1 9 -4 4 10 -7 7 8 -10 12 -12 -13 -14 -15
leaf_value=-0.015132453375333272 0.12618037696378823 -0.049000873313424953 -0.1436572618920107 0.11847473738240888 -0.12987610313785999 -0.095648263190447724 0.11193916433889557 0.11334271032149418 -0.11253983255444003 -0.12924400896649874 -0.072533678482136585 0.15632027860804612 -0.11994521600099889 0.11984651587301683
leaf_weight=1.3713888376951278 2.1525992602109891 1.9274124503135706 1.028790995478629 1.8135231882333758 2.5483086258172989 1.3966201245784757 22.292150124907504 2.4685975685715671 1.2820517718791959 1.6875165998935724 1.6776165217161176 1.0918502509593953 18.919263571500778 0.99552381038665672
leaf_count=8 14 10 5 15 15 7 236 24 8 10 10 5 137 8
internal_value=0 -0.0834789 0.0901504 -0.0104039 -0.0499425 0.0253174 0.0983038 0.103834 0.0361312 -0.114574 -0.107112 0.11425 -0.120707 0.112277
internal_weight=0 32.1229 30.5304 9.58867 7.43607 3.21014 29.5016 28.1302 3.75065 22.5342 4.22593 24.3795 20.6068 23.2877
internal_count=512 218 294 61 47 22 289 281 32 157 25 249 147 244
is_linear=0
shrinkage=0.1


Tree=14
num_leaves=15
num_cat=0
split_feature=27 20 23 58 21 31 32 31 22 22 42 43 21 58
split_gain=41.7348 8.60007 5.10312 2.36574 2.14681 1.95786 0.649431 0.436509 0.0794668 0.0185581 0.012836 0.000979898 0.00041803 0.000413962
threshold=0.1358 16.765000000000004 722.85000000000002 2.5000000000000004 21.185000000000006 0.54269748263888895 0.96383167613636378 0.32268415178571436 108.7 105.85000000000001 0.36316588684752754 0.78493652343750009 33.045000000000009 25.000000000000004
decision_type=2 2 2 2 2 2 2 2 2 2 2 2 2 2
left_child=1 3 -2 -1 -4 -3 7 -5 -6 10 -9 -10 13 -12
right_child=2 5 4 6 8 -7 -8 9 11 -11 12 -13 -14 -15
leaf_value=-0.050423389087260295 0.020292756855997369 -0.12270721699078187 -0.021445130233360882 0.060748575074074156 -0.1366898751326231 0.011487734932034558 0.032784321855195121 0.12124028009454546 -0.11736669243760503 0.12335366226959261 0.11021131580992571 -0.12013073783635071 0.11205820413186561 0.11198365483948321
leaf_weight=1.0218046605587066 3.5113123953342464 2.0722799003124228 2.4846510142087963 1.8102923929691375 2.4781329482793835 2.2871035635471344 1.2005316913127888 1.1671884953975737 16.487117208540443 1.2940267398953427 18.04082943499089 1.3907935023307789 1.5285857319831837 1.4217054173350323
leaf_count=6 18 14 14 16 14 14 11 9 131 9 215 10 16 15
internal_value=0 0.0781845 -0.0919429 0.0988811 -0.109197 -0.0523033 0.104646 0.108061 -0.119908 0.111713 0.111033 -0.117582 0.110466 0.110341
internal_weight=0 31.8443 26.352 27.485 22.8407 4.35938 26.4632 25.2626 20.356 23.4523 22.1583 17.8779 20.9911 19.4625
internal_count=512 325 187 297 169 28 291 280 155 264 255 141 246 230
is_linear=0
shrinkage=0.1


Tree=15
num_leaves=15
num_cat=0
split_feature=27 23 23 73 41 21 24 25 21 58 27 31 22 43
split_gain=36.5312 7.92419 3.52262 2.54637 3.46559 1.38346 2.32114 0.970578 0.952375 0.543738 0.265004 0.0324768 0.0149144 0.00350227
threshold=0.14235000000000003 928.50000000000011 734.05000000000007 0.58712121212121227 0.64976166050384809 33.350000000000001 0.13785000000000003 0.17940000000000003 27.610000000000003 12.500000000000002 0.1358 0.78716216216216228 105.95000000000002 0.76815840126811608
decision_type=2 2 2 2 2 2 2 2 2 2 2 2 2 2
left_child=1 3 -2 4 8 10 -7 -3 -1 11 12 13 -5 -4
right_child=2 7 9 5 -6 6 -8 -9 -10 -11 -12 -13 -14 -15
leaf_value=0.11877519321085475 0.0035014831062296979 -0.017695343410737686 -0.11555189960823382 0.1097885890383728 -0.11053396111646063 0.11228907936691852 -0.10135916442197844 -0.1241470370885502 0.0013954129176954706 -0.062590303960695551 0.056966333546794951 -0.12990974002173389 0.12067985520040581 -0.12111138228172653
leaf_weight=2.0093061849474974 3.0650638490915325 1.6414036825299256 14.380978047847753 19.438743494451057 1.4214969500899313 1.2158098891377442 0.87411269545555104 1.7911092340946195 1.0537225380539892 2.0120068415999404 0.96801669895648856 1.877739094197749 1.3442778587341297 1.2300529479980458
leaf_count=18 15 10 124 244 9 13 7 12 9 14 6 12 10 9
internal_value=0 0.0702514 -0.0961568 0.0876401 0.0185086 0.100644 0.0229304 -0.0732426 0.078395 -0.111821 0.108111 -0.117484 0.110493 -0.11599
internal_weight=0 31.758 22.5658 28.3255 4.48453 23.841 2.08992 3.43251 3.06303 19.5008 21.751 17.4888 20.783 15.611
internal_count=512 338 174 316 36 280 20 22 27 159 260 145 254 133
is_linear=0
shrinkage=0.1


Tree=16
num_leaves=15
num_cat=0
split_feature=23 27 31 23 24 26 43 24 22 24 27 30 27 21
split_gain=32.1925 9.78553 2.77542 3.73918 2.29558 2.15826 1.4443 0.623778 0.595578 0.591314 0.189873 0.0647064 0.00993311 0.00602811
threshold=874.85000000000014 0.16030000000000003 0.47548253676470592 650.95000000000016 0.12565000000000001 0.23200000000000001 0.42106119791666669 0.16115000000000004 108.7 0.15465000000000004 0.14525000000000002 0.67535426051051062 0.13405000000000003 22.450000000000006
decision_type=2 2 2 2 2 2 2 2 2 2 2 2 2 2
left_child=1 2 3 9 -5 -2 -4 -3 10 -1 12 13 -8 -7
right_child=5 7 6 4 -6 11 8 -9 -10 -11 -12 -13 -14 -15
leaf_value=0.11153760685006775 -0.01228745080178973 -0.048935727949599793 -0.0024395579589452324 0.047263958370380645 -0.12271745025524415 -0.12103238688227225 0.10927736461497949 -0.13495626790873619 0.032025111377707853 0.013121895708346263 0.15262969518325897 -0.092360336870911719 0.12041653536401929 -0.11459243368180896
leaf_weight=3.3513349145650926 2.411512807011607 1.5248938053846353 1.252303354442122 1.3875309303402903 1.8588664531707761 1.6237668544054056 16.531975276768218 1.8851512297987936 0.97112737596034904 0.74649261683225621 1.101573348045348 1.3397809341549862 0.84127067029476066 13.861675225198267
leaf_count=40 16 10 11 13 12 12 223 11 6 8 5 12 6 127
internal_value=0 0.0634632 0.0829139 0.0300999 -0.0500663 -0.100763 0.101654 -0.0964899 0.108357 0.0936094 0.11237 -0.113444 0.109817 -0.115268
internal_weight=0 31.4525 28.0425 7.34422 3.2464 19.2367 20.6983 3.41005 19.4459 4.09783 18.4748 16.8252 17.3732 15.4854
internal_count=512 345 324 73 25 167 251 21 240 48 234 151 229 139
is_linear=0
shrinkage=0.1


Tree=17
num_leaves=15
num_cat=0
split_feature=27 30 23 43 21 31 23 17 58 22 22 43 32 17
split_gain=28.4044 6.27433 3.94489 2.24233 2.09235 1.32107 2.51288 0.917057 0.248268 0.0380795 0.00753831 0.00063699 0.000557937 0.000487745
threshold=0.1358 0.15954589843750003 722.85000000000002 0.42106119791666669 21.185000000000006 0.47548253676470592 650.95000000000016 0.013205000000000001 4.5000000000000009 108.7 105.85000000000001 0.78493652343750009 0.96383167613636378 0.015025000000000002
decision_type=2 2 2 2 2 2 2 2 2 2 2 2 2 2
left_child=1 -1 -2 7 -4 6 -5 -3 -7 -6 12 -11 13 -10
right_child=2 3 4 5 9 8 -8 -9 10 11 -12 -13 -14 -15
leaf_value=-0.10021010549614209 0.016725521443432336 0.050258501690522643 -0.012162720525723914 0.1089784971140301 -0.12702209037365828 0.17251384179796744 -0.032329248253118656 -0.07550415769954559 0.10747768583932811 -0.11232827449001158 0.1162708965126714 -0.11481757662467679 0.11045938702618491 0.10940176192726084
leaf_weight=1.9473591893911386 3.33085869252682 1.2882301062345534 2.2875259816646603 3.1924077682197121 2.084896892309188 0.62984619289636867 2.0773646831512451 1.0543906837701795 12.043051928281779 12.771649926900862 1.1446950957179058 1.1179437935352314 0.76776784658432085 1.4793286025524146
leaf_count=13 18 13 14 44 14 4 18 7 187 131 10 10 9 20
internal_value=0 0.072333 -0.083357 0.0865241 -0.101611 0.0967216 0.0532744 -0.00634604 0.110974 -0.11442 0.108463 -0.112529 0.107837 0.107688
internal_weight=0 25.6244 21.5929 23.6771 18.262 21.3345 5.26977 2.34262 16.0647 15.9745 15.4348 13.8896 14.2901 13.5224
internal_count=512 325 187 312 169 292 62 20 230 155 226 141 216 207
is_linear=0
shrinkage=0.1


Tree=18
num_leaves=15
num_cat=0
split_feature=23 27 31 23 26 24 43 27 24 22 27 43 27 31
split_gain=25.3035 7.89985 2.39536 2.80527 2.04675 1.90764 1.31503 0.653876 0.619274 0.568916 0.131839 0.0716107 0.00766761 0.00607617
threshold=874.85000000000014 0.16030000000000003 0.47548253676470592 650.95000000000016 0.23200000000000001 0.13035000000000002 0.42106119791666669 0.18605000000000002 0.15465000000000004 108.7 0.14525000000000002 0.76815840126811608 0.13405000000000003 0.87734731554259648
decision_type=2 2 2 2 2 2 2 2 2 2 2 2 2 2
left_child=1 2 3 8 -2 -5 -4 -3 -1 10 12 13 -8 -6
right_child=4 7 6 5 11 -7 9 -9 -10 -11 -12 -13 -14 -15
leaf_value=0.10982534331356307 -0.0090971582836801394 -0.038597557730464062 -0.0014947010034252932 0.037180754443761732 -0.11176600370966934 -0.11918759906754338 0.10744468850863814 -0.13050714944277961 0.0046751655564870069 0.030703899417135555 0.14484686443907205 -0.085076583229852384 0.11775410395872812 -0.11971634216981025
leaf_weight=2.8370445333421297 2.316795818507674 1.3978486135601991 1.2258153334260011 1.5598515197634699 12.225190892815588 1.5608994290232656 13.735847219824787 1.7345834523439405 0.69787220656871785 0.94917427003383714 1.0399252027273185 1.0346632823348034 0.76141650974750597 1.043340891599654
leaf_count=40 16 10 11 15 133 10 223 11 8 6 5 10 6 8
internal_value=0 0.0599963 0.0792127 0.0280661 -0.0962917 -0.0410297 0.098432 -0.0894925 0.0890663 0.105862 0.110453 -0.110415 0.107986 -0.112391
internal_weight=0 27.5003 24.3678 6.65567 16.62 3.12075 17.7122 3.13243 3.53492 16.4864 15.5372 14.3032 14.4973 13.2685
internal_count=512 345 324 73 167 25 251 21 48 240 234 151 229 141
is_linear=0
shrinkage=0.1


Tree=19
num_leaves=15
num_cat=0
split_feature=27 73 58 21 15 26 32 21 27 30 22 31 27 60
split_gain=22.2886 5.22222 2.74347 2.52317 2.53209 4.06374 1.73008 0.921738 0.883545 0.0562007 0.0235437 0.00417893 0.00391692 0.000516559
threshold=0.14235000000000003 0.58712121212121227 14.500000000000002 23.350000000000005 0.015250000000000001 0.25230000000000002 0.53229166666666672 33.350000000000001 0.15095000000000003 0.91599983153638831 113.15000000000002 0.85740956538865565 0.12910000000000002 0.38235294117647062
decision_type=2 2 2 2 2 2 2 2 2 2 2 2 2 2
left_child=1 3 8 -1 -5 -6 -3 10 -2 11 12 13 -8 -10
right_child=2 6 -4 4 5 -7 7 -9 9 -11 -12 -13 -14 -15
leaf_value=0.090190202620484619 -0.036351582910277611 -0.0089580037255251443 0.0086829025661575732 -0.14660105901631368 0.11377084572856917 -0.12631254582849538 0.10653807500464546 0.025122843292215688 -0.10978845310214258 -0.13491782114211423 0.12736048934897878 -0.11679586645163412 0.1135085429656118 -0.11147386972413531
leaf_weight=1.6640391796827341 1.7187282070517564 1.5936795249581361 2.5608808100223532 1.7885845750570295 1.5594754144549372 1.286742717027664 13.320675048977135 1.4849875569343556 8.2730600535869581 1.0491198822855938 0.58921448886394578 1.0419162213802327 0.85808960348367769 2.3307900205254546
leaf_count=15 15 14 16 14 15 10 238 19 102 6 4 9 9 26
internal_value=0 0.0628439 -0.0866941 -0.0154373 -0.0533609 0.00523189 0.0904726 0.100222 -0.10364 -0.11275 0.107774 -0.110753 0.10696 -0.110159
internal_weight=0 24.1455 16.9745 6.29884 4.6348 2.84622 17.8466 16.253 14.4136 12.6949 14.768 11.6458 14.1788 10.6039
internal_count=512 338 174 54 39 25 284 270 158 143 251 137 247 128
is_linear=0
shrinkage=0.1


Tree=20
num_leaves=15
num_cat=0
split_feature=23 27 31 27 15 26 43 29 31 58 31 27 27 20
split_gain=19.7377 6.27852 2.53199 2.87131 2.41459 1.91546 1.22264 0.671042 0.475862 0.10287 0.0910077 0.124533 0.0104786 0.00883177
threshold=874.85000000000014 0.17695000000000002 0.47548253676470592 0.1358 0.012035000000000002 0.23200000000000001 0.42106119791666669 0.10250000000000002 0.42388885241596647 13.500000000000002 0.51415381493506496 0.14360000000000003 0.13765000000000002 15.420000000000002
decision_type=2 2 2 2 2 2 2 2 2 2 2 2 2 2
left_child=1 2 3 4 -1 -2 -4 10 13 -7 -8 12 -12 -6
right_child=5 -3 6 -5 8 9 7 -9 -10 -11 11 -13 -14 -15
leaf_value=-0.069155732492611241 -0.005678985206639133 -0.12282708851001999 -0.0048868638291438412 -0.10920014005015542 0.10860173085176637 -0.10996327665658255 0.070273420038537898 0.044803142925652489 0.019881057028156714 -0.07158845253684562 0.10606898655305735 0.14292428674532165 0.11825162615890608 0.1219614491705438
leaf_weight=1.2095831409096778 2.1753235682845107 1.8090736269950856 1.2048531323671365 1.4001224040985105 2.3234634585678586 11.355698160827156 0.60601235181093116 1.9251646250486363 0.70264786481857289 0.74433857202529985 10.462810106575485 1.0487846881151188 0.75711875408887941 0.62872579693794239
leaf_count=15 16 14 11 11 36 144 10 19 9 7 204 5 6 5
internal_value=0 0.0563325 0.0708868 0.0169907 0.0533121 -0.0920712 0.0919827 0.0998688 0.0938433 -0.107603 0.108103 0.109971 0.106891 0.111447
internal_weight=0 24.0784 22.2693 6.26454 4.86442 14.2754 16.0047 14.7999 3.65484 12.1 12.8747 12.2687 11.2199 2.95219
internal_count=512 345 331 76 65 167 255 244 50 151 225 215 210 41
is_linear=0
shrinkage=0.1


Tree=21
num_leaves=15
num_cat=0
split_feature=27 73 23 17 21 27 58 21 32 22 22 22 73 21
split_gain=17.3882 4.47537 3.11071 2.09268 1.7855 1.66432 1.21758 2.00989 0.893506 0.0225074 0.0166853 0.000967205 0.000738634 0.000632655
threshold=0.1358 0.54166666666666685 722.85000000000002 0.013530000000000002 21.185000000000006 0.099425000000000013 25.000000000000004 28.020000000000007 0.31738281250000006 108.7 111.10000000000001 104.45000000000002 0.77812500000000007 31.715000000000003
decision_type=2 2 2 2 2 2 2 2 2 2 2 2 2 2
left_child=1 3 -2 5 -4 -1 8 -8 -3 -6 11 13 -11 -10
right_child=2 6 4 -5 9 -7 7 -9 10 12 -12 -13 -14 -15
leaf_value=0.090463447735573771 0.018542134588185905 -0.035351149000980582 -0.0072790032967937129 -0.10908945981631475 -0.12083567773249843 -0.063186342348192703 0.10642002175931604 -0.13414695537114904 0.10522401124184165 -0.10802014818614654 0.12194459753967096 0.11019983886452484 -0.11119333710683138 0.10734275987057469
leaf_weight=1.8030110523104697 2.9397709071636227 0.45968324691056928 1.9796823412179936 1.6896747201681135 1.6699377670884121 1.1575911641120908 0.81788442283868856 0.60360430553555489 10.080649010837073 9.0245066992938483 0.66662037372589189 0.45896754413843233 0.79846724867820817 1.638363804668187
leaf_count=18 18 5 14 12 14 12 15 6 219 132 5 6 9 27
internal_value=0 0.0652308 -0.0746572 -0.0202919 -0.0949937 0.0303866 0.0922382 0.00426848 0.101637 -0.110103 0.10654 0.105697 -0.108278 0.10552
internal_weight=0 19.376 16.4124 4.65028 13.4726 2.9606 14.7258 1.42149 13.3043 11.4929 12.8446 12.178 9.82297 11.719
internal_count=512 325 187 42 169 30 283 21 262 155 257 252 141 246
is_linear=0
shrinkage=0.1


Tree=22
num_leaves=15
num_cat=0
split_feature=23 27 24 32 31 26 24 17 24 42 43 27 27 27
split_gain=15.6627 5.29401 2.16646 2.12186 2.32418 1.81187 1.44275 1.4338 2.95764 0.927216 0.445858 0.0800119 0.0289122 0.00400019
threshold=874.85000000000014 0.17695000000000002 0.17835000000000004 0.80678013392857151 0.4963809742647059 0.22440000000000002 0.14075000000000001 0.015710000000000005 0.13785000000000003 0.28256460336538464 0.80678013392857151 0.14525000000000002 0.13900000000000004 0.14620000000000002
decision_type=2 2 2 2 2 2 2 2 2 2 2 2 2 2
left_child=1 2 3 4 7 -2 12 8 -1 -5 13 -11 -6 -7
right_child=5 -3 -4 9 6 10 -8 -9 -10 11 -12 -13 -14 -15
leaf_value=0.11177155046540709 0.012508517020211447 -0.12057741549739123 -0.093732678080084578 -0.0060217868148461778 0.10745365717441933 -0.11329000839398116 -0.016233111218520037 -0.14161385154815995 -0.14854224783801129 0.10552635472466176 -0.027612688198679541 0.13429036366325053 0.13093979419145585 -0.10781662591460794
leaf_weight=1.1269557550549607 1.5481437817215908 1.6181529946625222 0.79797890409827132 0.75807318091392417 2.5082512646913533 1.5861455611884565 1.2036318555474279 0.92615265399217594 0.71236389130353917 9.7731840163469297 0.72761249542236406 1.0732653290033329 0.66262090206146229 8.4421463347971422
leaf_count=16 11 14 7 6 49 17 14 7 7 215 8 6 4 131
internal_value=0 0.053246 0.0676389 0.0745087 0.0316156 -0.0886395 0.0769791 -0.0401416 0.0109527 0.1009 -0.103198 0.108373 0.112362 -0.108682
internal_weight=0 21.1606 19.5425 18.7445 7.13998 12.304 4.3745 2.76547 1.83932 11.6045 10.7559 10.8464 3.17087 10.0283
internal_count=512 345 331 324 97 167 67 30 23 227 156 221 53 148
is_linear=0
shrinkage=0.1


Tree=23
num_leaves=15
num_cat=0
split_feature=22 27 31 23 43 24 17 24 42 18 31 21 19 20
split_gain=13.8673 5.02122 2.45362 2.70231 2.11632 1.30877 2.34517 0.758713 0.695171 0.593548 0.223949 0.213881 0.244978 0.144891
threshold=121.30000000000003 0.16030000000000003 0.4963809742647059 650.95000000000016 0.42106119791666669 0.13785000000000003 0.015710000000000005 0.15545000000000003 0.89990898703231303 0.012215000000000002 0.9146033653846154 28.095000000000002 0.0033210000000000006 17.480000000000004
decision_type=2 2 2 2 2 2 2 2 2 2 2 2 2 2
left_child=1 2 3 7 -4 6 -5 -1 -3 -6 -2 13 -13 -11
right_child=10 8 4 5 9 -7 -8 -9 -10 11 -12 12 -14 -15
leaf_value=0.10715015826743982 -0.1079176523138376 -0.117265998304597 -0.030180690783503362 0.079487808019071293 0.033637688867876207 -0.15418045422528437 -0.13274492945642685 -0.031318607971023468 -0.013156804318981641 0.1079109130372282 -0.046864335159866516 0.1058387578337061 0.0088652216521913942 0.16121464135454355
leaf_weight=2.1354871168732745 8.3526594378054106 1.833716765046119 1.4234058298170555 1.1948925517499454 1.2564263194799412 0.95151773095130909 0.92270856723189343 0.48570940271019925 0.9863830879330634 9.2707791998982394 0.64736403524875719 0.59731117635965236 0.46200252324342728 0.5396330803632744
leaf_count=43 135 20 13 16 18 10 7 6 8 206 6 12 9 3
internal_value=0 0.0437633 0.0620289 0.00692319 0.0851713 -0.0567625 -0.012989 0.0814918 -0.0808518 0.0987117 -0.103526 0.106234 0.0635453 0.110843
internal_weight=0 22.06 19.2399 5.69032 13.5496 3.06912 2.1176 2.6212 2.8201 12.1262 9.00002 10.8697 1.05931 9.81041
internal_count=512 371 343 82 261 33 23 49 28 248 141 230 21 209
is_linear=0
shrinkage=0.1


Tree=24
num_leaves=15
num_cat=0
split_feature=23 27 28 27 21 26 23 31 61 42 27 22 21 58
split_gain=12.3889 4.2556 1.85665 2.20314 2.56977 1.75892 1.25651 0.730273 0.591523 0.00806444 0.00574776 0.00356917 0.000486285 0.000472851
threshold=874.85000000000014 0.17695000000000002 0.19935000000000003 0.12195000000000002 27.670000000000005 0.20795000000000002 739.85000000000002 0.32268415178571436 0.88965517241379322 0.28256460336538464 0.13100000000000003 107.05000000000001 23.075000000000003 4.5000000000000009
decision_type=2 2 2 2 2 2 2 2 2 2 2 2 2 2
left_child=1 2 -1 7 6 -2 -5 -4 10 -9 -7 13 -12 -11
right_child=5 -3 3 4 -6 8 -8 9 -10 11 12 -13 -14 -15
leaf_value=-0.070385095890539248 0.030694832760612717 -0.11676706106275914 0.012981988980831248 0.12195409931061735 -0.09395844634488161 -0.11368187987168232 0.0017468579021485946 0.11594344968618367 -0.016554361579071843 0.10791333248599788 -0.10872709730116011 0.11314972712814336 -0.10598337228075061 0.10403717826762703
leaf_weight=0.96155615150929463 1.1625258252024639 1.4012066423892964 0.93457342684268851 1.8023804593831294 1.4634966626763342 1.2110884599387608 1.6801822409033773 0.67426497489213844 0.78390477970242578 0.32662865519523343 0.71526355668902386 0.4665694013237961 6.6674667932093143 8.6311122402548772
leaf_count=14 8 14 14 18 15 13 13 6 8 5 11 6 127 240
internal_value=0 0.0507168 0.0645698 0.0726907 0.0172329 -0.0853283 0.0639594 0.097552 -0.0997113 0.105379 -0.107297 0.104623 -0.106249 0.104179
internal_weight=0 18.342 16.9408 15.9792 4.94606 10.5402 3.48256 11.0331 9.37772 10.0986 8.59382 9.42431 7.38273 8.95774
internal_count=512 345 331 317 46 167 31 271 159 257 151 251 138 245
is_linear=0
shrinkage=0.1


Tree=25
num_leaves=15
num_cat=0
split_feature=22 27 23 24 32 31 17 60 31 31 61 58 27 25
split_gain=11.0838 4.01242 2.42299 2.81907 1.69127 1.62712 1.71725 1.28827 1.28646 0.898774 0.28655 0.0694495 0.032572 0.0112567
threshold=121.30000000000003 0.17695000000000002 650.95000000000016 0.13875000000000001 0.96000434027777792 0.4963809742647059 0.015710000000000005 0.13944444444444448 0.73515625000000007 0.53619791666666672 0.91025641025641035 3.5000000000000004 0.15505000000000002 0.27155000000000001
decision_type=2 2 2 2 2 2 2 2 2 2 2 2 2 2
left_child=1 2 4 5 12 6 -4 -7 -6 -5 -2 -9 -1 -13
right_child=10 -3 3 9 8 7 -8 11 -10 -11 -12 13 -14 -15
leaf_value=0.10468658521794755 -0.10662439046924871 -0.11351351668900581 0.061102533171502764 -0.14246629652973261 -0.1060537745968224 -0.038550539696749681 -0.12079895187001517 0.14873298934974152 0.10421439517304315 -0.020569060304663534 -0.030109542632801689 0.10559973442179822 0.12814281276079656 0.11981843647472681
leaf_weight=7.4260287564247935 7.0652807764708987 1.5409324578940857 1.1931995525956138 1.0807255916297438 0.71457402035593875 0.644393511116505 0.91850285232067097 0.54294003173708949 0.49083451926708221 1.3737397659569976 0.52588108927011479 1.9788133185356858 0.64329200983047474 0.77480163425207127
leaf_count=208 136 19 17 15 8 5 8 4 13 14 5 49 4 7
internal_value=0 0.0412844 0.0546988 0.0161558 0.090052 0.0528136 -0.0180171 0.0907673 -0.0204339 -0.0742416 -0.101324 0.116046 0.106557 0.109601
internal_weight=0 19.3228 17.7818 8.50712 9.27473 6.05265 2.1117 3.94095 1.20541 2.45447 7.59116 3.29655 8.06932 2.75361
internal_count=512 371 352 119 233 90 25 65 21 29 141 60 212 56
is_linear=0
shrinkage=0.1


Tree=26
num_leaves=15
num_cat=0
split_feature=22 27 23 21 24 32 46 18 46 73 28 31 57 27
split_gain=9.85743 3.54758 2.22147 2.51886 2.66358 1.57657 1.36613 1.24812 0.853007 0.389244 0.337688 0.334454 0.0576341 0.0232639
threshold=121.30000000000003 0.17695000000000002 650.95000000000016 20.810000000000002 0.12435 0.96000434027777792 16.000000000000004 0.018030000000000004 45.500000000000007 0.77083333333333348 0.26820000000000005 0.92246093750000002 108.50000000000001 0.15505000000000002
decision_type=2 2 2 2 2 2 2 2 2 2 2 2 2 2
left_child=1 2 5 -4 6 13 -5 -7 9 -6 12 -2 -8 -1
right_child=11 -3 3 4 8 7 10 -9 -10 -11 -12 -13 -14 -15
leaf_value=0.10423508617519724 -0.10598274332638605 -0.11213290884253853 0.11351863698003768 -0.063741405776542734 -0.066504418568404541 -0.10368620493881056 0.14741530369080141 0.1051060872161983 0.0066422699967491824 -0.14840327777147369 0.03605178671501498 -0.018488830701460127 0.10579386921933183 0.12483502463945191
leaf_weight=6.7469705268740743 6.4824329651892176 1.410580240190028 1.9765826426446418 0.74854324758052859 1.0731896925717599 0.70089562423527219 0.51290202140808128 0.48401732929050922 0.84121868945658196 1.2635997347533701 0.70288206264376629 0.4684721678495406 0.94690587557852268 0.59669773280620564
leaf_count=208 137 19 33 9 15 9 3 12 13 11 11 4 24 4
internal_value=0 0.0401152 0.0530568 0.0154337 -0.0164049 0.0886384 0.052697 -0.018398 -0.0797061 -0.110791 0.0929984 -0.100086 0.120418 0.105909
internal_weight=0 18.005 16.5944 8.06582 6.08924 8.52858 2.91123 1.18491 3.17801 2.33679 2.16269 6.95091 1.45981 7.34367
internal_count=512 371 352 119 86 233 47 21 39 26 38 141 27 212
is_linear=0
shrinkage=0.1


Tree=27
num_leaves=15
num_cat=0
split_feature=23 27 58 21 27 56 23 26 42 27 32 48 22 20
split_gain=8.81149 3.2942 1.61802 1.96251 1.99075 1.90126 0.987801 0.985251 0.53877 0.466596 0.0965919 0.0126408 0.00524086 0.00414465
threshold=928.50000000000011 0.16030000000000003 5.5000000000000009 33.350000000000001 0.092660000000000006 115.50000000000001 811.85000000000002 0.20795000000000002 0.89990898703231303 0.1358 0.80678013392857151 1.5000000000000002 109.65000000000002 16.045000000000005
decision_type=2 2 2 2 2 2 2 2 2 2 2 2 2 2
left_child=1 2 5 9 -5 -1 11 -2 13 12 -9 -7 -4 -3
right_child=7 8 3 4 -6 6 -8 10 -10 -11 -12 -13 -14 -15
leaf_value=-0.13377748957872837 0.010224807613274838 -0.11631962218520436 0.10336131143472307 0.10444622530049066 -0.14210891510008514 0.090020130900082804 -0.059460272429948592 -0.10589396339973961 -0.0052692306870592218 0.04919859699557267 -0.060388135227331358 0.11081234405307597 0.11252720234471557 -0.10491085066608685
leaf_weight=0.83926595002413074 0.88251226395368476 0.81673623621463709 7.1510022226721031 0.57521792873740085 0.76038723066449165 0.53364479355514027 0.56407111138105404 6.0112527869641781 0.73408683016896237 1.9238846562802789 0.50569167733192433 0.64678777009248734 0.68342913687229145 0.52190787717700005
leaf_count=5 6 8 250 15 6 14 8 136 7 18 10 9 8 12
internal_value=0 0.0433631 0.0611661 0.0777647 -0.0359226 -0.010103 0.0493957 -0.0889349 -0.0741169 0.0933249 -0.102363 0.101413 0.104161 -0.111872
internal_weight=0 15.7504 13.6777 11.0939 1.33561 2.58377 1.7445 7.39946 2.07273 9.75832 6.51694 1.18043 7.83443 1.33864
internal_count=512 360 333 297 21 36 31 152 27 276 146 23 258 20
is_linear=0
shrinkage=0.1


Tree=28
num_leaves=15
num_cat=0
split_feature=22 27 23 21 24 25 32 18 46 31 73 45 27 32
split_gain=7.84831 2.84688 1.93734 2.14794 2.11029 1.64047 1.40669 0.950817 0.724367 0.356774 0.325426 0.27727 0.0165485 0.00752958
threshold=121.30000000000003 0.17695000000000002 650.95000000000016 20.810000000000002 0.12435 0.11120000000000001 0.96000434027777792 0.018030000000000004 45.500000000000007 0.92246093750000002 0.77083333333333348 44.500000000000007 0.15505000000000002 0.18115234375000003
decision_type=2 2 2 2 2 2 2 2 2 2 2 2 2 2
left_child=1 2 6 13 5 -5 12 -8 10 -2 -6 -7 -1 -4
right_child=9 -3 3 4 8 11 7 -9 -10 -11 -12 -13 -14 -15
leaf_value=0.10361022489109986 -0.10497546087650443 -0.11002100885812596 0.12194381710617436 -0.11308294453599638 -0.063447612127346856 0.02140311801785744 -0.08884795467101432 0.10428060305192154 0.0066839900727413181 -0.011535989439413745 -0.1417836806941096 0.10703697201049618 0.12186200155387138 0.10739994791488404
leaf_weight=5.615319902077319 5.3979775309562674 1.202078741043805 0.50615812465548504 0.50719820335507426 0.99085954949259836 0.49262584000825915 0.6923530939966438 0.40347795374691486 0.79089150764048088 0.44209968298673619 1.1409376710653303 1.6264599021524189 0.54497302323579777 1.1996502373367546
leaf_count=208 137 19 5 6 15 4 9 12 13 4 11 37 4 28
internal_value=0 0.037868 0.0501191 0.0135769 -0.0165919 0.0484638 0.0866546 -0.0177393 -0.07505 -0.097902 -0.105373 0.0871296 0.105225 0.111715
internal_weight=0 15.713 14.5109 7.25478 5.54897 2.62628 7.25612 1.09583 2.92269 5.84008 2.1318 2.11909 6.16029 1.70581
internal_count=512 371 352 119 86 47 233 21 39 141 26 41 212 33
is_linear=0
shrinkage=0.1


Tree=29
num_leaves=15
num_cat=0
split_feature=22 27 23 21 24 18 32 18 23 73 31 19 23 27
split_gain=6.98859 2.52475 1.76254 1.91718 1.807 1.77998 1.31381 1.09448 0.7195 0.57031 0.35793 0.187333 0.0392799 0.0119218
threshold=121.30000000000003 0.17695000000000002 650.95000000000016 20.810000000000002 0.12405000000000001 0.010415000000000002 0.96000434027777792 0.017195000000000005 722.85000000000002 0.42708333333333343 0.92246093750000002 0.0050590000000000001 830.55000000000007 0.15505000000000002
decision_type=2 2 2 2 2 2 2 2 2 2 2 2 2 2
left_child=1 2 6 -4 5 -5 13 -8 -6 -7 -2 -10 -11 -1
right_child=10 -3 3 4 8 9 7 -9 11 12 -12 -13 -14 -15
leaf_value=0.10326560253231867 -0.10449032321779435 -0.10901465536470528 0.110526604250547 -0.15079229046505219 0.012833675670581371 -0.0094898725751722569 -0.10102830459688635 0.10393614606962959 -0.11728572638217055 0.10627789966646334 -0.010415365842968136 -0.049302422128100133 0.14397976486576194 0.11940658782113477
leaf_weight=5.0970444735139626 4.9058131445199242 1.0972130391746748 1.5592051222920416 0.37842032313346896 0.78192386962473426 0.48228797502815757 0.62841830588877179 0.44501649774610996 1.5522777177393439 1.1861452758312223 0.4407735988497733 0.54857627674937237 0.36027580127120007 0.50272834300994862
leaf_count=208 137 19 33 2 12 7 7 14 21 32 4 8 4 4
internal_value=0 0.0368745 0.048712 0.0130756 -0.0156482 0.0483122 0.0852879 -0.0160557 -0.0690553 0.0854517 -0.0967348 -0.0995339 0.115061 0.104715
internal_weight=0 14.6195 13.5223 6.84911 5.28991 2.40713 6.67321 1.07343 2.88278 2.02871 5.34659 2.10085 1.54642 5.59977
internal_count=512 371 352 119 86 45 233 21 41 43 141 29 36 212
is_linear=0
shrinkage=0.1


Tree=30
num_leaves=15
num_cat=0
split_feature=22 21 27 28 26 21 19 25 31 61 20 30 27 22
split_gain=6.22783 2.27259 2.11508 1.91787 1.50166 1.75136 0.871672 0.567002 0.47812 0.459892 0.0705226 0.0557429 0.00826785 0.00212849
threshold=121.30000000000003 23.350000000000005 0.15645000000000003 0.21010000000000004 0.21370000000000003 27.610000000000003 0.0038150000000000002 0.32520000000000004 0.77186268299549565 0.92948717948717963 15.345000000000001 0.29118795955882359 0.14360000000000003 108.7
decision_type=2 2 2 2 2 2 2 2 2 2 2 2 2 2
left_child=1 7 3 -3 8 10 -7 12 11 -2 -6 -5 13 -1
right_child=9 2 -4 4 5 6 -8 -9 -10 -11 -12 -13 -14 -15
leaf_value=0.10269276491010998 -0.10415905698894504 -0.14752701083930844 -0.10892201893923575 0.15520156229873514 0.11136453344559055 -0.10179681044695994 0.033457438329796217 0.026583809326292875 -0.027675910489298357 0.013618598110706731 0.06077811743890274 0.10358164280309333 0.12141194231469393 0.10939120377946715
leaf_weight=3.2582877669483454 4.5385693330317727 0.58224143646657278 1.3965490777045486 0.22917075455188829 0.77403512783348583 1.4473503157496455 0.71034163422882546 1.1943456046283243 0.28782496787607659 0.35766227543354023 0.42795899696648121 2.4002204965800047 0.28201831877231587 0.55521035939455021
leaf_count=152 138 5 25 1 17 19 17 18 7 3 8 92 2 8
internal_value=0 0.0360398 0.00325236 0.0260915 0.0421963 -0.00338092 -0.0572693 0.0872099 0.0946864 -0.0955556 0.0933537 0.108081 0.10489 0.103668
internal_weight=0 13.5456 8.25569 6.85914 6.2769 3.35969 2.15769 5.28986 2.91722 4.89623 1.20199 2.62939 4.09552 3.8135
internal_count=512 371 191 166 161 61 36 180 100 141 25 93 162 160
is_linear=0
shrinkage=0.1


Tree=31
num_leaves=15
num_cat=0
split_feature=23 27 24 28 21 45 58 43 41 26 20 22 31 43
split_gain=5.57003 1.94058 1.83922 1.56679 1.44668 0.905737 0.752057 0.668427 0.45871 0.00559572 0.00459603 0.00342937 0.00107767 0.00103614
threshold=874.85000000000014 0.1358 0.10055000000000001 0.19935000000000003 27.330000000000002 62.500000000000007 25.000000000000004 0.6977317116477274 0.69985992739898994 0.22710000000000002 15.280000000000001 113.15000000000002 0.9146033653846154 0.38985770089285721
decision_type=2 2 2 2 2 2 2 2 2 2 2 2 2 2
left_child=1 3 -2 -1 5 -3 8 9 11 -4 -6 13 -11 -5
right_child=2 4 7 6 10 -7 -8 -9 -10 12 -12 -13 -14 -15
leaf_value=-0.062678177836160351 0.12289545822925069 0.10203797291323335 -0.11356237986779971 0.10714962637243919 -0.11801047582012465 -0.024877244909849966 -0.010965784082220469 -0.0028860539667522815 -0.034996048536502719 -0.10326451062602032 -0.10526885441330457 0.11503926230199293 -0.10911113563642252 0.10252421818863287
leaf_weight=0.78358250483870673 0.43030660971999068 0.94174725934863168 0.67400068044662464 0.53497294709086407 0.51684987545013406 1.3956194818019865 0.70846033096313465 0.7366978134959935 0.24939123354852188 3.8414171002805233 0.62594730220735073 0.24533716216683377 0.34345313906669606 5.113541685976088
leaf_count=14 3 10 8 10 5 15 19 15 6 136 15 3 5 248
internal_value=0 0.0430649 -0.0763277 0.071274 -0.0188243 0.0262581 0.0865932 -0.0916482 0.097844 -0.105106 -0.111031 0.103465 -0.103744 0.102962
internal_weight=0 11.1154 6.02588 7.63529 3.48016 2.33737 6.8517 5.59557 6.14324 4.85887 1.1428 5.89385 4.18487 5.64851
internal_count=512 345 167 300 45 25 286 164 267 149 20 261 141 258
is_linear=0
shrinkage=0.1


Tree=32
num_leaves=15
num_cat=0
split_feature=22 21 27 28 26 21 19 23 31 61 31 60 27 20
split_gain=4.98588 1.89828 1.70936 1.4631 1.26624 1.44568 0.688932 0.616677 0.410748 0.407619 0.0977165 0.0284239 0.00733281 0.00122168
threshold=121.30000000000003 23.350000000000005 0.15645000000000003 0.21010000000000004 0.21370000000000003 27.610000000000003 0.0038150000000000002 811.85000000000002 0.77186268299549565 0.92948717948717963 0.47548253676470592 0.38235294117647062 0.15780000000000002 15.485000000000001
decision_type=2 2 2 2 2 2 2 2 2 2 2 2 2 2
left_child=1 7 3 -3 8 10 -7 12 11 -2 -6 -5 -1 -4
right_child=9 2 13 4 5 6 -8 -9 -10 -11 -12 -13 -14 -15
leaf_value=0.10279558033106427 -0.10341250278162016 -0.12888041015333027 -0.11086424755309908 0.14179991520281496 0.046377824992893342 -0.096498244240515715 0.029469422971524911 0.018475670813942368 -0.024997175811098313 0.012244706170835562 0.1103142654981208 0.10294494795115086 0.11760695221393931 -0.10445453234771701
leaf_weight=3.1493519740179168 3.7657923512160787 0.57126951403915871 0.5838658735156057 0.20788513123989183 0.35766766965389274 1.3174455370754001 0.64758044853806485 1.0958993993699548 0.26574224419891823 0.33155520260334004 0.72071744129061699 1.995797283016145 0.37394504994153965 0.60598094947636127
leaf_count=161 138 5 7 1 9 19 17 16 7 3 16 92 3 18
internal_value=0 0.0338557 0.00201894 0.0234567 0.0392427 -0.00392786 -0.0549852 0.0839898 0.0924477 -0.0940536 0.0891085 0.10661 0.104368 -0.1076
internal_weight=0 11.8931 7.27395 6.08411 5.51284 3.04341 1.96503 4.6192 2.46942 4.09735 1.07839 2.20368 3.5233 1.18985
internal_count=512 371 191 166 161 61 36 180 100 141 25 93 164 25
is_linear=0
shrinkage=0.1


Tree=33
num_leaves=15
num_cat=0
split_feature=27 73 23 21 21 15 27 58 21 32 27 22 22 21
split_gain=4.5305 1.80005 1.34212 1.1574 1.06466 0.997187 0.882566 0.809305 0.754551 0.433158 0.0252612 0.00313151 0.00106959 0.00014303
threshold=0.1358 0.54166666666666685 722.85000000000002 23.350000000000005 20.810000000000002 0.015250000000000001 0.10230000000000002 25.000000000000004 30.365000000000006 0.31738281250000006 0.14115000000000003 111.10000000000001 110.25000000000001 31.460000000000004
decision_type=2 2 2 2 2 2 2 2 2 2 2 2 2 2
left_child=1 3 -2 -1 -4 -5 -7 9 -9 -3 -6 13 -12 -11
right_child=2 7 4 5 10 6 -8 8 -10 11 12 -13 -14 -15
leaf_value=0.11170524239301771 0.023179594125153715 -0.043369177684701499 0.013126395090544926 -0.12284658489453111 -0.12722662904220619 0.10450932606495543 -0.081075039115005409 0.075936325691667736 -0.12610910751860799 0.1018616617878892 -0.10716188679178446 0.1116556443225339 -0.10247302049636005 0.10334611076971803
leaf_weight=0.53916775528341387 1.4826739020645625 0.21156401187181462 0.91211785003542889 1.0229145251214506 0.49578310176730145 0.54106978140771367 0.48679722845554352 0.41023593954741944 0.3364134170114994 3.551203915849328 0.57545414753258262 0.37514460086822499 3.1470987088978291 0.79424420371651638
leaf_count=11 18 5 13 11 5 11 9 17 4 221 12 5 139 31
internal_value=0 0.0504185 -0.0606212 -0.0186698 -0.0848392 -0.0529466 0.0166167 0.0819278 -0.0150981 0.096616 -0.106022 0.10289 -0.103198 0.102133
internal_weight=0 8.26876 6.61313 2.58995 5.13045 2.05078 1.02787 5.67881 0.746649 4.93216 4.21834 4.72059 3.72255 4.34545
internal_count=512 325 187 42 169 31 20 283 21 262 156 257 151 252
is_linear=0
shrinkage=0.1


Tree=34
num_leaves=15
num_cat=0
split_feature=27 73 21 19 58 32 19 46 42 20 27 23 41 31
split_gain=4.05179 1.65332 1.12584 1.08698 1.06839 1.00369 0.755602 0.734072 0.388487 0.418668 0.0028403 0.00176693 0.00142837 0.000996547
threshold=0.15095000000000003 0.54166666666666685 33.350000000000001 0.0015535000000000002 14.500000000000002 0.53229166666666672 0.0038550000000000004 24.500000000000004 0.62828256302521013 16.765000000000004 0.11935000000000001 754.1500000000002 0.59162272952633155 0.92246093750000002
decision_type=2 2 2 2 2 2 2 2 2 2 2 2 2 2
left_child=1 3 5 -1 11 -3 8 -4 -5 -10 -7 -2 -12 -13
right_child=4 2 7 6 -6 10 -8 -9 9 -11 12 13 -14 -15
leaf_value=0.12463663778466708 -0.10938889514673662 -0.00030308765026825418 0.061150409991994059 -0.12765779687698561 0.022560396237989312 0.10187118014365271 0.038816123079001306 -0.11719393633326319 0.034210248353437236 -0.10540893323538054 0.11236649284095722 -0.10234353839992355 0.10448859311713968 -0.10921959601882042
leaf_weight=0.41515752300619935 0.48227480612695339 1.1838019359856842 0.41986715514212836 0.95894248969852947 0.82894861325621594 3.5863507585600019 0.69294884428381909 0.51250340230762959 0.43284502904862165 0.42629596777260303 0.42282899282872666 2.7682945597916846 0.50508031155914068 0.22814556211233128
leaf_count=4 7 19 17 12 13 236 19 5 10 10 8 133 16 3
internal_value=0 0.0373546 0.0649862 -0.0252556 -0.0794605 0.0816548 -0.0500378 -0.0368815 -0.0839038 -0.0350672 0.103147 -0.103771 0.108078 -0.102867
internal_weight=0 9.55662 6.63043 2.92619 4.30766 5.69806 2.51103 0.932371 1.81808 0.859141 4.51426 3.47871 0.927909 2.99644
internal_count=512 356 301 55 156 279 51 22 32 20 260 143 24 136
is_linear=0
shrinkage=0.1


Tree=35
num_leaves=15
num_cat=0
split_feature=23 24 23 43 19 24 17 24 32 17 32 22 24 27
split_gain=3.69628 1.55971 1.44904 1.20372 1.1556 0.98822 0.961077 0.943934 0.127809 0.0970702 0.0753686 0.0317179 0.01763 0.00388062
threshold=928.50000000000011 0.14075000000000001 650.95000000000016 0.63818359375000011 0.0026275000000000001 0.10490000000000001 0.014225000000000002 0.18925000000000003 0.31738281250000006 0.0094475000000000028 0.80678013392857151 105.15000000000002 0.12135000000000001 0.16735000000000003
decision_type=2 2 2 2 2 2 2 2 2 2 2 2 2 2
left_child=1 3 7 6 -4 -2 12 13 -5 -6 -7 -11 -1 -3
right_child=5 2 4 8 9 10 -8 -9 -10 11 -12 -13 -14 -15
leaf_value=0.10466523410426026 0.057367792066130213 0.10199259719863958 0.07854508813953387 0.041750439421908855 -0.15096884671655753 -0.10384416185573958 -0.063886432159854803 -0.090176676901312827 0.10315601483431458 -0.071175682450072289 -0.049055614845929914 -0.10688154639198899 0.070505919928069261 0.11638068478410304
leaf_weight=0.40498014166950991 0.45560894720256451 0.83352524787187598 0.4039162816479801 0.37365388683974732 0.43742519617080677 3.1319540608674292 1.0226144557818768 0.32100724056363095 3.6504147537052631 0.36300198920071103 0.27296178229153145 0.79069012030959129 0.24100246652960777 0.24184310436248779
leaf_count=13 6 54 6 8 2 136 13 5 215 9 10 23 10 2
internal_value=0 0.035861 -0.0178236 0.0678436 -0.0725096 -0.0809445 -0.00356692 0.0603075 0.0974542 -0.110856 -0.0994519 -0.0956469 0.0919211 0.105228
internal_weight=0 9.08407 3.39141 5.69267 1.99503 3.86052 1.6686 1.39638 4.02407 1.59112 3.40492 1.15369 0.645983 1.07537
internal_count=512 360 101 259 40 152 36 61 223 34 146 32 23 56
is_linear=0
shrinkage=0.1


Tree=36
num_leaves=15
num_cat=0
split_feature=22 21 27 28 26 21 25 19 31 28 22 30 27 20
split_gain=3.30915 1.40289 1.19858 0.936821 0.939929 1.02514 0.504445 0.444403 0.426945 0.294783 0.0882881 0.00941594 0.00350177 0.000545406
threshold=121.30000000000003 23.350000000000005 0.15645000000000003 0.21010000000000004 0.21370000000000003 27.610000000000003 0.32520000000000004 0.0038150000000000002 0.9488592462225276 0.32305000000000006 106.30000000000003 0.29118795955882359 0.1358 15.485000000000001
decision_type=2 2 2 2 2 2 2 2 2 2 2 2 2 2
left_child=1 6 3 -3 9 10 12 -7 -2 11 -6 -5 -1 -4
right_child=8 2 13 4 5 7 -8 -9 -10 -11 -12 -13 -14 -15
leaf_value=0.10208271980305601 -0.10255413042687452 -0.10993394798897725 -0.10810455579901901 0.12723710764044591 0.10683592851687063 -0.088627212662382743 0.017757548799291322 0.024810477120391604 0.04547457866377827 -0.023619816805141788 0.039454915367073476 0.10221477724472701 0.11202961218265446 -0.10318582653992536
leaf_weight=2.1160990428179494 2.6972299888730062 0.49654464609920967 0.46696423366665829 0.16824163496494282 0.55619818344712291 1.0839376188814638 0.93261296488344658 0.50683433935046185 0.21001165360212315 0.20121433120220888 0.29899273812770844 1.4170073065906761 0.42501058056950558 0.4358341982588172
leaf_count=157 139 5 7 1 19 19 18 17 2 8 6 91 5 18
internal_value=0 0.0306817 -0.000145576 0.0200113 0.0352564 -0.00501761 0.0806604 -0.0524849 -0.0918609 0.0903982 0.0832781 0.10487 0.103746 -0.10573
internal_weight=0 9.10549 5.63177 4.72897 4.23243 2.44596 3.47372 1.59077 2.90724 1.78646 0.855191 1.58525 2.54111 0.902798
internal_count=512 371 191 166 161 61 180 36 141 100 25 92 162 25
is_linear=0
shrinkage=0.1


Tree=37
num_leaves=15
num_cat=0
split_feature=23 24 23 43 19 24 28 24 26 32 61 19 25 16
split_gain=2.95324 1.30535 1.23549 1.03128 0.926658 0.886555 0.803853 0.767183 0.455575 0.14529 0.0816036 0.0684639 0.0435416 0.0294159
threshold=928.50000000000011 0.14075000000000001 650.95000000000016 0.63818359375000011 0.0026275000000000001 0.10355000000000002 0.19935000000000003 0.18925000000000003 0.26000000000000006 0.31738281250000006 0.92948717948717963 0.0031305000000000005 0.41975000000000007 0.031970000000000005
decision_type=2 2 2 2 2 2 2 2 2 2 2 2 2 2
left_child=1 3 7 6 -4 -2 -1 -3 13 -5 -7 -6 -13 -8
right_child=5 2 4 9 11 10 8 -9 -10 -11 -12 12 -14 -15
leaf_value=-0.12038244401891728 0.059920523762342685 0.10470533557323147 0.072425028306037517 0.034286419586189033 -0.13438722614905321 -0.10298639299582778 0.10391867848005105 -0.08274069337121874 -0.046224423651417636 0.10277291966218192 -0.036901798256473543 -0.057145595153087848 -0.10536964298168844 0.059632686576133867
leaf_weight=0.42268450558185566 0.40362346917390857 0.91664875391870759 0.35858223866671313 0.34431993495672975 0.56821762956678845 2.6698448155075316 0.48161624465137698 0.28661947511136532 0.37718632817268372 3.0861749742180109 0.20091863721609104 0.27871057763695717 0.5704324534162879 0.21781948953866959
leaf_count=3 5 56 6 8 4 144 19 5 7 215 3 14 16 7
internal_value=0 0.0340799 -0.0181797 0.0656618 -0.0711871 -0.0788504 -0.00352225 0.0600555 0.0423574 0.0958989 -0.0983613 -0.10752 -0.0895413 0.0901271
internal_weight=0 7.90901 2.97921 4.9298 1.77594 3.27439 1.49931 1.20327 1.07662 3.43049 2.87076 1.41736 0.849143 0.699436
internal_count=512 360 101 259 40 152 36 61 33 223 147 34 30 26
is_linear=0
shrinkage=0.1


Tree=38
num_leaves=15
num_cat=0
split_feature=22 21 23 32 24 25 26 46 24 20 15 24 24 27
split_gain=2.66411 1.22935 1.18145 1.14839 1.12622 0.777309 0.60586 0.314211 0.229804 0.145002 0.10318 0.0545543 0.0202699 0.00214807
threshold=121.30000000000003 20.810000000000002 650.95000000000016 0.9552680121527779 0.12405000000000001 0.099855000000000013 0.11935000000000001 45.500000000000007 0.13785000000000003 16.765000000000004 0.012745000000000001 0.15490000000000001 0.14295000000000005 0.15505000000000002
decision_type=2 2 2 2 2 2 2 2 2 2 2 2 2 2
left_child=1 -1 3 11 5 -4 -2 8 -6 -7 -5 13 -10 -3
right_child=6 2 4 10 7 9 -8 -9 12 -11 -12 -13 -14 -15
leaf_value=0.10408677654743553 0.11842993466140833 0.10181659956117861 -0.10449212141578929 -0.10220004360766431 -0.028704011228604911 0.10356029387948425 -0.10233092556786257 -0.0061541625546439795 -0.13239251151140971 0.019104937533445679 -0.022090511434801625 0.03929566415604388 -0.10587927783175051 0.1115587145108425
leaf_weight=1.7146832188591359 0.13140170276165042 1.5369249344803395 0.28287777118384871 0.25322395935654629 0.40668104775249991 0.79437847901135661 2.3055159458890557 0.5345241930335759 0.44026441778987624 0.27320878952741623 0.44040108937770128 0.1440329523757099 0.83569843042641878 0.26541539281606663
leaf_count=108 1 130 4 4 11 38 140 16 4 3 16 8 26 3
internal_value=0 0.0291348 0.00843139 0.0591461 -0.0290968 0.0428943 -0.0904272 -0.0729461 -0.0941639 0.0819471 -0.0513364 0.0985185 -0.115028 0.103251
internal_weight=0 7.92231 6.20763 2.64 3.56763 1.35047 2.43692 2.21717 1.68264 1.06759 0.693625 1.94637 1.27596 1.80234
internal_count=512 371 263 161 102 45 141 57 41 41 20 141 30 133
is_linear=0
shrinkage=0.1


Tree=39
num_leaves=15
num_cat=0
split_feature=22 21 23 32 24 18 26 18 46 24 24 31 26 29
split_gain=2.38828 1.12187 1.03245 1.03151 0.971068 0.68608 0.545514 0.360213 0.291615 0.229283 0.0667016 0.0518201 0.0148368 0.00393145
threshold=121.30000000000003 20.810000000000002 650.95000000000016 0.9552680121527779 0.12405000000000001 0.010415000000000002 0.11935000000000001 0.025955000000000002 45.500000000000007 0.13785000000000003 0.15765000000000004 0.69574968204941878 0.30150000000000005 0.060785000000000013
decision_type=2 2 2 2 2 2 2 2 2 2 2 2 2 2
left_child=1 -1 3 10 5 -4 -2 13 9 -6 -3 -5 -11 -7
right_child=6 2 4 11 8 7 -8 -9 -10 12 -12 -13 -14 -15
leaf_value=0.10370936374817315 0.11637157522659131 0.10292326079918057 -0.11754141245699568 -0.018022079488302731 -0.02604842059657822 0.1206876261044227 -0.10210903520425992 -0.036649600296184991 -0.0055405579476606147 -0.12906889008722297 0.027239406217032892 -0.072917852324863752 -0.10533785737183721 0.10318848260635749
leaf_weight=1.5568684781901536 0.12089176476001773 1.6521371416747572 0.22307416796684298 0.33086465205997218 0.40350447874516282 0.15969064738601424 2.0904197497293353 0.22367955185472965 0.53435876220464695 0.4008491914719341 0.12527736462652672 0.35803612880408764 0.76863706298172474 0.65492948377504945
leaf_count=108 1 134 2 11 11 2 140 5 16 4 7 9 26 36
internal_value=0 0.0282888 0.00816556 0.0573267 -0.0278264 0.0415703 -0.0901648 0.0757547 -0.0693644 -0.0910459 0.0975888 -0.0465526 -0.113472 0.106619
internal_weight=0 7.39191 5.83504 2.46632 3.36872 1.26137 2.21131 1.0383 2.10735 1.57299 1.77741 0.688901 1.16949 0.81462
internal_count=512 371 263 161 102 45 141 43 57 41 141 20 30 38
is_linear=0
shrinkage=0.1


Tree=40
num_leaves=15
num_cat=0
split_feature=27 58 19 19 21 32 58 21 17 30 20 16 27 22
split_gain=2.15887 0.916316 0.667864 0.670317 0.650326 0.705098 0.61573 0.24567 0.150265 0.20415 0.1421 0.131522 0.00122547 0.000937117
threshold=0.14750000000000005 6.5000000000000009 0.0015535000000000002 0.0037760000000000003 33.350000000000001 0.53229166666666672 14.500000000000002 24.120000000000001 0.013415000000000002 0.21152761530748668 14.485000000000001 0.089240000000000028 0.14525000000000002 112.05000000000001
decision_type=2 2 2 2 2 2 2 2 2 2 2 2 2 2
left_child=1 2 -1 8 5 -3 11 -5 9 -4 -6 -2 13 -7
right_child=6 4 3 7 10 12 -8 -9 -10 -11 -12 -13 -14 -15
leaf_value=0.11397313442159734 -0.10246931982876638 -0.0091037494282496436 -0.10616210023443429 0.10382501957638091 0.015027547773501385 0.10135207948977598 0.021160670120797292 -0.024939130576542578 -0.11652545859701675 0.026754566710802813 -0.080109246212375265 -0.0024318438666546651 0.11311112877020457 0.10786528948650161
leaf_weight=0.31657543266192112 2.0653550438582906 0.71788353659212623 0.2443872047588227 0.31252052728086699 0.31965489592403162 2.3575601456686863 0.56182816624641407 0.28175490535795689 0.70928087830543518 0.2192028509452939 0.30853770487010479 0.1403544209897517 0.10247769206762303 0.24374295398592938
leaf_count=7 141 15 8 12 14 245 13 12 11 14 6 8 1 5
internal_value=0 0.0340992 -0.0197855 -0.0437477 0.0618239 0.078994 -0.0722983 0.042776 -0.0875879 -0.0433141 -0.031699 -0.0961037 0.102385 0.101962
internal_weight=0 6.13358 2.08372 1.76715 4.04986 3.42166 2.76754 0.594275 1.17287 0.46359 0.628193 2.20571 2.70378 2.6013
internal_count=512 350 64 57 286 266 162 24 33 22 20 149 251 250
is_linear=0
shrinkage=0.1


Tree=41
num_leaves=15
num_cat=0
split_feature=22 21 23 24 28 24 31 26 34 31 19 21 27 32
split_gain=1.95269 0.970127 0.898668 0.765353 0.744007 0.8934 0.366933 0.336949 0.267005 0.130452 0.0131213 0.00353877 0.00184466 0.000990171
threshold=121.30000000000003 20.810000000000002 739.85000000000002 0.11245000000000001 0.19935000000000003 0.16445000000000001 0.32268415178571436 0.14515000000000003 0.61021716976580653 0.9146033653846154 0.0021375000000000001 22.340000000000003 0.14525000000000002 0.11386718750000001
decision_type=2 2 2 2 2 2 2 2 2 2 2 2 2 2
left_child=1 13 4 -4 -3 6 -6 -2 -5 12 -10 -12 -8 -1
right_child=7 2 3 8 5 -7 9 -9 10 -11 11 -13 -14 -15
leaf_value=0.11055408314069133 0.064498140256619152 -0.096901906891308592 0.072781296170390003 -0.00074583199668200502 -0.002787885192467675 -0.080150804585023439 0.1014944776577415 -0.10173976499181109 -0.081745355072237333 -0.011286272223020529 -0.11851017251417206 -0.10449661286473527 0.10907666326649919 0.1023146632924351
leaf_weight=0.16698642820119847 0.13129353895783413 0.35653455834835801 0.41669468441978086 0.32810917310416687 0.44904117286205369 0.41165935900062312 1.5069654253311457 1.7093164427205918 0.2354847155511377 0.10516173439100374 0.24403116852045059 0.68892131745815277 0.40767096914350975 1.1524908542633054
leaf_count=2 2 6 15 11 16 10 155 139 9 7 2 26 6 106
internal_value=0 0.0268533 0.00725331 -0.0470809 0.0393674 0.0562342 0.0789753 -0.0898818 -0.080455 0.0971529 -0.102838 -0.108162 0.103109 0.103357
internal_weight=0 6.46975 5.15027 1.91324 3.23703 2.8805 2.46884 1.84061 1.49655 2.0198 1.16844 0.932952 1.91464 1.31948
internal_count=512 371 263 63 200 194 184 141 48 168 37 28 161 108
is_linear=0
shrinkage=0.1


Tree=42
num_leaves=15
num_cat=0
split_feature=27 58 19 30 26 16 43 21 29 21 24 47 22 43
split_gain=1.76271 0.948422 0.614719 0.635103 0.564996 0.914756 0.400906 0.389061 0.328014 0.253176 0.128946 0.0604308 0.00894143 0.00706683
threshold=0.16030000000000003 6.5000000000000009 0.0015535000000000002 0.94186622509057982 0.21370000000000003 0.026245000000000001 0.96698922821969713 22.065000000000001 0.071190000000000017 26.320000000000004 0.10490000000000001 5.5000000000000009 101.30000000000003 0.8741714015151516
decision_type=2 2 2 2 2 2 2 2 2 2 2 2 2 2
left_child=1 2 -1 7 -3 9 -2 -4 -7 -6 -9 -10 -12 -13
right_child=6 4 3 -5 5 8 -8 10 11 -11 12 13 -14 -15
leaf_value=0.11177856626934349 -0.10219274920492659 0.10120477232859004 0.058824901601039217 0.10256396961888561 0.01346317604481964 -0.10508457987739808 0.039266874023065508 -0.03107912346469684 0.039730456318645087 -0.095278690184562129 -0.12932384835836294 0.10625594593861404 -0.10457732224061583 0.087580328305474825
leaf_weight=0.27321016928181086 1.60627572145313 1.6456310614012184 0.19396417215466488 0.23732735961675633 0.347982493694872 0.091388665139675029 0.22889362461864937 0.26877751853317011 0.19047850277274836 0.55652194749563932 0.17533300817012765 0.73569868551567175 0.87299906089901924 0.27962773386389017
leaf_count=7 130 208 10 14 13 2 5 10 10 12 1 23 40 27
internal_value=0 0.027739 -0.0277174 -0.0495154 0.0568791 0.0237484 -0.084549 -0.0734008 0.0775725 -0.0534433 -0.0928731 0.0914162 -0.108716 0.101113
internal_weight=0 5.86894 2.02161 1.7484 3.84733 2.2017 1.83517 1.51107 1.29719 0.904504 1.31711 1.2058 1.04833 1.01533
internal_count=512 377 82 75 295 87 135 61 62 25 51 60 41 50
is_linear=0
shrinkage=0.1


Tree=43
num_leaves=15
num_cat=0
split_feature=22 21 22 24 43 32 46 24 26 23 17 24 18 32
split_gain=1.58132 0.824335 0.761682 0.544903 0.56226 0.461294 0.419168 0.391755 0.376615 0.338944 0.150737 0.00883766 0.0050784 0.000539735
threshold=121.30000000000003 20.810000000000002 85.075000000000003 0.14075000000000001 0.6977317116477274 0.31738281250000006 50.500000000000007 0.10765000000000001 0.11935000000000001 650.95000000000016 0.014225000000000002 0.14215000000000003 0.011965000000000002 0.18115234375000003
decision_type=2 2 2 2 2 2 2 2 2 2 2 2 2 2
left_child=1 13 -3 4 7 -6 9 -4 -2 -5 -9 -11 -7 -1
right_child=8 2 3 6 5 12 -8 10 -10 11 -12 -13 -14 -15
leaf_value=0.10733144540295564 0.11090177557049703 0.10185196795870909 0.048323971478498554 0.007144950949924414 -0.10377304168417478 0.073295139180958507 0.049790590648814047 -0.022782411866545633 -0.1014757678381466 -0.12410601127106353 -0.11451124292998148 -0.10361155629147108 0.10268660057647805 0.10175112297869759
leaf_weight=0.21506484877318122 0.0886380374431609 0.70626397291198362 0.43631635373458333 0.33041232917457797 0.1259760186076162 0.063258920330554247 0.30601430684328068 0.3355100336484611 1.4401667579077182 0.30909256637096405 0.38439416885375977 0.65903515135869384 0.83168301358819008 0.89306841883808374
leaf_count=5 1 84 13 15 4 5 11 15 140 2 6 30 78 103
internal_value=0 0.0255949 0.00652359 -0.0112798 0.0213077 0.0753894 -0.0554961 -0.0264453 -0.0891624 -0.080308 -0.0717612 -0.110155 0.100609 0.102834
internal_weight=0 5.59609 4.48796 3.78169 2.17714 1.02092 1.60455 1.15622 1.5288 1.29854 0.719904 0.968128 0.894942 1.10813
internal_count=512 371 263 179 121 87 58 34 141 47 21 32 83 108
is_linear=0
shrinkage=0.1


Tree=44
num_leaves=15
num_cat=0
split_feature=22 21 22 27 15 43 23 26 17 20 17 21 22 32
split_gain=1.4196 0.751488 0.687144 0.481858 0.671225 0.605841 0.410117 0.339826 0.221164 0.203029 0.044131 0.00217057 0.00142517 0.000395844
threshold=121.30000000000003 20.810000000000002 85.075000000000003 0.1358 0.012035000000000002 0.34933035714285721 722.85000000000002 0.11935000000000001 0.0088485000000000005 16.455000000000002 0.0060255000000000005 22.340000000000003 113.15000000000002 0.18115234375000003
decision_type=2 2 2 2 2 2 2 2 2 2 2 2 2 2
left_child=1 13 -3 4 8 -6 -5 -2 9 -4 -7 -8 -12 -1
right_child=7 2 3 6 5 10 11 -9 -10 -11 12 -13 -14 -15
leaf_value=0.10659561473090047 0.1097573752770049 0.10168203831489198 0.10097530823324026 0.0010103565510142707 -0.053477691515568429 0.030461878392145914 -0.11465819098460384 -0.10133532725337735 -0.099309233803887176 -0.091179673272118691 0.10162876958238927 -0.10254817080415278 0.11116345700828204 0.10158560428858948
leaf_weight=0.19587340718135215 0.08099638670682896 0.64006778318434943 0.13190306816250164 0.6812812518328426 0.35634526051580895 0.090280018281191365 0.20091536641120911 1.3048308892175553 0.47399142617359757 0.094295219518244267 0.76845862483605742 0.56205824296921492 0.19694346003234386 0.80933140125125647
leaf_count=5 1 84 20 15 11 11 2 140 8 3 74 32 3 103
internal_value=0 0.0249005 0.00629817 -0.0108683 0.0195687 0.0592651 -0.0553824 -0.0889978 -0.0604844 0.0208717 0.0973215 -0.105737 0.103574 0.102562
internal_weight=0 5.20174 4.19654 3.55647 2.11222 1.41203 1.44425 1.38583 0.70019 0.226198 1.05568 0.762974 0.965402 1.0052
internal_count=512 371 263 179 130 99 49 141 31 23 88 34 77 108
is_linear=0
shrinkage=0.1


Tree=45
num_leaves=15
num_cat=0
split_feature=23 27 31 19 27 15 43 29 43 15 31 27 20 30
split_gain=1.28952 0.662623 0.53589 0.480622 0.384711 0.413544 0.325376 0.332894 0.274865 0.238153 0.0102918 0.000973531 0.000314289 0.000203222
threshold=928.50000000000011 0.17695000000000002 0.4963809742647059 0.0016740000000000004 0.1358 0.012035000000000002 0.42106119791666669 0.10250000000000002 0.34933035714285721 0.033760000000000005 0.52466517857142858 0.14235000000000003 17.370000000000001 0.6229992378048782
decision_type=2 2 2 2 2 2 2 2 2 2 2 2 2 2
left_child=1 2 4 -2 5 -1 -4 10 -7 -9 -8 -12 -5 -10
right_child=3 -3 6 12 -6 8 7 9 13 -11 11 -13 -14 -15
leaf_value=-0.064889884054453867 0.033799780407708202 -0.10312421726817229 -0.019788487945849809 -0.10818131086591654 -0.095897968230737707 -0.038982903443107383 0.07216319525544744 -0.079350884311448266 0.1061455612925695 0.06659093220202221 0.10120277077073102 0.10716042816280494 -0.10129092061184267 0.10138946111614056
leaf_weight=0.36536147911101557 0.32694429298862804 0.35024312511086453 0.37133761402219567 0.069906666874885448 0.37445979332551349 0.18546443060040474 0.12046991754323277 0.19336957298219193 0.11452281661331654 0.26511246431618929 1.3504384518600998 0.34418999776244152 1.2475896556861696 0.41683778446167707
leaf_count=15 9 18 11 1 15 6 13 5 3 15 209 6 142 44
internal_value=0 0.0289005 0.0401744 -0.0747254 -0.00853268 0.0216976 0.066999 0.0811738 0.0658307 0.00503845 0.100405 0.102413 -0.101657 0.102415
internal_weight=0 4.45181 4.10156 1.64444 1.45665 1.08219 2.64492 2.27358 0.716825 0.458482 1.8151 1.69463 1.3175 0.531361
internal_count=512 360 342 152 83 68 259 248 53 20 228 215 143 47
is_linear=0
shrinkage=0.1


Tree=46
num_leaves=15
num_cat=0
split_feature=27 23 21 18 42 21 24 20 27 19 24 20 27 27
split_gain=1.15555 0.750412 0.724487 0.559298 0.487185 0.657841 0.35584 0.172792 0.372496 0.058617 0.0161874 0.00157079 0.00050131 0.00021702
threshold=0.17695000000000002 739.85000000000002 20.810000000000002 0.016490000000000001 0.28256460336538464 33.350000000000001 0.10055000000000001 16.485000000000003 0.1358 0.0025535000000000006 0.10935000000000002 16.765000000000004 0.14895000000000003 0.14235000000000003
decision_type=2 2 2 2 2 2 2 2 2 2 2 2 2 2
left_child=1 3 9 4 -1 13 -4 8 -8 -3 -9 -12 -5 -6
right_child=-2 2 6 12 5 -7 7 10 -10 -11 11 -13 -14 -15
leaf_value=-0.11748685189999963 -0.10153136861808623 0.10534480947484917 0.084387176859828453 0.10100530478316833 0.10097606270947851 -0.071564834876045896 0.05396142730088186 -0.068645522642085482 -0.10375624838440543 0.037742249946393129 -0.11492059103923472 -0.10210934586123666 0.10675985285790124 0.10505985767454001
leaf_weight=0.24609735608100913 0.92162831500172604 0.32730780565179918 0.16572344908490766 1.1806878172792492 0.42439541826024652 0.33811371959745884 0.28627263102680423 0.15629425179213285 0.3140003914013505 0.21091125905513763 0.11297708749771118 0.62600861489772797 0.17365063726901997 0.18767314590513706
leaf_count=2 109 12 5 195 67 10 16 8 12 11 1 56 3 5
internal_value=0 0.0208237 -0.0219778 0.0577331 0.00790821 0.0403856 -0.054645 -0.0700513 -0.0285401 0.0788535 -0.097884 -0.104068 0.101743 0.102228
internal_weight=0 4.75011 2.1995 2.55062 1.19628 0.950182 1.66128 1.49555 0.600273 0.538219 0.89528 0.738986 1.35434 0.612069
internal_count=512 403 121 282 84 82 98 93 28 23 65 57 198 72
is_linear=0
shrinkage=0.1


Tree=47
num_leaves=15
num_cat=0
split_feature=22 21 22 24 45 29 46 26 23 24 23 24 22 18
split_gain=1.04553 0.581754 0.536173 0.364843 0.39996 0.421282 0.29492 0.268209 0.231718 0.122307 0.0251936 0.00303534 0.00016209 0.000115791
threshold=121.30000000000003 20.810000000000002 85.075000000000003 0.14075000000000001 72.000000000000014 0.069550000000000015 50.500000000000007 0.11935000000000001 650.95000000000016 0.13005000000000003 729.05000000000007 0.14215000000000003 104.45000000000002 0.041945000000000003
decision_type=2 2 2 2 2 2 2 2 2 2 2 2 2 2
left_child=1 12 13 4 5 -4 8 -2 -5 -7 -6 -10 -1 -3
right_child=7 2 3 6 10 9 -8 -9 11 -11 -12 -13 -14 -15
leaf_value=0.10052708720447252 0.10760740109192223 0.10079764836066639 -0.065769967705200591 0.0014622495281681079 0.10125896464908078 0.10231147298714359 0.045242843666954774 -0.10105058740443817 -0.11647481334710555 0.002571935532401981 0.038773785429779307 -0.10259172288235761 0.10343051174852994 0.10561771571717138
leaf_weight=0.39403746393509198 0.065697982907295005 0.44335100101307068 0.65821772627532504 0.27147128735668935 0.44556523812934745 0.26681964239105582 0.24714061757549644 0.98835568130016327 0.23745588213205338 0.22800959483720362 0.075453336350619793 0.46760335238650441 0.3755312692373991 0.056151331169530749
leaf_count=93 1 82 18 15 65 19 11 140 2 12 7 30 15 2
internal_value=0 0.0234371 0.00565313 -0.010841 0.0194958 -0.013361 -0.0523438 -0.0880452 -0.077041 0.056353 0.0922099 -0.107267 0.101944 0.101339
internal_weight=0 4.16681 3.39724 2.89774 1.67407 1.15305 1.22367 1.05405 0.976531 0.494829 0.521019 0.705059 0.769569 0.499502
internal_count=512 371 263 179 121 49 58 141 47 31 72 32 108 84
is_linear=0
shrinkage=0.1


Tree=48
num_leaves=15
num_cat=0
split_feature=27 22 21 28 21 24 28 31 20 32 28 21 27 22
split_gain=0.957686 0.601884 0.588054 0.357398 0.512357 0.317989 0.171583 0.136495 0.0659464 0.0442363 0.00655448 0.00058961 0.000376103 0.000234073
threshold=0.17695000000000002 107.45000000000002 20.810000000000002 0.19935000000000003 33.350000000000001 0.088105000000000017 0.36215000000000003 0.39310067160087725 14.345000000000001 0.42106119791666669 0.24850000000000003 21.415000000000003 0.14235000000000003 116.05000000000003
decision_type=2 2 2 2 2 2 2 2 2 2 2 2 2 2
left_child=1 3 -3 -1 6 -4 9 -7 -6 -5 -9 -12 -11 -13
right_child=-2 2 5 4 8 7 -8 10 -10 12 11 13 -14 -15
leaf_value=-0.049840131327270422 -0.10135099076897841 0.073329459222923749 0.11178930778195806 0.0093148445584238203 0.0034105433254964777 -0.020446145134369667 -0.012690678201220024 -0.076748065092042156 -0.07625961939879336 0.10086719454877886 -0.11183837574384409 -0.10503296834379242 0.10501028508999566 -0.10102902354701736
leaf_weight=0.30784393055364523 0.77008963422849763 0.42293596919625986 0.094338230788707622 0.05377289326861534 0.21867884881794442 0.28568881517276146 0.15193927148357023 0.096978756599128246 0.19793874770402908 1.2900437978096304 0.094647817313671112 0.34627187112346292 0.26393640972673882 0.25245789764449
leaf_count=14 109 17 1 5 14 19 8 11 7 254 1 11 7 34
internal_value=0 0.0202416 -0.0277316 0.0510113 0.065277 -0.0642516 0.0888859 -0.0796853 -0.0344415 0.0984853 -0.101098 -0.104504 0.101571 -0.103345
internal_weight=0 4.07747 1.59332 2.48415 2.17631 1.17038 1.75969 1.07605 0.416618 1.60775 0.790356 0.693378 1.55398 0.59873
internal_count=512 403 94 309 295 77 274 76 21 266 57 46 261 45
is_linear=0
shrinkage=0.1


Tree=49
num_leaves=15
num_cat=0
split_feature=27 43 21 23 21 15 16 46 29 22 42 26 21 30
split_gain=0.866922 0.482135 0.416077 0.473529 0.379971 0.488039 0.229663 0.223152 0.147405 0.0817053 0.0415029 0.0354751 0.0277103 0.00118897
threshold=0.1358 0.78493652343750009 27.225000000000005 811.85000000000002 23.350000000000005 0.015250000000000001 0.050350000000000006 24.500000000000004 0.10250000000000002 113.15000000000002 0.62828256302521013 0.26000000000000006 33.350000000000001 0.98474612520128846
decision_type=2 2 2 2 2 2 2 2 2 2 2 2 2 2
left_child=1 4 3 8 -1 10 11 -5 -2 -3 -6 -7 -12 -4
right_child=2 9 13 7 5 6 -8 -9 -10 -11 12 -13 -14 -15
leaf_value=0.10192160294290827 0.1040331014960364 0.10073041321916705 -0.10113381554256143 0.056192418105954191 -0.11145341772836932 0.1044233960820392 -0.054172796295030926 -0.10343845773818633 0.0018316852336901423 -0.013522468538769528 -0.029799007333424433 0.043665373789349961 -0.08621550950343565 -0.11274432598928762
leaf_weight=0.31611936097033355 0.29636012203991391 0.94277586368843891 0.7332334651146083 0.10778343584388494 0.27781353145837762 0.27637337171472609 0.17040415829978883 0.46701269154436886 0.2694148225709796 0.067042612470686436 0.16443219291977584 0.14732548873871565 0.18502951599657536 0.10025995224714279
leaf_count=45 10 210 111 4 5 22 11 51 10 3 14 9 6 1
internal_value=0 0.0394631 -0.0488252 -0.00957916 0.00420514 -0.021086 0.0438671 -0.0735051 0.0553661 0.0931451 -0.0826042 0.0832971 -0.0596699 -0.10253
internal_weight=0 2.54732 1.97406 1.14057 1.5375 1.22138 0.594103 0.574796 0.565775 1.00982 0.627275 0.423699 0.349462 0.833493
internal_count=512 325 187 75 112 67 42 55 20 213 25 31 20 112
is_linear=0
shrinkage=0.1


Tree=50
num_leaves=15
num_cat=0
split_feature=22 21 27 15 16 23 23 43 26 26 43 27 27 20
split_gain=0.795144 0.474267 0.385193 0.290617 0.338195 0.202583 0.166109 0.150443 0.289986 0.145342 0.0159716 0.000199146 8.79317e-05 2.62486e-05
threshold=121.30000000000003 23.350000000000005 0.15645000000000003 0.017790000000000004 0.012640000000000002 767.10000000000002 811.85000000000002 0.79528808593750011 0.36070000000000008 0.14515000000000003 0.96698922821969713 0.15780000000000002 0.14525000000000002 15.485000000000001
decision_type=2 2 2 2 2 2 2 2 2 2 2 2 2 2
left_child=1 6 3 4 -3 10 11 -6 -9 -2 12 -1 -5 -4
right_child=9 2 13 5 7 -7 -8 8 -10 -11 -12 -13 -14 -15
leaf_value=0.10075571281053933 0.049627810462460814 0.10078871429443939 -0.10300419894551627 0.10114367826947142 -0.082038999847493313 0.0014314215915278824 0.017054679954930287 0.10104891145920472 -0.10956085471791346 -0.10084428611631724 0.052253471231945306 0.10504437893812818 0.10438398753244403 -0.10123598553216402
leaf_weight=0.64189587044529639 0.070261530578136333 0.17677518189884744 0.1855443101376294 0.33437831467017531 0.54364006733521819 0.41979590663686395 0.33380570262670517 0.15075522917322814 0.1154362503439188 0.7430303143337369 0.075614563655108213 0.13024431839585304 0.11173162236809731 0.15333092701621354
leaf_count=161 2 33 7 46 19 19 16 28 2 139 16 3 3 18
internal_value=0 0.0223109 -0.00387982 0.013401 -0.0245249 0.0531431 0.0759974 -0.0518791 0.00971615 -0.0878448 0.0947519 0.101479 0.101955 -0.102204
internal_weight=0 3.37295 2.267 1.92813 0.986607 0.94152 1.10595 0.809832 0.266191 0.813292 0.521725 0.77214 0.44611 0.338875
internal_count=512 371 191 166 82 84 180 49 30 141 65 164 49 25
is_linear=0
shrinkage=0.1


Tree=51
num_leaves=15
num_cat=0
split_feature=27 43 21 23 21 15 32 16 21 22 42 29 30 30
split_gain=0.715408 0.39958 0.34455 0.379636 0.308511 0.390676 0.235159 0.204643 0.13039 0.0689071 0.0432903 0.0366974 0.0355445 0.000630958
threshold=0.1358 0.78493652343750009 27.225000000000005 811.85000000000002 23.350000000000005 0.015250000000000001 0.13974609375000002 0.050350000000000006 23.740000000000006 113.15000000000002 0.62828256302521013 0.073865000000000014 0.29118795955882359 0.98474612520128846
decision_type=2 2 2 2 2 2 2 2 2 2 2 2 2 2
left_child=1 4 3 8 -1 10 -5 12 -2 -3 -6 -12 -7 -4
right_child=2 9 13 6 5 7 -8 -9 -10 -11 11 -13 -14 -15
leaf_value=0.10166367325844926 0.10328887978812643 0.1006133103728843 -0.10096230946719678 0.075324937259211619 -0.10950621830537975 0.036987530263941491 -0.10322622046318014 -0.052167477077131333 5.7803837794988815e-06 -0.0080823242791341864 -0.014625562357140796 -0.082762316260973801 0.10260296813329615 -0.11020400815691976
leaf_weight=0.26585521991364736 0.24826821312308289 0.7797591877169906 0.6118853238876909 0.089811233803629875 0.23702886374667265 0.12063533999025822 0.41278845327906311 0.16218893672339618 0.24077440332621336 0.063038029707968235 0.13966483576223254 0.18211339320987463 0.261560003971681 0.084018737077713013
leaf_count=45 10 210 111 5 5 5 50 11 10 3 11 9 26 1
internal_value=0 0.0383117 -0.0481394 -0.0102868 0.00496311 -0.0183405 -0.0713203 0.0419517 0.0524387 0.0924833 -0.0770766 -0.0531882 0.0818922 -0.102078
internal_weight=0 2.21184 1.68755 0.991642 1.36905 1.10319 0.5026 0.544384 0.489043 0.842797 0.558807 0.321778 0.382195 0.695904
internal_count=512 325 187 75 112 67 55 42 20 213 25 20 31 112
is_linear=0
shrinkage=0.1


Tree=52
num_leaves=15
num_cat=0
split_feature=26 23 42 24 21 23 43 28 27 31 47 31 20 25
split_gain=0.657153 0.497193 0.383519 0.361896 0.248282 0.213725 0.127665 0.105379 0.143516 0.0537176 0.0322877 0.0283827 0.000516036 0.000318467
threshold=0.21370000000000003 963.25000000000011 0.28256460336538464 0.12565000000000001 25.810000000000006 811.85000000000002 0.23860677083333337 0.26960000000000001 0.12195000000000002 0.2063432173295455 16.500000000000004 0.28302556818181823 18.160000000000004 0.28835000000000005
decision_type=2 2 2 2 2 2 2 2 2 2 2 2 2 2
left_child=2 3 -1 11 5 10 -4 -6 -9 -8 -5 -2 -11 -10
right_child=1 -3 6 4 7 -7 9 8 13 12 -12 -13 -14 -15
leaf_value=-0.057078944237796331 0.02638464963208394 -0.10105282173176824 -0.027423606509883815 0.10250406239235635 0.019594996230768765 -0.055490036218218457 -0.036926164552573207 -0.0022314253768915128 -0.10721411015126717 0.10057755250048216 0.030324886958193648 0.10167262976764942 0.10758761080138995 -0.1016689233746476
leaf_weight=0.22928089601919088 0.060266932938248252 0.69594053411856283 0.090223817620426194 0.22249491827096768 0.14482920058071613 0.1768784134183079 0.028927156701683998 0.19693694566376507 0.14913621358573437 0.77432249276898801 0.085901889018714428 0.29602810670621693 0.1214873194694519 0.33897595200687647
leaf_count=7 5 140 6 26 6 7 3 11 3 224 10 30 2 32
internal_value=0 -0.0300316 0.0597315 -0.000460476 -0.0246798 0.0321397 0.0861191 -0.0579053 -0.07429 0.0971972 0.082399 0.0889377 0.101528 -0.103363
internal_weight=0 2.36739 1.24424 1.67145 1.31515 0.485275 1.01496 0.829878 0.685049 0.924737 0.308397 0.356295 0.89581 0.488112
internal_count=512 270 242 130 95 43 235 52 46 229 36 35 226 35
is_linear=0
shrinkage=0.1


Tree=53
num_leaves=15
num_cat=0
split_feature=22 27 21 23 18 24 15 21 27 20 17 21 60 27
split_gain=0.589662 0.376696 0.329938 0.341838 0.362374 0.310408 0.262385 0.191061 0.104096 0.224427 0.040363 0.000193943 8.82467e-05 7.7985e-05
threshold=127.2 0.17695000000000002 20.810000000000002 739.85000000000002 0.016720000000000002 0.10765000000000001 0.012035000000000002 34.25500000000001 0.1358 16.765000000000004 0.014225000000000002 23.740000000000006 0.13944444444444448 0.14895000000000003
decision_type=2 2 2 2 2 2 2 2 2 2 2 2 2 2
