tree
version=v3
num_class=1
num_tree_per_iteration=1
label_index=0
max_feature_idx=1
objective=regression
feature_names=Column_0 Column_1
feature_infos=-1:1:0 [1:49.900000000000006]
category_encoding_provider=
tree_sizes=396 405 406 405 401 407 401 410 409 402

Tree=0
num_leaves=2
num_cat=0
split_feature=1
split_gain=2.09361e+06
threshold=1.0000000180025095e-35
decision_type=10
left_child=-1
right_child=-2
leaf_value=112.35361721314581 102.2151407237053
leaf_weight=415 400
leaf_count=415 400
internal_value=107.395
internal_weight=0
internal_count=815
is_linear=1
leaf_const=112.354 102.215
num_features=0 0
leaf_features=  
leaf_coeff=  
shrinkage=1


Tree=1
num_leaves=2
num_cat=0
split_feature=1
split_gain=1.69815e+06
threshold=1.0000000180025095e-35
decision_type=10
left_child=-1
right_child=-2
leaf_value=4.376932464099089 -4.7535729196600789
leaf_weight=414 401
leaf_count=414 401
internal_value=0
internal_weight=0
internal_count=815
is_linear=1
leaf_const=4.37693 -8.95552
num_features=0 1
leaf_features= 1  
leaf_coeff= 0.169365  
shrinkage=0.1


Tree=2
num_leaves=2
num_cat=0
split_feature=1
split_gain=1.36923e+06
threshold=1.0000000180025095e-35
decision_type=10
left_child=-1
right_child=-2
leaf_value=4.0738340257730306 -4.0838708307621259
leaf_weight=412 411
leaf_count=412 411
internal_value=0
internal_weight=0
internal_count=823
is_linear=1
leaf_const=4.07383 -8.06198
num_features=0 1
leaf_features= 1  
leaf_coeff= 0.152664  
shrinkage=0.1


Tree=3
num_leaves=2
num_cat=0
split_feature=1
split_gain=1.07516e+06
threshold=1.0000000180025095e-35
decision_type=10
left_child=-1
right_child=-2
leaf_value=3.6976787443647661 -3.7332047592538098
leaf_weight=395 384
leaf_count=395 384
internal_value=0
internal_weight=0
internal_count=779
is_linear=1
leaf_const=3.69768 -7.24071
num_features=0 1
leaf_features= 1  
leaf_coeff= 0.13687  
shrinkage=0.1


Tree=4
num_leaves=2
num_cat=0
split_feature=1
split_gain=885467
threshold=1.0000000180025095e-35
decision_type=10
left_child=-1
right_child=-2
leaf_value=3.3216306541655074 -3.3246335269529612
leaf_weight=407 395
leaf_count=407 395
internal_value=0
internal_weight=0
internal_count=802
is_linear=1
leaf_const=3.32163 -6.53106
num_features=0 1
leaf_features= 1  
leaf_coeff= 0.123746  
shrinkage=0.1


Tree=5
num_leaves=2
num_cat=0
split_feature=1
split_gain=696035
threshold=49.350000000000016
decision_type=8
left_child=-1
right_child=-2
leaf_value=-3.0993045655603946 2.7935335909180785
leaf_weight=394 408
leaf_count=394 408
internal_value=0
internal_weight=0
internal_count=802
is_linear=1
leaf_const=-5.8576 -5.10462
num_features=1 1
leaf_features=1  1  
leaf_coeff=0.110802  0.100743  
shrinkage=0.1


Tree=6
num_leaves=2
num_cat=0
split_feature=1
split_gain=595996
threshold=1.0000000180025095e-35
decision_type=10
left_child=-1
right_child=-2
leaf_value=2.6471886187990288 -2.7673453641421908
leaf_weight=420 394
leaf_count=420 394
internal_value=0
internal_weight=0
internal_count=814
is_linear=1
leaf_const=2.64719 -5.29782
num_features=0 1
leaf_features= 1  
leaf_coeff= 0.100093  
shrinkage=0.1


Tree=7
num_leaves=2
num_cat=0
split_feature=1
split_gain=450755
threshold=49.050000000000004
decision_type=8
left_child=-1
right_child=-2
leaf_value=-2.4889993285375933 2.2983555672181453
leaf_weight=378 410
leaf_count=378 410
internal_value=0
internal_weight=0
internal_count=788
is_linear=1
leaf_const=-4.73464 -2.73585
num_features=1 1
leaf_features=1  1  
leaf_coeff=0.0891653  0.0538581  
shrinkage=0.1


Tree=8
num_leaves=2
num_cat=0
split_feature=1
split_gain=362796
threshold=48.45000000000001
decision_type=8
left_child=-1
right_child=-2
leaf_value=-2.2745686808596135 1.9797163039424963
leaf_weight=381 423
leaf_count=381 423
internal_value=0
internal_weight=0
internal_count=804
is_linear=1
leaf_const=-4.26026 -3.26144
num_features=1 1
leaf_features=1  1  
leaf_coeff=0.0800826  0.0646087  
shrinkage=0.1


Tree=9
num_leaves=2
num_cat=0
split_feature=1
split_gain=319729
threshold=1.0000000180025095e-35
decision_type=10
left_child=-1
right_child=-2
leaf_value=1.9851270097009746 -1.9958032751363692
leaf_weight=403 404
leaf_count=403 404
internal_value=0
internal_weight=0
internal_count=807
is_linear=1
leaf_const=1.98513 -3.85923
num_features=0 1
leaf_features= 1  
leaf_coeff= 0.0729736  
shrinkage=0.1


end of trees

feature_importances:
Column_1=10

parameters:
[boosting: gbdt]
[objective: regression]
[metric: l2]
[tree_learner: serial]
[device_type: cpu]
[linear_tree: 1]
[data: ]
[valid: ]
[num_iterations: 10]
[learning_rate: 0.1]
[num_leaves: 2]
[num_threads: 0]
[deterministic: 0]
[force_col_wise: 0]
[force_row_wise: 0]
[histogram_pool_size: -1]
[max_depth: -1]
[min_data_in_leaf: 20]
[min_sum_hessian_in_leaf: 0.001]
[bagging_fraction: 0.8]
[pos_bagging_fraction: 1]
[neg_bagging_fraction: 1]
[bagging_freq: 1]
[bagging_seed: 7719]
[feature_fraction: 1]
[feature_fraction_bynode: 1]
[feature_fraction_seed: 2437]
[extra_trees: 0]
[extra_seed: 11797]
[early_stopping_round: 0]
[first_metric_only: 0]
[max_delta_step: 0]
[lambda_l1: 0]
[lambda_l2: 0]
[linear_lambda: 0]
[min_gain_to_split: 0]
[drop_rate: 0.1]
[max_drop: 50]
[skip_drop: 0.5]
[xgboost_dart_mode: 0]
[uniform_drop: 0]
[drop_seed: 21238]
[top_rate: 0.2]
[other_rate: 0.1]
[min_data_per_group: 100]
[max_cat_threshold: 32]
[cat_l2: 10]
[cat_smooth: 10]
[max_cat_to_onehot: 4]
[top_k: 20]
[monotone_constraints: ]
[monotone_constraints_method: basic]
[monotone_penalty: 0]
[feature_contri: ]
[forcedsplits_filename: ]
[refit_decay_rate: 0.9]
[cegb_tradeoff: 1]
[cegb_penalty_split: 0]
[cegb_penalty_feature_lazy: ]
[cegb_penalty_feature_coupled: ]
[path_smooth: 0]
[interaction_constraints: ]
[verbosity: -1]
[saved_feature_importance_type: 0]
[max_bin: 255]
[max_bin_by_feature: ]
[min_data_in_bin: 3]
[bin_construct_sample_cnt: 200000]
[data_random_seed: 38]
[is_enable_sparse: 1]
[enable_bundle: 1]
[use_missing: 1]
[zero_as_missing: 0]
[feature_pre_filter: 1]
[pre_partition: 0]
[two_round: 0]
[header: 0]
[label_column: ]
[weight_column: ]
[group_column: ]
[ignore_column: ]
[categorical_feature: 0]
[forcedbins_filename: ]
[objective_seed: 8855]
[num_class: 1]
[is_unbalance: 0]
[scale_pos_weight: 1]
[sigmoid: 1]
[boost_from_average: 1]
[reg_sqrt: 0]
[alpha: 0.9]
[fair_c: 1]
[poisson_max_delta_step: 0.7]
[tweedie_variance_power: 1.5]
[lambdarank_truncation_level: 30]
[lambdarank_norm: 1]
[label_gain: ]
[eval_at: ]
[multi_error_top_k: 1]
[auc_mu_weights: ]
[num_machines: 1]
[local_listen_port: 12400]
[time_out: 120]
[machine_list_filename: ]
[machines: ]
[gpu_platform_id: -1]
[gpu_device_id: -1]
[gpu_use_dp: 0]
[num_gpu: 1]
[category_encoders: raw]
[num_target_encoding_folds: 4]
[prior_weight: 1]

end of parameters

pandas_categorical:null
